%YAML:1.0
---
opencv_ml_rtrees:
   format: 3
   is_classifier: 1
   var_all: 1765
   var_count: 1764
   ord_var_count: 1764
   cat_var_count: 1
   training_params:
      use_surrogates: 0
      max_categories: 15
      regression_accuracy: 0.
      max_depth: 10
      min_sample_count: 10
      cross_validation_folds: 0
      nactive_vars: 4
   global_var_idx: 1
   var_idx: [ 0, 1, 2, 3, 4, 5, 6, 7, 8, 9, 10, 11, 12, 13, 14, 15, 16,
       17, 18, 19, 20, 21, 22, 23, 24, 25, 26, 27, 28, 29, 30, 31, 32,
       33, 34, 35, 36, 37, 38, 39, 40, 41, 42, 43, 44, 45, 46, 47, 48,
       49, 50, 51, 52, 53, 54, 55, 56, 57, 58, 59, 60, 61, 62, 63, 64,
       65, 66, 67, 68, 69, 70, 71, 72, 73, 74, 75, 76, 77, 78, 79, 80,
       81, 82, 83, 84, 85, 86, 87, 88, 89, 90, 91, 92, 93, 94, 95, 96,
       97, 98, 99, 100, 101, 102, 103, 104, 105, 106, 107, 108, 109, 110,
       111, 112, 113, 114, 115, 116, 117, 118, 119, 120, 121, 122, 123,
       124, 125, 126, 127, 128, 129, 130, 131, 132, 133, 134, 135, 136,
       137, 138, 139, 140, 141, 142, 143, 144, 145, 146, 147, 148, 149,
       150, 151, 152, 153, 154, 155, 156, 157, 158, 159, 160, 161, 162,
       163, 164, 165, 166, 167, 168, 169, 170, 171, 172, 173, 174, 175,
       176, 177, 178, 179, 180, 181, 182, 183, 184, 185, 186, 187, 188,
       189, 190, 191, 192, 193, 194, 195, 196, 197, 198, 199, 200, 201,
       202, 203, 204, 205, 206, 207, 208, 209, 210, 211, 212, 213, 214,
       215, 216, 217, 218, 219, 220, 221, 222, 223, 224, 225, 226, 227,
       228, 229, 230, 231, 232, 233, 234, 235, 236, 237, 238, 239, 240,
       241, 242, 243, 244, 245, 246, 247, 248, 249, 250, 251, 252, 253,
       254, 255, 256, 257, 258, 259, 260, 261, 262, 263, 264, 265, 266,
       267, 268, 269, 270, 271, 272, 273, 274, 275, 276, 277, 278, 279,
       280, 281, 282, 283, 284, 285, 286, 287, 288, 289, 290, 291, 292,
       293, 294, 295, 296, 297, 298, 299, 300, 301, 302, 303, 304, 305,
       306, 307, 308, 309, 310, 311, 312, 313, 314, 315, 316, 317, 318,
       319, 320, 321, 322, 323, 324, 325, 326, 327, 328, 329, 330, 331,
       332, 333, 334, 335, 336, 337, 338, 339, 340, 341, 342, 343, 344,
       345, 346, 347, 348, 349, 350, 351, 352, 353, 354, 355, 356, 357,
       358, 359, 360, 361, 362, 363, 364, 365, 366, 367, 368, 369, 370,
       371, 372, 373, 374, 375, 376, 377, 378, 379, 380, 381, 382, 383,
       384, 385, 386, 387, 388, 389, 390, 391, 392, 393, 394, 395, 396,
       397, 398, 399, 400, 401, 402, 403, 404, 405, 406, 407, 408, 409,
       410, 411, 412, 413, 414, 415, 416, 417, 418, 419, 420, 421, 422,
       423, 424, 425, 426, 427, 428, 429, 430, 431, 432, 433, 434, 435,
       436, 437, 438, 439, 440, 441, 442, 443, 444, 445, 446, 447, 448,
       449, 450, 451, 452, 453, 454, 455, 456, 457, 458, 459, 460, 461,
       462, 463, 464, 465, 466, 467, 468, 469, 470, 471, 472, 473, 474,
       475, 476, 477, 478, 479, 480, 481, 482, 483, 484, 485, 486, 487,
       488, 489, 490, 491, 492, 493, 494, 495, 496, 497, 498, 499, 500,
       501, 502, 503, 504, 505, 506, 507, 508, 509, 510, 511, 512, 513,
       514, 515, 516, 517, 518, 519, 520, 521, 522, 523, 524, 525, 526,
       527, 528, 529, 530, 531, 532, 533, 534, 535, 536, 537, 538, 539,
       540, 541, 542, 543, 544, 545, 546, 547, 548, 549, 550, 551, 552,
       553, 554, 555, 556, 557, 558, 559, 560, 561, 562, 563, 564, 565,
       566, 567, 568, 569, 570, 571, 572, 573, 574, 575, 576, 577, 578,
       579, 580, 581, 582, 583, 584, 585, 586, 587, 588, 589, 590, 591,
       592, 593, 594, 595, 596, 597, 598, 599, 600, 601, 602, 603, 604,
       605, 606, 607, 608, 609, 610, 611, 612, 613, 614, 615, 616, 617,
       618, 619, 620, 621, 622, 623, 624, 625, 626, 627, 628, 629, 630,
       631, 632, 633, 634, 635, 636, 637, 638, 639, 640, 641, 642, 643,
       644, 645, 646, 647, 648, 649, 650, 651, 652, 653, 654, 655, 656,
       657, 658, 659, 660, 661, 662, 663, 664, 665, 666, 667, 668, 669,
       670, 671, 672, 673, 674, 675, 676, 677, 678, 679, 680, 681, 682,
       683, 684, 685, 686, 687, 688, 689, 690, 691, 692, 693, 694, 695,
       696, 697, 698, 699, 700, 701, 702, 703, 704, 705, 706, 707, 708,
       709, 710, 711, 712, 713, 714, 715, 716, 717, 718, 719, 720, 721,
       722, 723, 724, 725, 726, 727, 728, 729, 730, 731, 732, 733, 734,
       735, 736, 737, 738, 739, 740, 741, 742, 743, 744, 745, 746, 747,
       748, 749, 750, 751, 752, 753, 754, 755, 756, 757, 758, 759, 760,
       761, 762, 763, 764, 765, 766, 767, 768, 769, 770, 771, 772, 773,
       774, 775, 776, 777, 778, 779, 780, 781, 782, 783, 784, 785, 786,
       787, 788, 789, 790, 791, 792, 793, 794, 795, 796, 797, 798, 799,
       800, 801, 802, 803, 804, 805, 806, 807, 808, 809, 810, 811, 812,
       813, 814, 815, 816, 817, 818, 819, 820, 821, 822, 823, 824, 825,
       826, 827, 828, 829, 830, 831, 832, 833, 834, 835, 836, 837, 838,
       839, 840, 841, 842, 843, 844, 845, 846, 847, 848, 849, 850, 851,
       852, 853, 854, 855, 856, 857, 858, 859, 860, 861, 862, 863, 864,
       865, 866, 867, 868, 869, 870, 871, 872, 873, 874, 875, 876, 877,
       878, 879, 880, 881, 882, 883, 884, 885, 886, 887, 888, 889, 890,
       891, 892, 893, 894, 895, 896, 897, 898, 899, 900, 901, 902, 903,
       904, 905, 906, 907, 908, 909, 910, 911, 912, 913, 914, 915, 916,
       917, 918, 919, 920, 921, 922, 923, 924, 925, 926, 927, 928, 929,
       930, 931, 932, 933, 934, 935, 936, 937, 938, 939, 940, 941, 942,
       943, 944, 945, 946, 947, 948, 949, 950, 951, 952, 953, 954, 955,
       956, 957, 958, 959, 960, 961, 962, 963, 964, 965, 966, 967, 968,
       969, 970, 971, 972, 973, 974, 975, 976, 977, 978, 979, 980, 981,
       982, 983, 984, 985, 986, 987, 988, 989, 990, 991, 992, 993, 994,
       995, 996, 997, 998, 999, 1000, 1001, 1002, 1003, 1004, 1005, 1006,
       1007, 1008, 1009, 1010, 1011, 1012, 1013, 1014, 1015, 1016, 1017,
       1018, 1019, 1020, 1021, 1022, 1023, 1024, 1025, 1026, 1027, 1028,
       1029, 1030, 1031, 1032, 1033, 1034, 1035, 1036, 1037, 1038, 1039,
       1040, 1041, 1042, 1043, 1044, 1045, 1046, 1047, 1048, 1049, 1050,
       1051, 1052, 1053, 1054, 1055, 1056, 1057, 1058, 1059, 1060, 1061,
       1062, 1063, 1064, 1065, 1066, 1067, 1068, 1069, 1070, 1071, 1072,
       1073, 1074, 1075, 1076, 1077, 1078, 1079, 1080, 1081, 1082, 1083,
       1084, 1085, 1086, 1087, 1088, 1089, 1090, 1091, 1092, 1093, 1094,
       1095, 1096, 1097, 1098, 1099, 1100, 1101, 1102, 1103, 1104, 1105,
       1106, 1107, 1108, 1109, 1110, 1111, 1112, 1113, 1114, 1115, 1116,
       1117, 1118, 1119, 1120, 1121, 1122, 1123, 1124, 1125, 1126, 1127,
       1128, 1129, 1130, 1131, 1132, 1133, 1134, 1135, 1136, 1137, 1138,
       1139, 1140, 1141, 1142, 1143, 1144, 1145, 1146, 1147, 1148, 1149,
       1150, 1151, 1152, 1153, 1154, 1155, 1156, 1157, 1158, 1159, 1160,
       1161, 1162, 1163, 1164, 1165, 1166, 1167, 1168, 1169, 1170, 1171,
       1172, 1173, 1174, 1175, 1176, 1177, 1178, 1179, 1180, 1181, 1182,
       1183, 1184, 1185, 1186, 1187, 1188, 1189, 1190, 1191, 1192, 1193,
       1194, 1195, 1196, 1197, 1198, 1199, 1200, 1201, 1202, 1203, 1204,
       1205, 1206, 1207, 1208, 1209, 1210, 1211, 1212, 1213, 1214, 1215,
       1216, 1217, 1218, 1219, 1220, 1221, 1222, 1223, 1224, 1225, 1226,
       1227, 1228, 1229, 1230, 1231, 1232, 1233, 1234, 1235, 1236, 1237,
       1238, 1239, 1240, 1241, 1242, 1243, 1244, 1245, 1246, 1247, 1248,
       1249, 1250, 1251, 1252, 1253, 1254, 1255, 1256, 1257, 1258, 1259,
       1260, 1261, 1262, 1263, 1264, 1265, 1266, 1267, 1268, 1269, 1270,
       1271, 1272, 1273, 1274, 1275, 1276, 1277, 1278, 1279, 1280, 1281,
       1282, 1283, 1284, 1285, 1286, 1287, 1288, 1289, 1290, 1291, 1292,
       1293, 1294, 1295, 1296, 1297, 1298, 1299, 1300, 1301, 1302, 1303,
       1304, 1305, 1306, 1307, 1308, 1309, 1310, 1311, 1312, 1313, 1314,
       1315, 1316, 1317, 1318, 1319, 1320, 1321, 1322, 1323, 1324, 1325,
       1326, 1327, 1328, 1329, 1330, 1331, 1332, 1333, 1334, 1335, 1336,
       1337, 1338, 1339, 1340, 1341, 1342, 1343, 1344, 1345, 1346, 1347,
       1348, 1349, 1350, 1351, 1352, 1353, 1354, 1355, 1356, 1357, 1358,
       1359, 1360, 1361, 1362, 1363, 1364, 1365, 1366, 1367, 1368, 1369,
       1370, 1371, 1372, 1373, 1374, 1375, 1376, 1377, 1378, 1379, 1380,
       1381, 1382, 1383, 1384, 1385, 1386, 1387, 1388, 1389, 1390, 1391,
       1392, 1393, 1394, 1395, 1396, 1397, 1398, 1399, 1400, 1401, 1402,
       1403, 1404, 1405, 1406, 1407, 1408, 1409, 1410, 1411, 1412, 1413,
       1414, 1415, 1416, 1417, 1418, 1419, 1420, 1421, 1422, 1423, 1424,
       1425, 1426, 1427, 1428, 1429, 1430, 1431, 1432, 1433, 1434, 1435,
       1436, 1437, 1438, 1439, 1440, 1441, 1442, 1443, 1444, 1445, 1446,
       1447, 1448, 1449, 1450, 1451, 1452, 1453, 1454, 1455, 1456, 1457,
       1458, 1459, 1460, 1461, 1462, 1463, 1464, 1465, 1466, 1467, 1468,
       1469, 1470, 1471, 1472, 1473, 1474, 1475, 1476, 1477, 1478, 1479,
       1480, 1481, 1482, 1483, 1484, 1485, 1486, 1487, 1488, 1489, 1490,
       1491, 1492, 1493, 1494, 1495, 1496, 1497, 1498, 1499, 1500, 1501,
       1502, 1503, 1504, 1505, 1506, 1507, 1508, 1509, 1510, 1511, 1512,
       1513, 1514, 1515, 1516, 1517, 1518, 1519, 1520, 1521, 1522, 1523,
       1524, 1525, 1526, 1527, 1528, 1529, 1530, 1531, 1532, 1533, 1534,
       1535, 1536, 1537, 1538, 1539, 1540, 1541, 1542, 1543, 1544, 1545,
       1546, 1547, 1548, 1549, 1550, 1551, 1552, 1553, 1554, 1555, 1556,
       1557, 1558, 1559, 1560, 1561, 1562, 1563, 1564, 1565, 1566, 1567,
       1568, 1569, 1570, 1571, 1572, 1573, 1574, 1575, 1576, 1577, 1578,
       1579, 1580, 1581, 1582, 1583, 1584, 1585, 1586, 1587, 1588, 1589,
       1590, 1591, 1592, 1593, 1594, 1595, 1596, 1597, 1598, 1599, 1600,
       1601, 1602, 1603, 1604, 1605, 1606, 1607, 1608, 1609, 1610, 1611,
       1612, 1613, 1614, 1615, 1616, 1617, 1618, 1619, 1620, 1621, 1622,
       1623, 1624, 1625, 1626, 1627, 1628, 1629, 1630, 1631, 1632, 1633,
       1634, 1635, 1636, 1637, 1638, 1639, 1640, 1641, 1642, 1643, 1644,
       1645, 1646, 1647, 1648, 1649, 1650, 1651, 1652, 1653, 1654, 1655,
       1656, 1657, 1658, 1659, 1660, 1661, 1662, 1663, 1664, 1665, 1666,
       1667, 1668, 1669, 1670, 1671, 1672, 1673, 1674, 1675, 1676, 1677,
       1678, 1679, 1680, 1681, 1682, 1683, 1684, 1685, 1686, 1687, 1688,
       1689, 1690, 1691, 1692, 1693, 1694, 1695, 1696, 1697, 1698, 1699,
       1700, 1701, 1702, 1703, 1704, 1705, 1706, 1707, 1708, 1709, 1710,
       1711, 1712, 1713, 1714, 1715, 1716, 1717, 1718, 1719, 1720, 1721,
       1722, 1723, 1724, 1725, 1726, 1727, 1728, 1729, 1730, 1731, 1732,
       1733, 1734, 1735, 1736, 1737, 1738, 1739, 1740, 1741, 1742, 1743,
       1744, 1745, 1746, 1747, 1748, 1749, 1750, 1751, 1752, 1753, 1754,
       1755, 1756, 1757, 1758, 1759, 1760, 1761, 1762, 1763 ]
   var_type: [ 0, 0, 0, 0, 0, 0, 0, 0, 0, 0, 0, 0, 0, 0, 0, 0, 0, 0, 0,
       0, 0, 0, 0, 0, 0, 0, 0, 0, 0, 0, 0, 0, 0, 0, 0, 0, 0, 0, 0, 0, 0,
       0, 0, 0, 0, 0, 0, 0, 0, 0, 0, 0, 0, 0, 0, 0, 0, 0, 0, 0, 0, 0, 0,
       0, 0, 0, 0, 0, 0, 0, 0, 0, 0, 0, 0, 0, 0, 0, 0, 0, 0, 0, 0, 0, 0,
       0, 0, 0, 0, 0, 0, 0, 0, 0, 0, 0, 0, 0, 0, 0, 0, 0, 0, 0, 0, 0, 0,
       0, 0, 0, 0, 0, 0, 0, 0, 0, 0, 0, 0, 0, 0, 0, 0, 0, 0, 0, 0, 0, 0,
       0, 0, 0, 0, 0, 0, 0, 0, 0, 0, 0, 0, 0, 0, 0, 0, 0, 0, 0, 0, 0, 0,
       0, 0, 0, 0, 0, 0, 0, 0, 0, 0, 0, 0, 0, 0, 0, 0, 0, 0, 0, 0, 0, 0,
       0, 0, 0, 0, 0, 0, 0, 0, 0, 0, 0, 0, 0, 0, 0, 0, 0, 0, 0, 0, 0, 0,
       0, 0, 0, 0, 0, 0, 0, 0, 0, 0, 0, 0, 0, 0, 0, 0, 0, 0, 0, 0, 0, 0,
       0, 0, 0, 0, 0, 0, 0, 0, 0, 0, 0, 0, 0, 0, 0, 0, 0, 0, 0, 0, 0, 0,
       0, 0, 0, 0, 0, 0, 0, 0, 0, 0, 0, 0, 0, 0, 0, 0, 0, 0, 0, 0, 0, 0,
       0, 0, 0, 0, 0, 0, 0, 0, 0, 0, 0, 0, 0, 0, 0, 0, 0, 0, 0, 0, 0, 0,
       0, 0, 0, 0, 0, 0, 0, 0, 0, 0, 0, 0, 0, 0, 0, 0, 0, 0, 0, 0, 0, 0,
       0, 0, 0, 0, 0, 0, 0, 0, 0, 0, 0, 0, 0, 0, 0, 0, 0, 0, 0, 0, 0, 0,
       0, 0, 0, 0, 0, 0, 0, 0, 0, 0, 0, 0, 0, 0, 0, 0, 0, 0, 0, 0, 0, 0,
       0, 0, 0, 0, 0, 0, 0, 0, 0, 0, 0, 0, 0, 0, 0, 0, 0, 0, 0, 0, 0, 0,
       0, 0, 0, 0, 0, 0, 0, 0, 0, 0, 0, 0, 0, 0, 0, 0, 0, 0, 0, 0, 0, 0,
       0, 0, 0, 0, 0, 0, 0, 0, 0, 0, 0, 0, 0, 0, 0, 0, 0, 0, 0, 0, 0, 0,
       0, 0, 0, 0, 0, 0, 0, 0, 0, 0, 0, 0, 0, 0, 0, 0, 0, 0, 0, 0, 0, 0,
       0, 0, 0, 0, 0, 0, 0, 0, 0, 0, 0, 0, 0, 0, 0, 0, 0, 0, 0, 0, 0, 0,
       0, 0, 0, 0, 0, 0, 0, 0, 0, 0, 0, 0, 0, 0, 0, 0, 0, 0, 0, 0, 0, 0,
       0, 0, 0, 0, 0, 0, 0, 0, 0, 0, 0, 0, 0, 0, 0, 0, 0, 0, 0, 0, 0, 0,
       0, 0, 0, 0, 0, 0, 0, 0, 0, 0, 0, 0, 0, 0, 0, 0, 0, 0, 0, 0, 0, 0,
       0, 0, 0, 0, 0, 0, 0, 0, 0, 0, 0, 0, 0, 0, 0, 0, 0, 0, 0, 0, 0, 0,
       0, 0, 0, 0, 0, 0, 0, 0, 0, 0, 0, 0, 0, 0, 0, 0, 0, 0, 0, 0, 0, 0,
       0, 0, 0, 0, 0, 0, 0, 0, 0, 0, 0, 0, 0, 0, 0, 0, 0, 0, 0, 0, 0, 0,
       0, 0, 0, 0, 0, 0, 0, 0, 0, 0, 0, 0, 0, 0, 0, 0, 0, 0, 0, 0, 0, 0,
       0, 0, 0, 0, 0, 0, 0, 0, 0, 0, 0, 0, 0, 0, 0, 0, 0, 0, 0, 0, 0, 0,
       0, 0, 0, 0, 0, 0, 0, 0, 0, 0, 0, 0, 0, 0, 0, 0, 0, 0, 0, 0, 0, 0,
       0, 0, 0, 0, 0, 0, 0, 0, 0, 0, 0, 0, 0, 0, 0, 0, 0, 0, 0, 0, 0, 0,
       0, 0, 0, 0, 0, 0, 0, 0, 0, 0, 0, 0, 0, 0, 0, 0, 0, 0, 0, 0, 0, 0,
       0, 0, 0, 0, 0, 0, 0, 0, 0, 0, 0, 0, 0, 0, 0, 0, 0, 0, 0, 0, 0, 0,
       0, 0, 0, 0, 0, 0, 0, 0, 0, 0, 0, 0, 0, 0, 0, 0, 0, 0, 0, 0, 0, 0,
       0, 0, 0, 0, 0, 0, 0, 0, 0, 0, 0, 0, 0, 0, 0, 0, 0, 0, 0, 0, 0, 0,
       0, 0, 0, 0, 0, 0, 0, 0, 0, 0, 0, 0, 0, 0, 0, 0, 0, 0, 0, 0, 0, 0,
       0, 0, 0, 0, 0, 0, 0, 0, 0, 0, 0, 0, 0, 0, 0, 0, 0, 0, 0, 0, 0, 0,
       0, 0, 0, 0, 0, 0, 0, 0, 0, 0, 0, 0, 0, 0, 0, 0, 0, 0, 0, 0, 0, 0,
       0, 0, 0, 0, 0, 0, 0, 0, 0, 0, 0, 0, 0, 0, 0, 0, 0, 0, 0, 0, 0, 0,
       0, 0, 0, 0, 0, 0, 0, 0, 0, 0, 0, 0, 0, 0, 0, 0, 0, 0, 0, 0, 0, 0,
       0, 0, 0, 0, 0, 0, 0, 0, 0, 0, 0, 0, 0, 0, 0, 0, 0, 0, 0, 0, 0, 0,
       0, 0, 0, 0, 0, 0, 0, 0, 0, 0, 0, 0, 0, 0, 0, 0, 0, 0, 0, 0, 0, 0,
       0, 0, 0, 0, 0, 0, 0, 0, 0, 0, 0, 0, 0, 0, 0, 0, 0, 0, 0, 0, 0, 0,
       0, 0, 0, 0, 0, 0, 0, 0, 0, 0, 0, 0, 0, 0, 0, 0, 0, 0, 0, 0, 0, 0,
       0, 0, 0, 0, 0, 0, 0, 0, 0, 0, 0, 0, 0, 0, 0, 0, 0, 0, 0, 0, 0, 0,
       0, 0, 0, 0, 0, 0, 0, 0, 0, 0, 0, 0, 0, 0, 0, 0, 0, 0, 0, 0, 0, 0,
       0, 0, 0, 0, 0, 0, 0, 0, 0, 0, 0, 0, 0, 0, 0, 0, 0, 0, 0, 0, 0, 0,
       0, 0, 0, 0, 0, 0, 0, 0, 0, 0, 0, 0, 0, 0, 0, 0, 0, 0, 0, 0, 0, 0,
       0, 0, 0, 0, 0, 0, 0, 0, 0, 0, 0, 0, 0, 0, 0, 0, 0, 0, 0, 0, 0, 0,
       0, 0, 0, 0, 0, 0, 0, 0, 0, 0, 0, 0, 0, 0, 0, 0, 0, 0, 0, 0, 0, 0,
       0, 0, 0, 0, 0, 0, 0, 0, 0, 0, 0, 0, 0, 0, 0, 0, 0, 0, 0, 0, 0, 0,
       0, 0, 0, 0, 0, 0, 0, 0, 0, 0, 0, 0, 0, 0, 0, 0, 0, 0, 0, 0, 0, 0,
       0, 0, 0, 0, 0, 0, 0, 0, 0, 0, 0, 0, 0, 0, 0, 0, 0, 0, 0, 0, 0, 0,
       0, 0, 0, 0, 0, 0, 0, 0, 0, 0, 0, 0, 0, 0, 0, 0, 0, 0, 0, 0, 0, 0,
       0, 0, 0, 0, 0, 0, 0, 0, 0, 0, 0, 0, 0, 0, 0, 0, 0, 0, 0, 0, 0, 0,
       0, 0, 0, 0, 0, 0, 0, 0, 0, 0, 0, 0, 0, 0, 0, 0, 0, 0, 0, 0, 0, 0,
       0, 0, 0, 0, 0, 0, 0, 0, 0, 0, 0, 0, 0, 0, 0, 0, 0, 0, 0, 0, 0, 0,
       0, 0, 0, 0, 0, 0, 0, 0, 0, 0, 0, 0, 0, 0, 0, 0, 0, 0, 0, 0, 0, 0,
       0, 0, 0, 0, 0, 0, 0, 0, 0, 0, 0, 0, 0, 0, 0, 0, 0, 0, 0, 0, 0, 0,
       0, 0, 0, 0, 0, 0, 0, 0, 0, 0, 0, 0, 0, 0, 0, 0, 0, 0, 0, 0, 0, 0,
       0, 0, 0, 0, 0, 0, 0, 0, 0, 0, 0, 0, 0, 0, 0, 0, 0, 0, 0, 0, 0, 0,
       0, 0, 0, 0, 0, 0, 0, 0, 0, 0, 0, 0, 0, 0, 0, 0, 0, 0, 0, 0, 0, 0,
       0, 0, 0, 0, 0, 0, 0, 0, 0, 0, 0, 0, 0, 0, 0, 0, 0, 0, 0, 0, 0, 0,
       0, 0, 0, 0, 0, 0, 0, 0, 0, 0, 0, 0, 0, 0, 0, 0, 0, 0, 0, 0, 0, 0,
       0, 0, 0, 0, 0, 0, 0, 0, 0, 0, 0, 0, 0, 0, 0, 0, 0, 0, 0, 0, 0, 0,
       0, 0, 0, 0, 0, 0, 0, 0, 0, 0, 0, 0, 0, 0, 0, 0, 0, 0, 0, 0, 0, 0,
       0, 0, 0, 0, 0, 0, 0, 0, 0, 0, 0, 0, 0, 0, 0, 0, 0, 0, 0, 0, 0, 0,
       0, 0, 0, 0, 0, 0, 0, 0, 0, 0, 0, 0, 0, 0, 0, 0, 0, 0, 0, 0, 0, 0,
       0, 0, 0, 0, 0, 0, 0, 0, 0, 0, 0, 0, 0, 0, 0, 0, 0, 0, 0, 0, 0, 0,
       0, 0, 0, 0, 0, 0, 0, 0, 0, 0, 0, 0, 0, 0, 0, 0, 0, 0, 0, 0, 0, 0,
       0, 0, 0, 0, 0, 0, 0, 0, 0, 0, 0, 0, 0, 0, 0, 0, 0, 0, 0, 0, 0, 0,
       0, 0, 0, 0, 0, 0, 0, 0, 0, 0, 0, 0, 0, 0, 0, 0, 0, 0, 0, 0, 0, 0,
       0, 0, 0, 0, 0, 0, 0, 0, 0, 0, 0, 0, 0, 0, 0, 0, 0, 0, 0, 0, 0, 0,
       0, 0, 0, 0, 0, 0, 0, 0, 0, 0, 0, 0, 0, 0, 0, 0, 0, 0, 0, 0, 0, 0,
       0, 0, 0, 0, 0, 0, 0, 0, 0, 0, 0, 0, 0, 0, 0, 0, 0, 0, 0, 0, 0, 0,
       0, 0, 0, 0, 0, 0, 0, 0, 0, 0, 0, 0, 0, 0, 0, 0, 0, 0, 0, 0, 0, 0,
       0, 0, 0, 0, 0, 0, 0, 0, 0, 0, 0, 0, 0, 0, 0, 0, 0, 0, 0, 0, 0, 0,
       0, 0, 0, 0, 0, 0, 0, 0, 0, 0, 0, 0, 0, 0, 0, 0, 0, 0, 0, 0, 0, 0,
       0, 0, 0, 0, 0, 0, 0, 0, 0, 0, 0, 0, 0, 0, 0, 0, 0, 0, 0, 0, 0, 0,
       0, 0, 0, 0, 0, 0, 0, 0, 0, 0, 0, 0, 0, 0, 0, 0, 0, 0, 0, 0, 0, 0,
       0, 0, 0, 0, 0, 0, 0, 1 ]
   cat_ofs: [ 0, 0, 0, 0, 0, 0, 0, 0, 0, 0, 0, 0, 0, 0, 0, 0, 0, 0, 0, 0,
       0, 0, 0, 0, 0, 0, 0, 0, 0, 0, 0, 0, 0, 0, 0, 0, 0, 0, 0, 0, 0, 0,
       0, 0, 0, 0, 0, 0, 0, 0, 0, 0, 0, 0, 0, 0, 0, 0, 0, 0, 0, 0, 0, 0,
       0, 0, 0, 0, 0, 0, 0, 0, 0, 0, 0, 0, 0, 0, 0, 0, 0, 0, 0, 0, 0, 0,
       0, 0, 0, 0, 0, 0, 0, 0, 0, 0, 0, 0, 0, 0, 0, 0, 0, 0, 0, 0, 0, 0,
       0, 0, 0, 0, 0, 0, 0, 0, 0, 0, 0, 0, 0, 0, 0, 0, 0, 0, 0, 0, 0, 0,
       0, 0, 0, 0, 0, 0, 0, 0, 0, 0, 0, 0, 0, 0, 0, 0, 0, 0, 0, 0, 0, 0,
       0, 0, 0, 0, 0, 0, 0, 0, 0, 0, 0, 0, 0, 0, 0, 0, 0, 0, 0, 0, 0, 0,
       0, 0, 0, 0, 0, 0, 0, 0, 0, 0, 0, 0, 0, 0, 0, 0, 0, 0, 0, 0, 0, 0,
       0, 0, 0, 0, 0, 0, 0, 0, 0, 0, 0, 0, 0, 0, 0, 0, 0, 0, 0, 0, 0, 0,
       0, 0, 0, 0, 0, 0, 0, 0, 0, 0, 0, 0, 0, 0, 0, 0, 0, 0, 0, 0, 0, 0,
       0, 0, 0, 0, 0, 0, 0, 0, 0, 0, 0, 0, 0, 0, 0, 0, 0, 0, 0, 0, 0, 0,
       0, 0, 0, 0, 0, 0, 0, 0, 0, 0, 0, 0, 0, 0, 0, 0, 0, 0, 0, 0, 0, 0,
       0, 0, 0, 0, 0, 0, 0, 0, 0, 0, 0, 0, 0, 0, 0, 0, 0, 0, 0, 0, 0, 0,
       0, 0, 0, 0, 0, 0, 0, 0, 0, 0, 0, 0, 0, 0, 0, 0, 0, 0, 0, 0, 0, 0,
       0, 0, 0, 0, 0, 0, 0, 0, 0, 0, 0, 0, 0, 0, 0, 0, 0, 0, 0, 0, 0, 0,
       0, 0, 0, 0, 0, 0, 0, 0, 0, 0, 0, 0, 0, 0, 0, 0, 0, 0, 0, 0, 0, 0,
       0, 0, 0, 0, 0, 0, 0, 0, 0, 0, 0, 0, 0, 0, 0, 0, 0, 0, 0, 0, 0, 0,
       0, 0, 0, 0, 0, 0, 0, 0, 0, 0, 0, 0, 0, 0, 0, 0, 0, 0, 0, 0, 0, 0,
       0, 0, 0, 0, 0, 0, 0, 0, 0, 0, 0, 0, 0, 0, 0, 0, 0, 0, 0, 0, 0, 0,
       0, 0, 0, 0, 0, 0, 0, 0, 0, 0, 0, 0, 0, 0, 0, 0, 0, 0, 0, 0, 0, 0,
       0, 0, 0, 0, 0, 0, 0, 0, 0, 0, 0, 0, 0, 0, 0, 0, 0, 0, 0, 0, 0, 0,
       0, 0, 0, 0, 0, 0, 0, 0, 0, 0, 0, 0, 0, 0, 0, 0, 0, 0, 0, 0, 0, 0,
       0, 0, 0, 0, 0, 0, 0, 0, 0, 0, 0, 0, 0, 0, 0, 0, 0, 0, 0, 0, 0, 0,
       0, 0, 0, 0, 0, 0, 0, 0, 0, 0, 0, 0, 0, 0, 0, 0, 0, 0, 0, 0, 0, 0,
       0, 0, 0, 0, 0, 0, 0, 0, 0, 0, 0, 0, 0, 0, 0, 0, 0, 0, 0, 0, 0, 0,
       0, 0, 0, 0, 0, 0, 0, 0, 0, 0, 0, 0, 0, 0, 0, 0, 0, 0, 0, 0, 0, 0,
       0, 0, 0, 0, 0, 0, 0, 0, 0, 0, 0, 0, 0, 0, 0, 0, 0, 0, 0, 0, 0, 0,
       0, 0, 0, 0, 0, 0, 0, 0, 0, 0, 0, 0, 0, 0, 0, 0, 0, 0, 0, 0, 0, 0,
       0, 0, 0, 0, 0, 0, 0, 0, 0, 0, 0, 0, 0, 0, 0, 0, 0, 0, 0, 0, 0, 0,
       0, 0, 0, 0, 0, 0, 0, 0, 0, 0, 0, 0, 0, 0, 0, 0, 0, 0, 0, 0, 0, 0,
       0, 0, 0, 0, 0, 0, 0, 0, 0, 0, 0, 0, 0, 0, 0, 0, 0, 0, 0, 0, 0, 0,
       0, 0, 0, 0, 0, 0, 0, 0, 0, 0, 0, 0, 0, 0, 0, 0, 0, 0, 0, 0, 0, 0,
       0, 0, 0, 0, 0, 0, 0, 0, 0, 0, 0, 0, 0, 0, 0, 0, 0, 0, 0, 0, 0, 0,
       0, 0, 0, 0, 0, 0, 0, 0, 0, 0, 0, 0, 0, 0, 0, 0, 0, 0, 0, 0, 0, 0,
       0, 0, 0, 0, 0, 0, 0, 0, 0, 0, 0, 0, 0, 0, 0, 0, 0, 0, 0, 0, 0, 0,
       0, 0, 0, 0, 0, 0, 0, 0, 0, 0, 0, 0, 0, 0, 0, 0, 0, 0, 0, 0, 0, 0,
       0, 0, 0, 0, 0, 0, 0, 0, 0, 0, 0, 0, 0, 0, 0, 0, 0, 0, 0, 0, 0, 0,
       0, 0, 0, 0, 0, 0, 0, 0, 0, 0, 0, 0, 0, 0, 0, 0, 0, 0, 0, 0, 0, 0,
       0, 0, 0, 0, 0, 0, 0, 0, 0, 0, 0, 0, 0, 0, 0, 0, 0, 0, 0, 0, 0, 0,
       0, 0, 0, 0, 0, 0, 0, 0, 0, 0, 0, 0, 0, 0, 0, 0, 0, 0, 0, 0, 0, 0,
       0, 0, 0, 0, 0, 0, 0, 0, 0, 0, 0, 0, 0, 0, 0, 0, 0, 0, 0, 0, 0, 0,
       0, 0, 0, 0, 0, 0, 0, 0, 0, 0, 0, 0, 0, 0, 0, 0, 0, 0, 0, 0, 0, 0,
       0, 0, 0, 0, 0, 0, 0, 0, 0, 0, 0, 0, 0, 0, 0, 0, 0, 0, 0, 0, 0, 0,
       0, 0, 0, 0, 0, 0, 0, 0, 0, 0, 0, 0, 0, 0, 0, 0, 0, 0, 0, 0, 0, 0,
       0, 0, 0, 0, 0, 0, 0, 0, 0, 0, 0, 0, 0, 0, 0, 0, 0, 0, 0, 0, 0, 0,
       0, 0, 0, 0, 0, 0, 0, 0, 0, 0, 0, 0, 0, 0, 0, 0, 0, 0, 0, 0, 0, 0,
       0, 0, 0, 0, 0, 0, 0, 0, 0, 0, 0, 0, 0, 0, 0, 0, 0, 0, 0, 0, 0, 0,
       0, 0, 0, 0, 0, 0, 0, 0, 0, 0, 0, 0, 0, 0, 0, 0, 0, 0, 0, 0, 0, 0,
       0, 0, 0, 0, 0, 0, 0, 0, 0, 0, 0, 0, 0, 0, 0, 0, 0, 0, 0, 0, 0, 0,
       0, 0, 0, 0, 0, 0, 0, 0, 0, 0, 0, 0, 0, 0, 0, 0, 0, 0, 0, 0, 0, 0,
       0, 0, 0, 0, 0, 0, 0, 0, 0, 0, 0, 0, 0, 0, 0, 0, 0, 0, 0, 0, 0, 0,
       0, 0, 0, 0, 0, 0, 0, 0, 0, 0, 0, 0, 0, 0, 0, 0, 0, 0, 0, 0, 0, 0,
       0, 0, 0, 0, 0, 0, 0, 0, 0, 0, 0, 0, 0, 0, 0, 0, 0, 0, 0, 0, 0, 0,
       0, 0, 0, 0, 0, 0, 0, 0, 0, 0, 0, 0, 0, 0, 0, 0, 0, 0, 0, 0, 0, 0,
       0, 0, 0, 0, 0, 0, 0, 0, 0, 0, 0, 0, 0, 0, 0, 0, 0, 0, 0, 0, 0, 0,
       0, 0, 0, 0, 0, 0, 0, 0, 0, 0, 0, 0, 0, 0, 0, 0, 0, 0, 0, 0, 0, 0,
       0, 0, 0, 0, 0, 0, 0, 0, 0, 0, 0, 0, 0, 0, 0, 0, 0, 0, 0, 0, 0, 0,
       0, 0, 0, 0, 0, 0, 0, 0, 0, 0, 0, 0, 0, 0, 0, 0, 0, 0, 0, 0, 0, 0,
       0, 0, 0, 0, 0, 0, 0, 0, 0, 0, 0, 0, 0, 0, 0, 0, 0, 0, 0, 0, 0, 0,
       0, 0, 0, 0, 0, 0, 0, 0, 0, 0, 0, 0, 0, 0, 0, 0, 0, 0, 0, 0, 0, 0,
       0, 0, 0, 0, 0, 0, 0, 0, 0, 0, 0, 0, 0, 0, 0, 0, 0, 0, 0, 0, 0, 0,
       0, 0, 0, 0, 0, 0, 0, 0, 0, 0, 0, 0, 0, 0, 0, 0, 0, 0, 0, 0, 0, 0,
       0, 0, 0, 0, 0, 0, 0, 0, 0, 0, 0, 0, 0, 0, 0, 0, 0, 0, 0, 0, 0, 0,
       0, 0, 0, 0, 0, 0, 0, 0, 0, 0, 0, 0, 0, 0, 0, 0, 0, 0, 0, 0, 0, 0,
       0, 0, 0, 0, 0, 0, 0, 0, 0, 0, 0, 0, 0, 0, 0, 0, 0, 0, 0, 0, 0, 0,
       0, 0, 0, 0, 0, 0, 0, 0, 0, 0, 0, 0, 0, 0, 0, 0, 0, 0, 0, 0, 0, 0,
       0, 0, 0, 0, 0, 0, 0, 0, 0, 0, 0, 0, 0, 0, 0, 0, 0, 0, 0, 0, 0, 0,
       0, 0, 0, 0, 0, 0, 0, 0, 0, 0, 0, 0, 0, 0, 0, 0, 0, 0, 0, 0, 0, 0,
       0, 0, 0, 0, 0, 0, 0, 0, 0, 0, 0, 0, 0, 0, 0, 0, 0, 0, 0, 0, 0, 0,
       0, 0, 0, 0, 0, 0, 0, 0, 0, 0, 0, 0, 0, 0, 0, 0, 0, 0, 0, 0, 0, 0,
       0, 0, 0, 0, 0, 0, 0, 0, 0, 0, 0, 0, 0, 0, 0, 0, 0, 0, 0, 0, 0, 0,
       0, 0, 0, 0, 0, 0, 0, 0, 0, 0, 0, 0, 0, 0, 0, 0, 0, 0, 0, 0, 0, 0,
       0, 0, 0, 0, 0, 0, 0, 0, 0, 0, 0, 0, 0, 0, 0, 0, 0, 0, 0, 0, 0, 0,
       0, 0, 0, 0, 0, 0, 0, 0, 0, 0, 0, 0, 0, 0, 0, 0, 0, 0, 0, 0, 0, 0,
       0, 0, 0, 0, 0, 0, 0, 0, 0, 0, 0, 0, 0, 0, 0, 0, 0, 0, 0, 0, 0, 0,
       0, 0, 0, 0, 0, 0, 0, 0, 0, 0, 0, 0, 0, 0, 0, 0, 0, 0, 0, 0, 0, 0,
       0, 0, 0, 0, 0, 0, 0, 0, 0, 0, 0, 0, 0, 0, 0, 0, 0, 0, 0, 0, 0, 0,
       0, 0, 0, 0, 0, 0, 0, 0, 0, 0, 0, 0, 0, 0, 0, 0, 0, 0, 0, 0, 0, 0,
       0, 0, 0, 0, 0, 0, 0, 0, 0, 0, 0, 0, 0, 0, 0, 0, 0, 0, 0, 0, 0, 0,
       0, 0, 0, 0, 0, 0, 0, 0, 0, 0, 0, 0, 0, 0, 0, 0, 0, 0, 0, 0, 0, 0,
       0, 0, 0, 0, 0, 0, 0, 0, 0, 0, 0, 0, 0, 0, 0, 0, 0, 0, 0, 0, 0, 0,
       0, 0, 0, 0, 0, 0, 0, 0, 0, 0, 0, 0, 0, 0, 0, 0, 0, 0, 0, 0, 0, 0,
       0, 0, 0, 0, 0, 0, 0, 0, 0, 0, 0, 0, 0, 0, 0, 0, 0, 0, 0, 0, 0, 0,
       0, 0, 0, 0, 0, 0, 0, 0, 0, 0, 0, 0, 0, 0, 0, 0, 0, 0, 0, 0, 0, 0,
       0, 0, 0, 0, 0, 0, 0, 0, 0, 0, 0, 0, 0, 0, 0, 0, 0, 0, 0, 0, 0, 0,
       0, 0, 0, 0, 0, 0, 0, 0, 0, 0, 0, 0, 0, 0, 0, 0, 0, 0, 0, 0, 0, 0,
       0, 0, 0, 0, 0, 0, 0, 0, 0, 0, 0, 0, 0, 0, 0, 0, 0, 0, 0, 0, 0, 0,
       0, 0, 0, 0, 0, 0, 0, 0, 0, 0, 0, 0, 0, 0, 0, 0, 0, 0, 0, 0, 0, 0,
       0, 0, 0, 0, 0, 0, 0, 0, 0, 0, 0, 0, 0, 0, 0, 0, 0, 0, 0, 0, 0, 0,
       0, 0, 0, 0, 0, 0, 0, 0, 0, 0, 0, 0, 0, 0, 0, 0, 0, 0, 0, 0, 0, 0,
       0, 0, 0, 0, 0, 0, 0, 0, 0, 0, 0, 0, 0, 0, 0, 0, 0, 0, 0, 0, 0, 0,
       0, 0, 0, 0, 0, 0, 0, 0, 0, 0, 0, 0, 0, 0, 0, 0, 0, 0, 0, 0, 0, 0,
       0, 0, 0, 0, 0, 0, 0, 0, 0, 0, 0, 0, 0, 0, 0, 0, 0, 0, 0, 0, 0, 0,
       0, 0, 0, 0, 0, 0, 0, 0, 0, 0, 0, 0, 0, 0, 0, 0, 0, 0, 0, 0, 0, 0,
       0, 0, 0, 0, 0, 0, 0, 0, 0, 0, 0, 0, 0, 0, 0, 0, 0, 0, 0, 0, 0, 0,
       0, 0, 0, 0, 0, 0, 0, 0, 0, 0, 0, 0, 0, 0, 0, 0, 0, 0, 0, 0, 0, 0,
       0, 0, 0, 0, 0, 0, 0, 0, 0, 0, 0, 0, 0, 0, 0, 0, 0, 0, 0, 0, 0, 0,
       0, 0, 0, 0, 0, 0, 0, 0, 0, 0, 0, 0, 0, 0, 0, 0, 0, 0, 0, 0, 0, 0,
       0, 0, 0, 0, 0, 0, 0, 0, 0, 0, 0, 0, 0, 0, 0, 0, 0, 0, 0, 0, 0, 0,
       0, 0, 0, 0, 0, 0, 0, 0, 0, 0, 0, 0, 0, 0, 0, 0, 0, 0, 0, 0, 0, 0,
       0, 0, 0, 0, 0, 0, 0, 0, 0, 0, 0, 0, 0, 0, 0, 0, 0, 0, 0, 0, 0, 0,
       0, 0, 0, 0, 0, 0, 0, 0, 0, 0, 0, 0, 0, 0, 0, 0, 0, 0, 0, 0, 0, 0,
       0, 0, 0, 0, 0, 0, 0, 0, 0, 0, 0, 0, 0, 0, 0, 0, 0, 0, 0, 0, 0, 0,
       0, 0, 0, 0, 0, 0, 0, 0, 0, 0, 0, 0, 0, 0, 0, 0, 0, 0, 0, 0, 0, 0,
       0, 0, 0, 0, 0, 0, 0, 0, 0, 0, 0, 0, 0, 0, 0, 0, 0, 0, 0, 0, 0, 0,
       0, 0, 0, 0, 0, 0, 0, 0, 0, 0, 0, 0, 0, 0, 0, 0, 0, 0, 0, 0, 0, 0,
       0, 0, 0, 0, 0, 0, 0, 0, 0, 0, 0, 0, 0, 0, 0, 0, 0, 0, 0, 0, 0, 0,
       0, 0, 0, 0, 0, 0, 0, 0, 0, 0, 0, 0, 0, 0, 0, 0, 0, 0, 0, 0, 0, 0,
       0, 0, 0, 0, 0, 0, 0, 0, 0, 0, 0, 0, 0, 0, 0, 0, 0, 0, 0, 0, 0, 0,
       0, 0, 0, 0, 0, 0, 0, 0, 0, 0, 0, 0, 0, 0, 0, 0, 0, 0, 0, 0, 0, 0,
       0, 0, 0, 0, 0, 0, 0, 0, 0, 0, 0, 0, 0, 0, 0, 0, 0, 0, 0, 0, 0, 0,
       0, 0, 0, 0, 0, 0, 0, 0, 0, 0, 0, 0, 0, 0, 0, 0, 0, 0, 0, 0, 0, 0,
       0, 0, 0, 0, 0, 0, 0, 0, 0, 0, 0, 0, 0, 0, 0, 0, 0, 0, 0, 0, 0, 0,
       0, 0, 0, 0, 0, 0, 0, 0, 0, 0, 0, 0, 0, 0, 0, 0, 0, 0, 0, 0, 0, 0,
       0, 0, 0, 0, 0, 0, 0, 0, 0, 0, 0, 0, 0, 0, 0, 0, 0, 0, 0, 0, 0, 0,
       0, 0, 0, 0, 0, 0, 0, 0, 0, 0, 0, 0, 0, 0, 0, 0, 0, 0, 0, 0, 0, 0,
       0, 0, 0, 0, 0, 0, 0, 0, 0, 0, 0, 0, 0, 0, 0, 0, 0, 0, 0, 0, 0, 0,
       0, 0, 0, 0, 0, 0, 0, 0, 0, 0, 0, 0, 0, 0, 0, 0, 0, 0, 0, 0, 0, 0,
       0, 0, 0, 0, 0, 0, 0, 0, 0, 0, 0, 0, 0, 0, 0, 0, 0, 0, 0, 0, 0, 0,
       0, 0, 0, 0, 0, 0, 0, 0, 0, 0, 0, 0, 0, 0, 0, 0, 0, 0, 0, 0, 0, 0,
       0, 0, 0, 0, 0, 0, 0, 0, 0, 0, 0, 0, 0, 0, 0, 0, 0, 0, 0, 0, 0, 0,
       0, 0, 0, 0, 0, 0, 0, 0, 0, 0, 0, 0, 0, 0, 0, 0, 0, 0, 0, 0, 0, 0,
       0, 0, 0, 0, 0, 0, 0, 0, 0, 0, 0, 0, 0, 0, 0, 0, 0, 0, 0, 0, 0, 0,
       0, 0, 0, 0, 0, 0, 0, 0, 0, 0, 0, 0, 0, 0, 0, 0, 0, 0, 0, 0, 0, 0,
       0, 0, 0, 0, 0, 0, 0, 0, 0, 0, 0, 0, 0, 0, 0, 0, 0, 0, 0, 0, 0, 0,
       0, 0, 0, 0, 0, 0, 0, 0, 0, 0, 0, 0, 0, 0, 0, 0, 0, 0, 0, 0, 0, 0,
       0, 0, 0, 0, 0, 0, 0, 0, 0, 0, 0, 0, 0, 0, 0, 0, 0, 0, 0, 0, 0, 0,
       0, 0, 0, 0, 0, 0, 0, 0, 0, 0, 0, 0, 0, 0, 0, 0, 0, 0, 0, 0, 0, 0,
       0, 0, 0, 0, 0, 0, 0, 0, 0, 0, 0, 0, 0, 0, 0, 0, 0, 0, 0, 0, 0, 0,
       0, 0, 0, 0, 0, 0, 0, 0, 0, 0, 0, 0, 0, 0, 0, 0, 0, 0, 0, 0, 0, 0,
       0, 0, 0, 0, 0, 0, 0, 0, 0, 0, 0, 0, 0, 0, 0, 0, 0, 0, 0, 0, 0, 0,
       0, 0, 0, 0, 0, 0, 0, 0, 0, 0, 0, 0, 0, 0, 0, 0, 0, 0, 0, 0, 0, 0,
       0, 0, 0, 0, 0, 0, 0, 0, 0, 0, 0, 0, 0, 0, 0, 0, 0, 0, 0, 0, 0, 0,
       0, 0, 0, 0, 0, 0, 0, 0, 0, 0, 0, 0, 0, 0, 0, 0, 0, 0, 0, 0, 0, 0,
       0, 0, 0, 0, 0, 0, 0, 0, 0, 0, 0, 0, 0, 0, 0, 0, 0, 0, 0, 0, 0, 0,
       0, 0, 0, 0, 0, 0, 0, 0, 0, 0, 0, 0, 0, 0, 0, 0, 0, 0, 0, 0, 0, 0,
       0, 0, 0, 0, 0, 0, 0, 0, 0, 0, 0, 0, 0, 0, 0, 0, 0, 0, 0, 0, 0, 0,
       0, 0, 0, 0, 0, 0, 0, 0, 0, 0, 0, 0, 0, 0, 0, 0, 0, 0, 0, 0, 0, 0,
       0, 0, 0, 0, 0, 0, 0, 0, 0, 0, 0, 0, 0, 0, 0, 0, 0, 0, 0, 0, 0, 0,
       0, 0, 0, 0, 0, 0, 0, 0, 0, 0, 0, 0, 0, 0, 0, 0, 0, 0, 0, 0, 0, 0,
       0, 0, 0, 0, 0, 0, 0, 0, 0, 0, 0, 0, 0, 0, 0, 0, 0, 0, 0, 0, 0, 0,
       0, 0, 0, 0, 0, 0, 0, 0, 0, 0, 0, 0, 0, 0, 0, 0, 0, 0, 0, 0, 0, 0,
       0, 0, 0, 0, 0, 0, 0, 0, 0, 0, 0, 0, 0, 0, 0, 0, 0, 0, 0, 0, 0, 0,
       0, 0, 0, 0, 0, 0, 0, 0, 0, 0, 0, 0, 0, 0, 0, 0, 0, 0, 0, 0, 0, 0,
       0, 0, 0, 0, 0, 0, 0, 0, 0, 0, 0, 0, 0, 0, 0, 0, 0, 0, 0, 0, 0, 0,
       0, 0, 0, 0, 0, 0, 0, 0, 0, 0, 0, 0, 0, 0, 0, 0, 0, 0, 0, 0, 0, 0,
       0, 0, 0, 0, 0, 0, 0, 0, 0, 0, 0, 0, 0, 0, 0, 0, 0, 0, 0, 0, 0, 0,
       0, 0, 0, 0, 0, 0, 0, 0, 0, 0, 0, 0, 0, 0, 0, 0, 0, 0, 0, 0, 0, 0,
       0, 0, 0, 0, 0, 0, 0, 0, 0, 0, 0, 0, 0, 0, 0, 0, 0, 0, 0, 0, 0, 0,
       0, 0, 0, 0, 0, 0, 0, 0, 0, 0, 0, 0, 0, 0, 0, 0, 0, 0, 0, 0, 0, 0,
       0, 0, 0, 0, 0, 0, 0, 0, 0, 0, 0, 0, 0, 0, 0, 0, 0, 0, 0, 0, 0, 0,
       0, 0, 0, 0, 0, 0, 0, 0, 0, 0, 0, 0, 0, 0, 0, 0, 0, 0, 0, 0, 0, 0,
       0, 0, 0, 0, 0, 0, 0, 0, 0, 0, 0, 0, 0, 0, 0, 0, 0, 0, 0, 0, 0, 0,
       0, 0, 0, 0, 0, 0, 0, 0, 0, 0, 0, 0, 0, 0, 0, 0, 0, 0, 0, 0, 0, 0,
       0, 0, 0, 0, 0, 0, 0, 0, 0, 0, 0, 0, 0, 0, 0, 0, 0, 0, 0, 0, 0, 0,
       0, 0, 0, 0, 0, 0, 0, 0, 0, 0, 0, 0, 0, 0, 0, 0, 0, 0, 0, 0, 0, 0,
       0, 0, 0, 0, 0, 0, 0, 0, 0, 0, 0, 0, 0, 0, 0, 0, 0, 0, 0, 0, 0, 0,
       0, 0, 0, 0, 0, 0, 0, 0, 0, 0, 0, 0, 0, 0, 0, 0, 0, 0, 0, 0, 0, 0,
       0, 0, 0, 0, 0, 0, 0, 0, 0, 0, 0, 0, 0, 0, 0, 0, 0, 0, 0, 0, 0, 0,
       0, 0, 0, 0, 0, 0, 0, 0, 0, 0 ]
   class_labels: [ 0, 1, 2, 3 ]
   missing_subst: [ 0., 0., 0., 0., 0., 0., 0., 0., 0., 0., 0., 0., 0.,
       0., 0., 0., 0., 0., 0., 0., 0., 0., 0., 0., 0., 0., 0., 0., 0.,
       0., 0., 0., 0., 0., 0., 0., 0., 0., 0., 0., 0., 0., 0., 0., 0.,
       0., 0., 0., 0., 0., 0., 0., 0., 0., 0., 0., 0., 0., 0., 0., 0.,
       0., 0., 0., 0., 0., 0., 0., 0., 0., 0., 0., 0., 0., 0., 0., 0.,
       0., 0., 0., 0., 0., 0., 0., 0., 0., 0., 0., 0., 0., 0., 0., 0.,
       0., 0., 0., 0., 0., 0., 0., 0., 0., 0., 0., 0., 0., 0., 0., 0.,
       0., 0., 0., 0., 0., 0., 0., 0., 0., 0., 0., 0., 0., 0., 0., 0.,
       0., 0., 0., 0., 0., 0., 0., 0., 0., 0., 0., 0., 0., 0., 0., 0.,
       0., 0., 0., 0., 0., 0., 0., 0., 0., 0., 0., 0., 0., 0., 0., 0.,
       0., 0., 0., 0., 0., 0., 0., 0., 0., 0., 0., 0., 0., 0., 0., 0.,
       0., 0., 0., 0., 0., 0., 0., 0., 0., 0., 0., 0., 0., 0., 0., 0.,
       0., 0., 0., 0., 0., 0., 0., 0., 0., 0., 0., 0., 0., 0., 0., 0.,
       0., 0., 0., 0., 0., 0., 0., 0., 0., 0., 0., 0., 0., 0., 0., 0.,
       0., 0., 0., 0., 0., 0., 0., 0., 0., 0., 0., 0., 0., 0., 0., 0.,
       0., 0., 0., 0., 0., 0., 0., 0., 0., 0., 0., 0., 0., 0., 0., 0.,
       0., 0., 0., 0., 0., 0., 0., 0., 0., 0., 0., 0., 0., 0., 0., 0.,
       0., 0., 0., 0., 0., 0., 0., 0., 0., 0., 0., 0., 0., 0., 0., 0.,
       0., 0., 0., 0., 0., 0., 0., 0., 0., 0., 0., 0., 0., 0., 0., 0.,
       0., 0., 0., 0., 0., 0., 0., 0., 0., 0., 0., 0., 0., 0., 0., 0.,
       0., 0., 0., 0., 0., 0., 0., 0., 0., 0., 0., 0., 0., 0., 0., 0.,
       0., 0., 0., 0., 0., 0., 0., 0., 0., 0., 0., 0., 0., 0., 0., 0.,
       0., 0., 0., 0., 0., 0., 0., 0., 0., 0., 0., 0., 0., 0., 0., 0.,
       0., 0., 0., 0., 0., 0., 0., 0., 0., 0., 0., 0., 0., 0., 0., 0.,
       0., 0., 0., 0., 0., 0., 0., 0., 0., 0., 0., 0., 0., 0., 0., 0.,
       0., 0., 0., 0., 0., 0., 0., 0., 0., 0., 0., 0., 0., 0., 0., 0.,
       0., 0., 0., 0., 0., 0., 0., 0., 0., 0., 0., 0., 0., 0., 0., 0.,
       0., 0., 0., 0., 0., 0., 0., 0., 0., 0., 0., 0., 0., 0., 0., 0.,
       0., 0., 0., 0., 0., 0., 0., 0., 0., 0., 0., 0., 0., 0., 0., 0.,
       0., 0., 0., 0., 0., 0., 0., 0., 0., 0., 0., 0., 0., 0., 0., 0.,
       0., 0., 0., 0., 0., 0., 0., 0., 0., 0., 0., 0., 0., 0., 0., 0.,
       0., 0., 0., 0., 0., 0., 0., 0., 0., 0., 0., 0., 0., 0., 0., 0.,
       0., 0., 0., 0., 0., 0., 0., 0., 0., 0., 0., 0., 0., 0., 0., 0.,
       0., 0., 0., 0., 0., 0., 0., 0., 0., 0., 0., 0., 0., 0., 0., 0.,
       0., 0., 0., 0., 0., 0., 0., 0., 0., 0., 0., 0., 0., 0., 0., 0.,
       0., 0., 0., 0., 0., 0., 0., 0., 0., 0., 0., 0., 0., 0., 0., 0.,
       0., 0., 0., 0., 0., 0., 0., 0., 0., 0., 0., 0., 0., 0., 0., 0.,
       0., 0., 0., 0., 0., 0., 0., 0., 0., 0., 0., 0., 0., 0., 0., 0.,
       0., 0., 0., 0., 0., 0., 0., 0., 0., 0., 0., 0., 0., 0., 0., 0.,
       0., 0., 0., 0., 0., 0., 0., 0., 0., 0., 0., 0., 0., 0., 0., 0.,
       0., 0., 0., 0., 0., 0., 0., 0., 0., 0., 0., 0., 0., 0., 0., 0.,
       0., 0., 0., 0., 0., 0., 0., 0., 0., 0., 0., 0., 0., 0., 0., 0.,
       0., 0., 0., 0., 0., 0., 0., 0., 0., 0., 0., 0., 0., 0., 0., 0.,
       0., 0., 0., 0., 0., 0., 0., 0., 0., 0., 0., 0., 0., 0., 0., 0.,
       0., 0., 0., 0., 0., 0., 0., 0., 0., 0., 0., 0., 0., 0., 0., 0.,
       0., 0., 0., 0., 0., 0., 0., 0., 0., 0., 0., 0., 0., 0., 0., 0.,
       0., 0., 0., 0., 0., 0., 0., 0., 0., 0., 0., 0., 0., 0., 0., 0.,
       0., 0., 0., 0., 0., 0., 0., 0., 0., 0., 0., 0., 0., 0., 0., 0.,
       0., 0., 0., 0., 0., 0., 0., 0., 0., 0., 0., 0., 0., 0., 0., 0.,
       0., 0., 0., 0., 0., 0., 0., 0., 0., 0., 0., 0., 0., 0., 0., 0.,
       0., 0., 0., 0., 0., 0., 0., 0., 0., 0., 0., 0., 0., 0., 0., 0.,
       0., 0., 0., 0., 0., 0., 0., 0., 0., 0., 0., 0., 0., 0., 0., 0.,
       0., 0., 0., 0., 0., 0., 0., 0., 0., 0., 0., 0., 0., 0., 0., 0.,
       0., 0., 0., 0., 0., 0., 0., 0., 0., 0., 0., 0., 0., 0., 0., 0.,
       0., 0., 0., 0., 0., 0., 0., 0., 0., 0., 0., 0., 0., 0., 0., 0.,
       0., 0., 0., 0., 0., 0., 0., 0., 0., 0., 0., 0., 0., 0., 0., 0.,
       0., 0., 0., 0., 0., 0., 0., 0., 0., 0., 0., 0., 0., 0., 0., 0.,
       0., 0., 0., 0., 0., 0., 0., 0., 0., 0., 0., 0., 0., 0., 0., 0.,
       0., 0., 0., 0., 0., 0., 0., 0., 0., 0., 0., 0., 0., 0., 0., 0.,
       0., 0., 0., 0., 0., 0., 0., 0., 0., 0., 0., 0., 0., 0., 0., 0.,
       0., 0., 0., 0., 0., 0., 0., 0., 0., 0., 0., 0., 0., 0., 0., 0.,
       0., 0., 0., 0., 0., 0., 0., 0., 0., 0., 0., 0., 0., 0., 0., 0.,
       0., 0., 0., 0., 0., 0., 0., 0., 0., 0., 0., 0., 0., 0., 0., 0.,
       0., 0., 0., 0., 0., 0., 0., 0., 0., 0., 0., 0., 0., 0., 0., 0.,
       0., 0., 0., 0., 0., 0., 0., 0., 0., 0., 0., 0., 0., 0., 0., 0.,
       0., 0., 0., 0., 0., 0., 0., 0., 0., 0., 0., 0., 0., 0., 0., 0.,
       0., 0., 0., 0., 0., 0., 0., 0., 0., 0., 0., 0., 0., 0., 0., 0.,
       0., 0., 0., 0., 0., 0., 0., 0., 0., 0., 0., 0., 0., 0., 0., 0.,
       0., 0., 0., 0., 0., 0., 0., 0., 0., 0., 0., 0., 0., 0., 0., 0.,
       0., 0., 0., 0., 0., 0., 0., 0., 0., 0., 0., 0., 0., 0., 0., 0.,
       0., 0., 0., 0., 0., 0., 0., 0., 0., 0., 0., 0., 0., 0., 0., 0.,
       0., 0., 0., 0., 0., 0., 0., 0., 0., 0., 0., 0., 0., 0., 0., 0.,
       0., 0., 0., 0., 0., 0., 0., 0., 0., 0., 0., 0., 0., 0., 0., 0.,
       0., 0., 0., 0., 0., 0., 0., 0., 0., 0., 0., 0., 0., 0., 0., 0.,
       0., 0., 0., 0., 0., 0., 0., 0., 0., 0., 0., 0., 0., 0., 0., 0.,
       0., 0., 0., 0., 0., 0., 0., 0., 0., 0., 0., 0., 0., 0., 0., 0.,
       0., 0., 0., 0., 0., 0., 0., 0., 0., 0., 0., 0., 0., 0., 0., 0.,
       0., 0., 0., 0., 0., 0., 0., 0., 0., 0., 0., 0., 0., 0., 0., 0.,
       0., 0., 0., 0., 0., 0., 0., 0., 0., 0., 0., 0., 0., 0., 0., 0.,
       0., 0., 0., 0., 0., 0., 0., 0., 0., 0., 0., 0., 0., 0., 0., 0.,
       0., 0., 0., 0., 0., 0., 0., 0., 0., 0., 0., 0., 0., 0., 0., 0.,
       0., 0., 0., 0., 0., 0., 0., 0., 0., 0., 0., 0., 0., 0., 0., 0.,
       0., 0., 0., 0., 0., 0., 0., 0., 0., 0., 0., 0., 0., 0., 0., 0.,
       0., 0., 0., 0., 0., 0., 0., 0., 0., 0., 0., 0., 0., 0., 0., 0.,
       0., 0., 0., 0., 0., 0., 0., 0., 0., 0., 0., 0., 0., 0., 0., 0.,
       0., 0., 0., 0., 0., 0., 0., 0., 0., 0., 0., 0., 0., 0., 0., 0.,
       0., 0., 0., 0., 0., 0., 0., 0., 0., 0., 0., 0., 0., 0., 0., 0.,
       0., 0., 0., 0., 0., 0., 0., 0., 0., 0., 0., 0., 0., 0., 0., 0.,
       0., 0., 0., 0., 0., 0., 0., 0., 0., 0., 0., 0., 0., 0., 0., 0.,
       0., 0., 0., 0., 0., 0., 0., 0., 0., 0., 0., 0., 0., 0., 0., 0.,
       0., 0., 0., 0., 0., 0., 0., 0., 0., 0., 0., 0., 0., 0., 0., 0.,
       0., 0., 0., 0., 0., 0., 0., 0., 0., 0., 0., 0., 0., 0., 0., 0.,
       0., 0., 0., 0., 0., 0., 0., 0., 0., 0., 0., 0., 0., 0., 0., 0.,
       0., 0., 0., 0., 0., 0., 0., 0., 0., 0., 0., 0., 0., 0., 0., 0.,
       0., 0., 0., 0., 0., 0., 0., 0., 0., 0., 0., 0., 0., 0., 0., 0.,
       0., 0., 0., 0., 0., 0., 0., 0., 0., 0., 0., 0., 0., 0., 0., 0.,
       0., 0., 0., 0., 0., 0., 0., 0., 0., 0., 0., 0., 0., 0., 0., 0.,
       0., 0., 0., 0., 0., 0., 0., 0., 0., 0., 0., 0., 0., 0., 0., 0.,
       0., 0., 0., 0., 0., 0., 0., 0., 0., 0., 0., 0., 0., 0., 0., 0.,
       0., 0., 0., 0., 0., 0., 0., 0., 0., 0., 0., 0., 0., 0., 0., 0.,
       0., 0., 0., 0., 0., 0., 0., 0., 0., 0., 0., 0., 0., 0., 0., 0.,
       0., 0., 0., 0., 0., 0., 0., 0., 0., 0., 0., 0., 0., 0., 0., 0.,
       0., 0., 0., 0., 0., 0., 0., 0., 0., 0., 0., 0., 0., 0., 0., 0.,
       0., 0., 0., 0., 0., 0., 0., 0., 0., 0., 0., 0., 0., 0., 0., 0.,
       0., 0., 0., 0., 0., 0., 0., 0., 0., 0., 0., 0., 0., 0., 0., 0.,
       0., 0., 0., 0., 0., 0., 0., 0., 0., 0., 0., 0., 0., 0., 0., 0.,
       0., 0., 0., 0., 0., 0., 0., 0., 0., 0., 0., 0., 0., 0., 0., 0.,
       0., 0., 0., 0., 0., 0., 0., 0., 0., 0., 0., 0., 0., 0., 0., 0.,
       0., 0., 0., 0., 0., 0., 0., 0., 0., 0., 0., 0., 0., 0., 0., 0.,
       0., 0., 0., 0., 0., 0., 0., 0., 0., 0., 0., 0., 0., 0., 0., 0.,
       0., 0., 0., 0., 0., 0., 0., 0. ]
   oob_error: 9.6277278562259313e-03
   var_importance: [ 5.65063674e-04, 5.65063674e-04, 5.66948438e-04,
       5.65000810e-04, 5.65503433e-04, 5.64498245e-04, 5.65566297e-04,
       5.69712836e-04, 5.65063674e-04, 5.64246904e-04, 5.64875198e-04,
       5.65943250e-04, 5.66383009e-04, 5.64623857e-04, 5.64938004e-04,
       5.64561051e-04, 5.65126480e-04, 5.64623857e-04, 5.64372574e-04,
       5.64686721e-04, 5.65943250e-04, 5.64938004e-04, 5.64309768e-04,
       5.64561051e-04, 5.65314956e-04, 5.64686721e-04, 5.66508679e-04,
       5.64372574e-04, 5.66257397e-04, 5.64875198e-04, 5.76937920e-04,
       5.64372574e-04, 5.64498245e-04, 5.65629103e-04, 5.64372574e-04,
       5.64435381e-04, 5.64812333e-04, 5.66445873e-04, 5.64623857e-04,
       5.65754774e-04, 5.64938004e-04, 5.65566297e-04, 5.64623857e-04,
       5.64875198e-04, 5.67702402e-04, 5.64435381e-04, 5.64686721e-04,
       5.64435381e-04, 5.65691909e-04, 5.68770454e-04, 5.64372574e-04,
       5.64686721e-04, 5.64749527e-04, 5.66634350e-04, 5.64372574e-04,
       5.66257397e-04, 5.66571485e-04, 5.64435381e-04, 5.64561051e-04,
       5.64435381e-04, 5.64498245e-04, 5.64686721e-04, 5.64686721e-04,
       5.66383009e-04, 5.69712836e-04, 5.65314956e-04, 5.65880386e-04,
       5.64561051e-04, 5.65000810e-04, 5.65252150e-04, 5.64372574e-04,
       5.64623857e-04, 5.64561051e-04, 5.64372574e-04, 5.64875198e-04,
       5.66948438e-04, 5.64875198e-04, 5.64686721e-04, 5.65503433e-04,
       5.65629103e-04, 5.64498245e-04, 5.65440627e-04, 5.64372574e-04,
       5.64498245e-04, 5.66257397e-04, 5.71346318e-04, 5.64561051e-04,
       5.65754774e-04, 5.67136973e-04, 5.65063674e-04, 5.65126480e-04,
       5.65000810e-04, 5.66131726e-04, 5.65189344e-04, 5.67765208e-04,
       5.65943250e-04, 5.64561051e-04, 5.65880386e-04, 5.64749527e-04,
       5.65880386e-04, 5.66571485e-04, 5.67513925e-04, 5.71409182e-04,
       5.65252150e-04, 5.64938004e-04, 5.65126480e-04, 5.68016490e-04,
       5.65691909e-04, 5.65189344e-04, 5.64938004e-04, 5.64812333e-04,
       5.65000810e-04, 5.70466742e-04, 5.64749527e-04, 5.64812333e-04,
       5.64561051e-04, 5.70592412e-04, 5.65754774e-04, 5.64372574e-04,
       5.66006056e-04, 5.65691909e-04, 5.80142078e-04, 5.64498245e-04,
       5.64686721e-04, 5.65943250e-04, 5.64938004e-04, 5.65503433e-04,
       5.65880386e-04, 5.65377821e-04, 5.67325449e-04, 5.64561051e-04,
       5.65754774e-04, 5.65189344e-04, 5.65000810e-04, 5.64749527e-04,
       5.65440627e-04, 5.65314956e-04, 5.64749527e-04, 5.72100282e-04,
       5.65629103e-04, 5.70466742e-04, 5.64561051e-04, 5.66068862e-04,
       5.64938004e-04, 5.64938004e-04, 5.64938004e-04, 5.65377821e-04,
       5.64309768e-04, 5.85922156e-04, 5.64623857e-04, 5.64372574e-04,
       5.65754774e-04, 5.65754774e-04, 5.65817580e-04, 5.65252150e-04,
       5.65943250e-04, 5.65063674e-04, 5.69901313e-04, 5.68770454e-04,
       5.64938004e-04, 5.65000810e-04, 5.67513925e-04, 5.65440627e-04,
       5.64749527e-04, 5.66131726e-04, 5.67890878e-04, 5.65126480e-04,
       5.74927486e-04, 5.66383009e-04, 5.68330637e-04, 5.66194532e-04,
       5.64623857e-04, 5.66257397e-04, 5.64875198e-04, 5.64875198e-04,
       5.65503433e-04, 5.71346318e-04, 5.64623857e-04, 5.64561051e-04,
       5.64498245e-04, 5.65377821e-04, 5.65063674e-04, 5.85042580e-04,
       5.64938004e-04, 5.77377679e-04, 5.66508679e-04, 5.64498245e-04,
       5.66822826e-04, 5.65314956e-04, 5.70843695e-04, 5.68770454e-04,
       5.77754690e-04, 5.64875198e-04, 5.73293946e-04, 5.65189344e-04,
       5.64309768e-04, 5.64749527e-04, 5.66006056e-04, 5.65000810e-04,
       5.64875198e-04, 5.67576732e-04, 5.64812333e-04, 5.66571485e-04,
       5.70089789e-04, 5.65754774e-04, 5.66194532e-04, 5.66634350e-04,
       5.64686721e-04, 5.68016490e-04, 5.71032229e-04, 5.66068862e-04,
       5.66822826e-04, 5.70278266e-04, 5.69084601e-04, 5.67828014e-04,
       5.65943250e-04, 5.65503433e-04, 5.64686721e-04, 5.64875198e-04,
       5.64686721e-04, 5.65063674e-04, 5.64686721e-04, 5.66068862e-04,
       5.66006056e-04, 5.64498245e-04, 5.64372574e-04, 5.65754774e-04,
       5.76749444e-04, 5.64058428e-04, 5.65000810e-04, 5.64875198e-04,
       5.64372574e-04, 5.65063674e-04, 5.64309768e-04, 5.64498245e-04,
       5.64435381e-04, 5.65440627e-04, 5.64372574e-04, 5.65252150e-04,
       5.75053098e-04, 5.69775642e-04, 5.65691909e-04, 5.65000810e-04,
       5.65000810e-04, 5.66257397e-04, 5.75618527e-04, 5.64498245e-04,
       5.64749527e-04, 5.69901313e-04, 5.65754774e-04, 5.64938004e-04,
       5.65252150e-04, 5.72163088e-04, 5.65000810e-04, 5.64435381e-04,
       5.64246904e-04, 5.64686721e-04, 5.65252150e-04, 5.65691909e-04,
       5.66068862e-04, 5.67451061e-04, 5.64875198e-04, 5.64812333e-04,
       5.65629103e-04, 5.71220706e-04, 5.65126480e-04, 5.64184098e-04,
       5.64686721e-04, 5.65377821e-04, 5.64372574e-04, 5.64623857e-04,
       5.64812333e-04, 5.64623857e-04, 5.65000810e-04, 5.64372574e-04,
       5.64561051e-04, 5.66320203e-04, 5.65377821e-04, 5.69712836e-04,
       5.66068862e-04, 5.65880386e-04, 5.65629103e-04, 5.74990292e-04,
       5.68581978e-04, 5.64686721e-04, 5.64561051e-04, 5.64372574e-04,
       5.67890878e-04, 5.65629103e-04, 5.66194532e-04, 5.67074108e-04,
       5.65503433e-04, 5.66320203e-04, 5.64561051e-04, 5.68267831e-04,
       5.65691909e-04, 5.69398690e-04, 5.64686721e-04, 5.65377821e-04,
       5.64309768e-04, 5.72037417e-04, 5.69273077e-04, 5.66571485e-04,
       5.64121234e-04, 5.65189344e-04, 5.64623857e-04, 5.65503433e-04,
       5.64372574e-04, 5.64372574e-04, 5.66697156e-04, 5.65189344e-04,
       5.65566297e-04, 5.65063674e-04, 5.70466742e-04, 5.65000810e-04,
       5.66948438e-04, 5.66948438e-04, 5.64875198e-04, 5.74047910e-04,
       5.65754774e-04, 5.66445873e-04, 5.64812333e-04, 5.65000810e-04,
       5.71534794e-04, 5.67513925e-04, 5.64749527e-04, 5.64623857e-04,
       5.66634350e-04, 5.69021737e-04, 5.68770454e-04, 5.69210213e-04,
       5.64498245e-04, 5.68330637e-04, 5.64435381e-04, 5.68205025e-04,
       5.68142161e-04, 5.65943250e-04, 5.68456308e-04, 5.64812333e-04,
       5.65189344e-04, 5.65691909e-04, 5.66131726e-04, 5.66194532e-04,
       5.68016490e-04, 5.65314956e-04, 5.67011302e-04, 5.65126480e-04,
       5.65566297e-04, 5.65126480e-04, 5.64561051e-04, 5.64372574e-04,
       5.67765208e-04, 5.68833260e-04, 5.67451061e-04, 5.66508679e-04,
       5.67702402e-04, 5.66571485e-04, 5.65629103e-04, 5.65063674e-04,
       5.64372574e-04, 5.69021737e-04, 5.65566297e-04, 5.65943250e-04,
       5.65000810e-04, 5.72100282e-04, 5.66006056e-04, 5.65252150e-04,
       5.64938004e-04, 5.66383009e-04, 5.70341130e-04, 5.65943250e-04,
       5.64875198e-04, 5.65189344e-04, 5.67011302e-04, 5.69021737e-04,
       5.64561051e-04, 5.66508679e-04, 5.67011302e-04, 5.65566297e-04,
       5.70466742e-04, 5.68581978e-04, 5.66571485e-04, 5.65377821e-04,
       5.65629103e-04, 5.66634350e-04, 5.66759962e-04, 5.65377821e-04,
       5.66257397e-04, 5.66885632e-04, 5.64623857e-04, 5.64686721e-04,
       5.66131726e-04, 5.67199779e-04, 5.64938004e-04, 5.66068862e-04,
       5.67074108e-04, 5.65189344e-04, 5.65252150e-04, 5.64749527e-04,
       5.65440627e-04, 5.65566297e-04, 5.65817580e-04, 5.64749527e-04,
       5.64938004e-04, 5.65063674e-04, 5.65566297e-04, 5.65629103e-04,
       5.66006056e-04, 5.67702402e-04, 5.67513925e-04, 5.64938004e-04,
       5.64561051e-04, 5.66571485e-04, 5.65566297e-04, 5.65189344e-04,
       5.66445873e-04, 5.66508679e-04, 5.68079355e-04, 5.65566297e-04,
       5.79513784e-04, 5.65063674e-04, 5.65377821e-04, 5.70278266e-04,
       5.65629103e-04, 5.65126480e-04, 5.65000810e-04, 5.73733763e-04,
       5.75681392e-04, 5.80079271e-04, 5.66068862e-04, 5.66320203e-04,
       5.65252150e-04, 5.65126480e-04, 5.64686721e-04, 5.64623857e-04,
       5.66383009e-04, 5.66759962e-04, 5.68581978e-04, 5.64686721e-04,
       5.77063591e-04, 5.67702402e-04, 5.67325449e-04, 5.74927486e-04,
       5.71471988e-04, 5.65189344e-04, 5.66131726e-04, 5.65252150e-04,
       5.65063674e-04, 5.64623857e-04, 5.65189344e-04, 5.66068862e-04,
       5.66634350e-04, 5.64812333e-04, 5.68896066e-04, 5.65503433e-04,
       5.70341130e-04, 5.64875198e-04, 5.67702402e-04, 5.68456308e-04,
       5.65189344e-04, 5.65629103e-04, 5.65063674e-04, 5.64561051e-04,
       5.65943250e-04, 5.72477235e-04, 5.66571485e-04, 5.67262585e-04,
       5.68016490e-04, 5.65314956e-04, 5.64686721e-04, 5.66320203e-04,
       5.65252150e-04, 5.68833260e-04, 5.73670899e-04, 5.66634350e-04,
       5.64812333e-04, 5.64938004e-04, 5.68079355e-04, 5.74173522e-04,
       5.71157841e-04, 5.65754774e-04, 5.64372574e-04, 5.65943250e-04,
       5.64498245e-04, 5.65817580e-04, 5.67451061e-04, 5.65126480e-04,
       5.65377821e-04, 5.65314956e-04, 5.64623857e-04, 5.64686721e-04,
       5.81398606e-04, 5.71095035e-04, 5.79576648e-04, 5.64749527e-04,
       5.66006056e-04, 5.66257397e-04, 5.68016490e-04, 5.65063674e-04,
       5.64938004e-04, 5.68519114e-04, 5.67325449e-04, 5.65691909e-04,
       5.67325449e-04, 5.65063674e-04, 5.65063674e-04, 5.65943250e-04,
       5.67828014e-04, 5.65189344e-04, 5.65126480e-04, 5.65000810e-04,
       5.64749527e-04, 5.76372491e-04, 5.64372574e-04, 5.65252150e-04,
       5.65503433e-04, 5.67765208e-04, 5.64812333e-04, 5.65566297e-04,
       5.64749527e-04, 5.67262585e-04, 5.65000810e-04, 5.66508679e-04,
       5.67325449e-04, 5.64561051e-04, 5.65314956e-04, 5.66697156e-04,
       5.66194532e-04, 5.68707590e-04, 5.65063674e-04, 5.84602763e-04,
       5.64561051e-04, 5.65880386e-04, 5.67136973e-04, 5.72351564e-04,
       5.67136973e-04, 5.65629103e-04, 5.67765208e-04, 5.64938004e-04,
       5.64875198e-04, 5.65691909e-04, 5.64749527e-04, 5.65189344e-04,
       5.66508679e-04, 5.64623857e-04, 5.64498245e-04, 5.64686721e-04,
       5.64686721e-04, 5.67136973e-04, 5.65503433e-04, 5.66759962e-04,
       5.66822826e-04, 5.85984963e-04, 5.65629103e-04, 5.68519114e-04,
       5.65189344e-04, 5.71220706e-04, 5.66320203e-04, 5.65440627e-04,
       5.65126480e-04, 5.64372574e-04, 5.66131726e-04, 5.65817580e-04,
       5.73042664e-04, 5.64749527e-04, 5.65252150e-04, 5.66634350e-04,
       5.70089789e-04, 5.66759962e-04, 5.64812333e-04, 5.79136831e-04,
       5.70403936e-04, 5.74676145e-04, 5.65566297e-04, 5.64623857e-04,
       5.65629103e-04, 5.65691909e-04, 5.66634350e-04, 5.65252150e-04,
       5.75807062e-04, 5.64875198e-04, 5.66194532e-04, 5.70780889e-04,
       5.69901313e-04, 5.64435381e-04, 5.65754774e-04, 5.65566297e-04,
       5.66006056e-04, 5.64372574e-04, 5.73356810e-04, 5.64812333e-04,
       5.66194532e-04, 5.65629103e-04, 5.66131726e-04, 5.66194532e-04,
       5.65629103e-04, 5.65189344e-04, 5.65629103e-04, 5.67576732e-04,
       5.68896066e-04, 5.64686721e-04, 5.64749527e-04, 5.65503433e-04,
       5.66759962e-04, 5.66697156e-04, 5.69335883e-04, 5.66885632e-04,
       5.66508679e-04, 5.71157841e-04, 5.64435381e-04, 5.65943250e-04,
       5.65189344e-04, 5.65817580e-04, 5.65252150e-04, 5.66006056e-04,
       5.67136973e-04, 5.68142161e-04, 5.65566297e-04, 5.66948438e-04,
       5.67765208e-04, 5.65566297e-04, 5.68205025e-04, 5.66885632e-04,
       5.67953684e-04, 5.67011302e-04, 5.76812250e-04, 5.70592412e-04,
       5.70215459e-04, 5.65566297e-04, 5.66759962e-04, 5.65880386e-04,
       5.66948438e-04, 5.67199779e-04, 5.69461554e-04, 5.67325449e-04,
       5.71723271e-04, 5.65691909e-04, 5.65880386e-04, 5.67199779e-04,
       5.64875198e-04, 5.66068862e-04, 5.65566297e-04, 5.67639538e-04,
       5.68581978e-04, 5.65063674e-04, 5.66697156e-04, 5.65377821e-04,
       5.65880386e-04, 5.68205025e-04, 5.65503433e-04, 5.73231140e-04,
       5.67199779e-04, 5.67513925e-04, 5.65691909e-04, 5.76372491e-04,
       5.65189344e-04, 5.67136973e-04, 5.65440627e-04, 5.65189344e-04,
       5.65314956e-04, 5.69587166e-04, 5.66320203e-04, 5.65754774e-04,
       5.66194532e-04, 5.64561051e-04, 5.67199779e-04, 5.72100282e-04,
       5.67639538e-04, 5.65754774e-04, 5.65566297e-04, 5.69775642e-04,
       5.69398690e-04, 5.66131726e-04, 5.65126480e-04, 5.73042664e-04,
       5.65440627e-04, 5.65314956e-04, 5.66571485e-04, 5.75807062e-04,
       5.66759962e-04, 5.65503433e-04, 5.66194532e-04, 5.66759962e-04,
       5.70655218e-04, 5.65000810e-04, 5.66131726e-04, 5.65691909e-04,
       5.75367245e-04, 5.66634350e-04, 5.69210213e-04, 5.64749527e-04,
       5.64749527e-04, 5.66885632e-04, 5.66571485e-04, 5.65000810e-04,
       5.66948438e-04, 5.67325449e-04, 5.65503433e-04, 5.64686721e-04,
       5.64749527e-04, 5.64372574e-04, 5.65691909e-04, 5.70152653e-04,
       5.65314956e-04, 5.65314956e-04, 5.70341130e-04, 5.65063674e-04,
       5.67325449e-04, 5.64686721e-04, 5.69335883e-04, 5.72288758e-04,
       5.64623857e-04, 5.66320203e-04, 5.65817580e-04, 5.71660465e-04,
       5.64623857e-04, 5.65252150e-04, 5.64812333e-04, 5.66131726e-04,
       5.63995622e-04, 5.64938004e-04, 5.64372574e-04, 5.67890878e-04,
       5.65754774e-04, 5.65629103e-04, 5.72100282e-04, 5.69775642e-04,
       5.64749527e-04, 5.65943250e-04, 5.83974528e-04, 5.65566297e-04,
       5.75681392e-04, 5.65754774e-04, 5.68142161e-04, 5.67451061e-04,
       5.65063674e-04, 5.65000810e-04, 5.65629103e-04, 5.76184015e-04,
       5.64498245e-04, 5.66194532e-04, 5.69650030e-04, 5.66634350e-04,
       5.76686580e-04, 5.66697156e-04, 5.65189344e-04, 5.65566297e-04,
       5.82340988e-04, 5.66006056e-04, 5.68958931e-04, 5.65880386e-04,
       5.64561051e-04, 5.68707590e-04, 5.65440627e-04, 5.65943250e-04,
       5.72100282e-04, 5.79702319e-04, 5.64938004e-04, 5.64875198e-04,
       5.65629103e-04, 5.66320203e-04, 5.64372574e-04, 5.65189344e-04,
       5.64875198e-04, 5.67199779e-04, 5.64812333e-04, 5.65377821e-04,
       5.65503433e-04, 5.83660381e-04, 5.65063674e-04, 5.66697156e-04,
       5.65314956e-04, 5.65629103e-04, 5.65314956e-04, 5.67953684e-04,
       5.66508679e-04, 5.65126480e-04, 5.65126480e-04, 5.67388255e-04,
       5.65314956e-04, 5.66383009e-04, 5.67828014e-04, 5.67011302e-04,
       5.65189344e-04, 5.65943250e-04, 5.66508679e-04, 5.67388255e-04,
       5.65377821e-04, 5.70718083e-04, 5.64435381e-04, 5.65377821e-04,
       5.70843695e-04, 5.65063674e-04, 5.64498245e-04, 5.64498245e-04,
       5.67765208e-04, 5.65817580e-04, 5.66131726e-04, 5.65440627e-04,
       5.64561051e-04, 5.64749527e-04, 5.71032229e-04, 5.66634350e-04,
       5.65252150e-04, 5.79011219e-04, 5.64686721e-04, 5.66885632e-04,
       5.64309768e-04, 5.66068862e-04, 5.65754774e-04, 5.65000810e-04,
       5.65063674e-04, 5.65943250e-04, 5.67011302e-04, 5.66068862e-04,
       5.65691909e-04, 5.65000810e-04, 5.65754774e-04, 5.64561051e-04,
       5.64246904e-04, 5.65566297e-04, 5.64246904e-04, 5.70906559e-04,
       5.70403936e-04, 5.85984963e-04, 5.64686721e-04, 5.65440627e-04,
       5.64686721e-04, 5.65000810e-04, 5.66822826e-04, 5.65314956e-04,
       5.67702402e-04, 5.66006056e-04, 5.65943250e-04, 5.64875198e-04,
       5.65314956e-04, 5.65377821e-04, 5.66257397e-04, 5.64686721e-04,
       5.65754774e-04, 5.64812333e-04, 5.68896066e-04, 5.72602847e-04,
       5.66571485e-04, 5.65126480e-04, 5.67388255e-04, 5.65691909e-04,
       5.65754774e-04, 5.65314956e-04, 5.74299193e-04, 5.71220706e-04,
       5.67074108e-04, 5.65000810e-04, 5.65377821e-04, 5.64749527e-04,
       5.65252150e-04, 5.73293946e-04, 5.65943250e-04, 5.68016490e-04,
       5.69273077e-04, 5.65566297e-04, 5.64938004e-04, 5.64623857e-04,
       5.65377821e-04, 5.67136973e-04, 5.64938004e-04, 5.65880386e-04,
       5.85796486e-04, 5.66131726e-04, 5.75555721e-04, 5.65629103e-04,
       5.65440627e-04, 5.65377821e-04, 5.67513925e-04, 5.65377821e-04,
       5.65126480e-04, 5.65503433e-04, 5.66885632e-04, 5.82843611e-04,
       5.65691909e-04, 5.65440627e-04, 5.64749527e-04, 5.65063674e-04,
       5.66194532e-04, 5.64309768e-04, 5.65252150e-04, 5.73105470e-04,
       5.66006056e-04, 5.64686721e-04, 5.65440627e-04, 5.65377821e-04,
       5.64372574e-04, 5.65754774e-04, 5.64938004e-04, 5.70026983e-04,
       5.74236386e-04, 5.67074108e-04, 5.65629103e-04, 5.66634350e-04,
       5.68519114e-04, 5.66759962e-04, 5.67011302e-04, 5.66822826e-04,
       5.68581978e-04, 5.66006056e-04, 5.64372574e-04, 5.64435381e-04,
       5.65189344e-04, 5.73733763e-04, 5.66822826e-04, 5.64498245e-04,
       5.66131726e-04, 5.69273077e-04, 5.72414370e-04, 5.68142161e-04,
       5.64749527e-04, 5.66948438e-04, 5.65754774e-04, 5.64938004e-04,
       5.64749527e-04, 5.64561051e-04, 5.75178768e-04, 5.68707590e-04,
       5.65754774e-04, 5.64749527e-04, 5.66697156e-04, 5.65377821e-04,
       5.66383009e-04, 5.65440627e-04, 5.65314956e-04, 5.67953684e-04,
       5.67576732e-04, 5.73922240e-04, 5.65314956e-04, 5.64498245e-04,
       5.65691909e-04, 5.69398690e-04, 5.65880386e-04, 5.64498245e-04,
       5.80644701e-04, 5.64309768e-04, 5.65880386e-04, 5.66068862e-04,
       5.66948438e-04, 5.66320203e-04, 5.67136973e-04, 5.65440627e-04,
       5.64372574e-04, 5.81838423e-04, 5.70780889e-04, 5.72540041e-04,
       5.66068862e-04, 5.66131726e-04, 5.65440627e-04, 5.67136973e-04,
       5.64812333e-04, 5.65691909e-04, 5.68833260e-04, 5.65880386e-04,
       5.71157841e-04, 5.64938004e-04, 5.66131726e-04, 5.76058344e-04,
       5.65189344e-04, 5.64812333e-04, 5.65314956e-04, 5.66068862e-04,
       5.66634350e-04, 5.70592412e-04, 5.65440627e-04, 5.65063674e-04,
       5.65126480e-04, 5.65000810e-04, 5.65817580e-04, 5.64561051e-04,
       5.71911747e-04, 5.72414370e-04, 5.81335800e-04, 5.65817580e-04,
       5.64686721e-04, 5.66822826e-04, 5.71157841e-04, 5.66194532e-04,
       5.65000810e-04, 5.70718083e-04, 5.65754774e-04, 5.72540041e-04,
       5.64686721e-04, 5.65000810e-04, 5.64875198e-04, 5.65754774e-04,
       5.65440627e-04, 5.64372574e-04, 5.70341130e-04, 5.65691909e-04,
       5.70843695e-04, 5.65629103e-04, 5.65126480e-04, 5.66445873e-04,
       5.69273077e-04, 5.67576732e-04, 5.64498245e-04, 5.82466659e-04,
       5.68267831e-04, 5.69524360e-04, 5.64938004e-04, 5.64623857e-04,
       5.71095035e-04, 5.67136973e-04, 5.65314956e-04, 5.64498245e-04,
       5.66885632e-04, 5.64623857e-04, 5.70780889e-04, 5.67011302e-04,
       5.65377821e-04, 5.74047910e-04, 5.64812333e-04, 5.64623857e-04,
       5.64686721e-04, 5.69210213e-04, 5.66571485e-04, 5.70969365e-04,
       5.64749527e-04, 5.64561051e-04, 5.64246904e-04, 5.65000810e-04,
       5.67325449e-04, 5.76623774e-04, 5.67011302e-04, 5.66068862e-04,
       5.66194532e-04, 5.64561051e-04, 5.67513925e-04, 5.70089789e-04,
       5.64372574e-04, 5.64309768e-04, 5.64498245e-04, 5.66697156e-04,
       5.65189344e-04, 5.65629103e-04, 5.66194532e-04, 5.64561051e-04,
       5.65440627e-04, 5.65691909e-04, 5.65252150e-04, 5.65314956e-04,
       5.68016490e-04, 5.66697156e-04, 5.65252150e-04, 5.64686721e-04,
       5.65000810e-04, 5.64372574e-04, 5.71597659e-04, 5.68896066e-04,
       5.64498245e-04, 5.70278266e-04, 5.65629103e-04, 5.81775559e-04,
       5.64938004e-04, 5.64372574e-04, 5.69838507e-04, 5.68833260e-04,
       5.65000810e-04, 5.65377821e-04, 5.64875198e-04, 5.64561051e-04,
       5.71597659e-04, 5.65189344e-04, 5.67136973e-04, 5.65943250e-04,
       5.65189344e-04, 5.64875198e-04, 5.67953684e-04, 5.64686721e-04,
       5.65754774e-04, 5.70215459e-04, 5.68770454e-04, 5.65943250e-04,
       5.65754774e-04, 5.66885632e-04, 5.65566297e-04, 5.67011302e-04,
       5.89126314e-04, 5.66194532e-04, 5.69901313e-04, 5.65503433e-04,
       5.64875198e-04, 5.66068862e-04, 5.66445873e-04, 5.65754774e-04,
       5.64561051e-04, 5.66508679e-04, 5.80330554e-04, 5.72351564e-04,
       5.65817580e-04, 5.68142161e-04, 5.65063674e-04, 5.65880386e-04,
       5.65503433e-04, 5.64623857e-04, 5.73733763e-04, 5.68142161e-04,
       5.64938004e-04, 5.65817580e-04, 5.66131726e-04, 5.65754774e-04,
       5.64938004e-04, 5.65817580e-04, 5.69587166e-04, 5.67702402e-04,
       5.67765208e-04, 5.64623857e-04, 5.65691909e-04, 5.66068862e-04,
       5.67828014e-04, 5.69901313e-04, 5.66383009e-04, 5.66068862e-04,
       5.67199779e-04, 5.70843695e-04, 5.68016490e-04, 5.68519114e-04,
       5.64749527e-04, 5.65377821e-04, 5.66885632e-04, 5.65189344e-04,
       5.66194532e-04, 5.72854187e-04, 5.74613339e-04, 5.65817580e-04,
       5.66320203e-04, 5.65189344e-04, 5.65629103e-04, 5.64686721e-04,
       5.65252150e-04, 5.66697156e-04, 5.65503433e-04, 5.68456308e-04,
       5.65252150e-04, 5.66634350e-04, 5.64938004e-04, 5.64938004e-04,
       5.65943250e-04, 5.66445873e-04, 5.67074108e-04, 5.72728517e-04,
       5.72477235e-04, 5.64812333e-04, 5.66383009e-04, 5.66006056e-04,
       5.66948438e-04, 5.68016490e-04, 5.64875198e-04, 5.66948438e-04,
       5.67953684e-04, 5.72916993e-04, 5.65629103e-04, 5.64498245e-04,
       5.65252150e-04, 5.66697156e-04, 5.67325449e-04, 5.67011302e-04,
       5.64875198e-04, 5.68896066e-04, 5.67262585e-04, 5.70906559e-04,
       5.64435381e-04, 5.64812333e-04, 5.67953684e-04, 5.67074108e-04,
       5.64435381e-04, 5.67765208e-04, 5.68644784e-04, 5.65754774e-04,
       5.82466659e-04, 5.67074108e-04, 5.67074108e-04, 5.68770454e-04,
       5.69335883e-04, 5.68142161e-04, 5.66697156e-04, 5.67890878e-04,
       5.78382926e-04, 5.68079355e-04, 5.67451061e-04, 5.67890878e-04,
       5.66697156e-04, 5.66697156e-04, 5.64498245e-04, 5.64749527e-04,
       5.77063591e-04, 5.64749527e-04, 5.75367245e-04, 5.65000810e-04,
       5.67136973e-04, 5.65629103e-04, 5.75430051e-04, 5.64812333e-04,
       5.65000810e-04, 5.66006056e-04, 5.64812333e-04, 5.68896066e-04,
       5.65377821e-04, 5.64623857e-04, 5.69964119e-04, 5.75932674e-04,
       5.64435381e-04, 5.65252150e-04, 5.64875198e-04, 5.65440627e-04,
       5.67011302e-04, 5.66131726e-04, 5.65691909e-04, 5.65440627e-04,
       5.66257397e-04, 5.64372574e-04, 5.67199779e-04, 5.69838507e-04,
       5.65377821e-04, 5.65314956e-04, 5.67513925e-04, 5.64561051e-04,
       5.65817580e-04, 5.66759962e-04, 5.64749527e-04, 5.66257397e-04,
       5.78634208e-04, 5.64812333e-04, 5.68205025e-04, 5.69084601e-04,
       5.65189344e-04, 5.64938004e-04, 5.78068779e-04, 5.64498245e-04,
       5.66634350e-04, 5.72288758e-04, 5.66320203e-04, 5.66759962e-04,
       5.68958931e-04, 5.67451061e-04, 5.72477235e-04, 5.66445873e-04,
       5.65126480e-04, 5.69650030e-04, 5.78445732e-04, 5.74801816e-04,
       5.67639538e-04, 5.67953684e-04, 5.64812333e-04, 5.65063674e-04,
       5.69084601e-04, 5.71032229e-04, 5.66257397e-04, 5.65943250e-04,
       5.64749527e-04, 5.65377821e-04, 5.72540041e-04, 5.67074108e-04,
       5.70026983e-04, 5.65629103e-04, 5.65000810e-04, 5.65566297e-04,
       5.64938004e-04, 5.65126480e-04, 5.70718083e-04, 5.65629103e-04,
       5.65000810e-04, 5.65754774e-04, 5.64812333e-04, 5.68393501e-04,
       5.64498245e-04, 5.67325449e-04, 5.65754774e-04, 5.69964119e-04,
       5.65063674e-04, 5.64623857e-04, 5.64498245e-04, 5.75555721e-04,
       5.65252150e-04, 5.66257397e-04, 5.64498245e-04, 5.68016490e-04,
       5.65314956e-04, 5.67451061e-04, 5.67953684e-04, 5.68079355e-04,
       5.72916993e-04, 5.64372574e-04, 5.66571485e-04, 5.66257397e-04,
       5.65817580e-04, 5.68770454e-04, 5.65126480e-04, 5.64875198e-04,
       5.64749527e-04, 5.65000810e-04, 5.65754774e-04, 5.65000810e-04,
       5.65126480e-04, 5.64372574e-04, 5.66445873e-04, 5.71409182e-04,
       5.65440627e-04, 5.65440627e-04, 5.66822826e-04, 5.64938004e-04,
       5.64749527e-04, 5.70466742e-04, 5.68205025e-04, 5.70780889e-04,
       5.65126480e-04, 5.70026983e-04, 5.65440627e-04, 5.72540041e-04,
       5.66948438e-04, 5.73922240e-04, 5.65189344e-04, 5.65440627e-04,
       5.65189344e-04, 5.66885632e-04, 5.65503433e-04, 5.66068862e-04,
       5.64686721e-04, 5.65252150e-04, 5.64435381e-04, 5.66445873e-04,
       5.67451061e-04, 5.76498103e-04, 5.65503433e-04, 5.65503433e-04,
       5.65000810e-04, 5.65566297e-04, 5.65440627e-04, 5.65503433e-04,
       5.67953684e-04, 5.67639538e-04, 5.67136973e-04, 5.65943250e-04,
       5.64623857e-04, 5.65189344e-04, 5.64372574e-04, 5.64686721e-04,
       5.64561051e-04, 5.66068862e-04, 5.75241575e-04, 5.72477235e-04,
       5.68016490e-04, 5.67262585e-04, 5.67953684e-04, 5.64812333e-04,
       5.70592412e-04, 5.65566297e-04, 5.66634350e-04, 5.68896066e-04,
       5.70529606e-04, 5.67199779e-04, 5.66822826e-04, 5.65252150e-04,
       5.67136973e-04, 5.67513925e-04, 5.64812333e-04, 5.63995622e-04,
       5.65566297e-04, 5.65377821e-04, 5.67702402e-04, 5.64686721e-04,
       5.66885632e-04, 5.65314956e-04, 5.65629103e-04, 5.67136973e-04,
       5.65063674e-04, 5.68644784e-04, 5.67953684e-04, 5.65189344e-04,
       5.65377821e-04, 5.66194532e-04, 5.66257397e-04, 5.65126480e-04,
       5.66257397e-04, 5.65063674e-04, 5.68016490e-04, 5.66571485e-04,
       5.66194532e-04, 5.67702402e-04, 5.65189344e-04, 5.64309768e-04,
       5.65629103e-04, 5.65440627e-04, 5.64498245e-04, 5.67765208e-04,
       5.69712836e-04, 5.67199779e-04, 5.69587166e-04, 5.68644784e-04,
       5.65252150e-04, 5.68079355e-04, 5.65691909e-04, 5.64561051e-04,
       5.70843695e-04, 5.75241575e-04, 5.70215459e-04, 5.70278266e-04,
       5.65440627e-04, 5.65880386e-04, 5.65691909e-04, 5.64435381e-04,
       5.75932674e-04, 5.67388255e-04, 5.65314956e-04, 5.65440627e-04,
       5.65189344e-04, 5.66383009e-04, 5.70278266e-04, 5.65817580e-04,
       5.64372574e-04, 5.75304439e-04, 5.64184098e-04, 5.65063674e-04,
       5.65126480e-04, 5.66194532e-04, 5.72791323e-04, 5.65691909e-04,
       5.66508679e-04, 5.64623857e-04, 5.69650030e-04, 5.69084601e-04,
       5.64875198e-04, 5.65817580e-04, 5.65063674e-04, 5.66006056e-04,
       5.66759962e-04, 5.65189344e-04, 5.64875198e-04, 5.64686721e-04,
       5.66257397e-04, 5.68519114e-04, 5.66068862e-04, 5.64749527e-04,
       5.64749527e-04, 5.65629103e-04, 5.66571485e-04, 5.65943250e-04,
       5.68267831e-04, 5.66697156e-04, 5.74361999e-04, 5.64246904e-04,
       5.65252150e-04, 5.65566297e-04, 5.67513925e-04, 5.64686721e-04,
       5.69335883e-04, 5.66383009e-04, 5.64938004e-04, 5.66257397e-04,
       5.65063674e-04, 5.66697156e-04, 5.64812333e-04, 5.65000810e-04,
       5.65377821e-04, 5.66131726e-04, 5.65754774e-04, 5.64875198e-04,
       5.66194532e-04, 5.67199779e-04, 5.65817580e-04, 5.65189344e-04,
       5.64938004e-04, 5.65629103e-04, 5.66006056e-04, 5.69021737e-04,
       5.67074108e-04, 5.64686721e-04, 5.77629020e-04, 5.66759962e-04,
       5.94089623e-04, 5.66257397e-04, 5.65754774e-04, 5.71597659e-04,
       5.70718083e-04, 5.68079355e-04, 5.66634350e-04, 5.64938004e-04,
       5.65754774e-04, 5.65126480e-04, 5.65063674e-04, 5.65063674e-04,
       5.64749527e-04, 5.66634350e-04, 5.64372574e-04, 5.64686721e-04,
       5.67325449e-04, 5.77440544e-04, 5.66131726e-04, 5.65377821e-04,
       5.64372574e-04, 5.68644784e-04, 5.68016490e-04, 5.64812333e-04,
       5.64623857e-04, 5.65754774e-04, 5.64498245e-04, 5.65754774e-04,
       5.68770454e-04, 5.65377821e-04, 5.65314956e-04, 5.66634350e-04,
       5.65314956e-04, 5.65126480e-04, 5.71534794e-04, 5.70906559e-04,
       5.78068779e-04, 5.71157841e-04, 5.67513925e-04, 5.64875198e-04,
       5.65063674e-04, 5.64623857e-04, 5.64623857e-04, 5.64498245e-04,
       5.64372574e-04, 5.65126480e-04, 5.64498245e-04, 5.64372574e-04,
       5.65314956e-04, 5.64246904e-04, 5.67513925e-04, 5.68142161e-04,
       5.65189344e-04, 5.64938004e-04, 5.64623857e-04, 5.65189344e-04,
       5.67074108e-04, 5.68770454e-04, 5.65629103e-04, 5.64623857e-04,
       5.64938004e-04, 5.64372574e-04, 5.64372574e-04, 5.64561051e-04,
       5.64686721e-04, 5.64623857e-04, 5.65063674e-04, 5.64875198e-04,
       5.65314956e-04, 5.64875198e-04, 5.65377821e-04, 5.65440627e-04,
       5.64498245e-04, 5.64498245e-04, 5.64372574e-04, 5.64623857e-04,
       5.65189344e-04, 5.65880386e-04, 5.69147407e-04, 5.64372574e-04,
       5.65503433e-04, 5.64686721e-04, 5.65189344e-04, 5.64623857e-04,
       5.65000810e-04, 5.64372574e-04, 5.65126480e-04, 5.67513925e-04,
       5.66885632e-04, 5.69650030e-04, 5.66131726e-04, 5.70026983e-04,
       5.67074108e-04, 5.74361999e-04, 5.64623857e-04, 5.73545287e-04,
       5.64749527e-04, 5.64875198e-04, 5.64749527e-04, 5.65943250e-04,
       5.65189344e-04, 5.66068862e-04, 5.69964119e-04, 5.65063674e-04,
       5.69461554e-04, 5.65440627e-04, 5.65817580e-04, 5.66822826e-04,
       5.65063674e-04, 5.64938004e-04, 5.65063674e-04, 5.65691909e-04,
       5.64875198e-04, 5.66445873e-04, 5.65000810e-04, 5.65314956e-04,
       5.66759962e-04, 5.65126480e-04, 5.71660465e-04, 5.64749527e-04,
       5.64623857e-04, 5.68205025e-04, 5.64372574e-04, 5.66068862e-04,
       5.68393501e-04, 5.64686721e-04, 5.66131726e-04, 5.65943250e-04,
       5.64812333e-04, 5.67953684e-04, 5.66759962e-04, 5.85984963e-04,
       5.64498245e-04, 5.66194532e-04, 5.65000810e-04, 5.73231140e-04,
       5.65063674e-04, 5.64875198e-04, 5.64938004e-04, 5.64372574e-04,
       5.66634350e-04, 5.64938004e-04, 5.65566297e-04, 5.65000810e-04,
       5.67388255e-04, 5.80644701e-04, 5.65000810e-04, 5.65440627e-04,
       5.64812333e-04, 5.64623857e-04, 5.67953684e-04, 5.66320203e-04,
       5.66822826e-04, 5.66194532e-04, 5.64938004e-04, 5.65314956e-04,
       5.64749527e-04, 5.65377821e-04, 5.65126480e-04, 5.64875198e-04,
       5.64561051e-04, 5.66006056e-04, 5.67513925e-04, 5.65126480e-04,
       5.64435381e-04, 5.64812333e-04, 5.64372574e-04, 5.71283512e-04,
       5.64435381e-04, 5.64372574e-04, 5.69335883e-04, 5.82466659e-04,
       5.68958931e-04, 5.67136973e-04, 5.64435381e-04, 5.64498245e-04,
       5.70026983e-04, 5.65754774e-04, 5.66383009e-04, 5.64875198e-04,
       5.65000810e-04, 5.67011302e-04, 5.67199779e-04, 5.65252150e-04,
       5.65691909e-04, 5.65817580e-04, 5.65691909e-04, 5.64372574e-04,
       5.64686721e-04, 5.64372574e-04, 5.65943250e-04, 5.67702402e-04,
       5.64498245e-04, 5.64686721e-04, 5.66320203e-04, 5.64435381e-04,
       5.64561051e-04, 5.64623857e-04, 5.64749527e-04, 5.66634350e-04,
       5.65377821e-04, 5.66257397e-04, 5.65754774e-04, 5.68958931e-04,
       5.64372574e-04, 5.64749527e-04, 5.65440627e-04, 5.67074108e-04,
       5.65189344e-04, 5.64812333e-04, 5.64749527e-04, 5.70655218e-04,
       5.70152653e-04, 5.66697156e-04, 5.76812250e-04, 5.66508679e-04,
       5.66194532e-04, 5.65000810e-04, 5.65126480e-04, 5.74424863e-04,
       5.72477235e-04, 5.65691909e-04, 5.64749527e-04, 5.64372574e-04,
       5.65063674e-04, 5.65314956e-04, 5.65063674e-04, 5.77754690e-04,
       5.72728517e-04, 5.67576732e-04, 5.64749527e-04, 5.64372574e-04,
       5.67074108e-04, 5.65377821e-04, 5.67074108e-04, 5.64309768e-04,
       5.64372574e-04, 5.64938004e-04, 5.72288758e-04, 5.73545287e-04,
       5.66068862e-04, 5.66634350e-04, 5.65566297e-04, 5.64623857e-04,
       5.66697156e-04, 5.64812333e-04, 5.67702402e-04, 5.64812333e-04,
       5.77440544e-04, 5.64561051e-04, 5.68519114e-04, 5.65126480e-04,
       5.73670899e-04, 5.64498245e-04, 5.66194532e-04, 5.67576732e-04,
       5.68330637e-04, 5.65000810e-04, 5.64812333e-04, 5.73482423e-04,
       5.65252150e-04, 5.67136973e-04, 5.64561051e-04, 5.65000810e-04,
       5.70026983e-04, 5.65063674e-04, 5.64623857e-04, 5.64372574e-04,
       5.65440627e-04, 5.70969365e-04, 5.64749527e-04, 5.64749527e-04,
       5.71911747e-04, 5.70278266e-04, 5.64875198e-04, 5.64875198e-04,
       5.64498245e-04, 5.71409182e-04, 5.64561051e-04, 5.64498245e-04,
       5.64246904e-04, 5.64498245e-04, 5.64372574e-04, 5.64938004e-04,
       5.64561051e-04, 5.67011302e-04, 5.66948438e-04, 5.64435381e-04,
       5.64812333e-04 ]
   ntrees: 56
   trees:
      -
         nodes:
            -
               depth: 0
               value: 3.
               norm_class_idx: 3
               splits:
                  - { var:948, quality:2.1777270507812500e+03,
                      le:9.1479189693927765e-02 }
            -
               depth: 1
               value: 3.
               norm_class_idx: 3
               splits:
                  - { var:714, quality:1.7214957275390625e+03,
                      le:4.6008765697479248e-02 }
            -
               depth: 2
               value: 3.
               norm_class_idx: 3
               splits:
                  - { var:491, quality:1.1717163085937500e+03,
                      le:3.2473814487457275e-01 }
            -
               depth: 3
               value: 3.
               norm_class_idx: 3
               splits:
                  - { var:998, quality:1.1663781738281250e+03,
                      le:2.3187021724879742e-03 }
            -
               depth: 4
               value: 2.
               norm_class_idx: 2
            -
               depth: 4
               value: 3.
               norm_class_idx: 3
               splits:
                  - { var:954, quality:1.1709322509765625e+03,
                      le:4.6332450583577156e-03 }
            -
               depth: 5
               value: 2.
               norm_class_idx: 2
               splits:
                  - { var:1617, quality:1.2800000190734863e+01,
                      le:2.2589135169982910e-01 }
            -
               depth: 6
               value: 3.
               norm_class_idx: 3
            -
               depth: 6
               value: 2.
               norm_class_idx: 2
            -
               depth: 5
               value: 3.
               norm_class_idx: 3
               splits:
                  - { var:205, quality:1.1734680175781250e+03,
                      le:3.4411802887916565e-01 }
            -
               depth: 6
               value: 3.
               norm_class_idx: 3
               splits:
                  - { var:859, quality:1.1846391601562500e+03,
                      le:6.3991948962211609e-02 }
            -
               depth: 7
               value: 3.
               norm_class_idx: 3
               splits:
                  - { var:457, quality:1.2843811035156250e+02,
                      le:3.2576739788055420e-01 }
            -
               depth: 8
               value: 3.
               norm_class_idx: 3
               splits:
                  - { var:833, quality:9.7432235717773438e+01,
                      le:3.3012591302394867e-02 }
            -
               depth: 9
               value: 3.
               norm_class_idx: 3
               splits:
                  - { var:814, quality:8.2400001525878906e+01,
                      le:1.6565050184726715e-01 }
            -
               depth: 10
               value: 3.
               norm_class_idx: 3
            -
               depth: 10
               value: 2.
               norm_class_idx: 2
            -
               depth: 9
               value: 3.
               norm_class_idx: 3
               splits:
                  - { var:168, quality:3.2103446960449219e+01,
                      le:2.1321994066238403e-01 }
            -
               depth: 10
               value: 3.
               norm_class_idx: 3
            -
               depth: 10
               value: 2.
               norm_class_idx: 2
            -
               depth: 8
               value: 2.
               norm_class_idx: 2
               splits:
                  - { var:623, quality:4.9799999237060547e+01,
                      le:5.2247215062379837e-02 }
            -
               depth: 9
               value: 2.
               norm_class_idx: 2
            -
               depth: 9
               value: 3.
               norm_class_idx: 3
            -
               depth: 7
               value: 3.
               norm_class_idx: 3
               splits:
                  - { var:1016, quality:1.1028352050781250e+03,
                      le:1.4298267196863890e-03 }
            -
               depth: 8
               value: 0.
               norm_class_idx: 0
            -
               depth: 8
               value: 3.
               norm_class_idx: 3
               splits:
                  - { var:668, quality:1.0977694091796875e+03,
                      le:2.6848999783396721e-02 }
            -
               depth: 9
               value: 3.
               norm_class_idx: 3
               splits:
                  - { var:1352, quality:9.4469390869140625e+01,
                      le:4.9840076826512814e-03 }
            -
               depth: 10
               value: 2.
               norm_class_idx: 2
            -
               depth: 10
               value: 3.
               norm_class_idx: 3
            -
               depth: 9
               value: 3.
               norm_class_idx: 3
               splits:
                  - { var:356, quality:1.0099871826171875e+03,
                      le:2.7508699893951416e-01 }
            -
               depth: 10
               value: 3.
               norm_class_idx: 3
            -
               depth: 10
               value: 3.
               norm_class_idx: 3
            -
               depth: 6
               value: 3.
               norm_class_idx: 3
               splits:
                  - { var:296, quality:3.0732719421386719e+01,
                      le:5.4044719785451889e-02 }
            -
               depth: 7
               value: 2.
               norm_class_idx: 2
               splits:
                  - { var:72, quality:14., le:1.3900955021381378e-01 }
            -
               depth: 8
               value: 3.
               norm_class_idx: 3
            -
               depth: 8
               value: 2.
               norm_class_idx: 2
            -
               depth: 7
               value: 3.
               norm_class_idx: 3
               splits:
                  - { var:676, quality:2.7307691574096680e+01,
                      le:1.9616650417447090e-02 }
            -
               depth: 8
               value: 2.
               norm_class_idx: 2
            -
               depth: 8
               value: 3.
               norm_class_idx: 3
               splits:
                  - { var:925, quality:26., le:1.0053303092718124e-02 }
            -
               depth: 9
               value: 2.
               norm_class_idx: 2
            -
               depth: 9
               value: 3.
               norm_class_idx: 3
            -
               depth: 3
               value: 2.
               norm_class_idx: 2
               splits:
                  - { var:831, quality:2.3155843734741211e+01,
                      le:6.8320855498313904e-02 }
            -
               depth: 4
               value: 2.
               norm_class_idx: 2
               splits:
                  - { var:525, quality:1.9285715103149414e+01,
                      le:4.1834361851215363e-02 }
            -
               depth: 5
               value: 3.
               norm_class_idx: 3
            -
               depth: 5
               value: 2.
               norm_class_idx: 2
            -
               depth: 4
               value: 1.
               norm_class_idx: 1
               splits:
                  - { var:638, quality:1.8500000000000000e+01,
                      le:6.1656132340431213e-02 }
            -
               depth: 5
               value: 0.
               norm_class_idx: 0
            -
               depth: 5
               value: 1.
               norm_class_idx: 1
               splits:
                  - { var:638, quality:16., le:2.2964818775653839e-01 }
            -
               depth: 6
               value: 1.
               norm_class_idx: 1
            -
               depth: 6
               value: 3.
               norm_class_idx: 3
            -
               depth: 2
               value: 3.
               norm_class_idx: 3
               splits:
                  - { var:1138, quality:6.0536840820312500e+02,
                      le:2.0900879055261612e-02 }
            -
               depth: 3
               value: 2.
               norm_class_idx: 2
               splits:
                  - { var:1021, quality:4.3460269927978516e+01,
                      le:8.5016936063766479e-02 }
            -
               depth: 4
               value: 3.
               norm_class_idx: 3
               splits:
                  - { var:737, quality:2.1100000381469727e+01,
                      le:2.7274547144770622e-02 }
            -
               depth: 5
               value: 2.
               norm_class_idx: 2
            -
               depth: 5
               value: 3.
               norm_class_idx: 3
               splits:
                  - { var:1059, quality:20., le:4.0508353710174561e-01 }
            -
               depth: 6
               value: 3.
               norm_class_idx: 3
            -
               depth: 6
               value: 2.
               norm_class_idx: 2
            -
               depth: 4
               value: 2.
               norm_class_idx: 2
               splits:
                  - { var:758, quality:29., le:2.6079726219177246e-01 }
            -
               depth: 5
               value: 2.
               norm_class_idx: 2
            -
               depth: 5
               value: 1.
               norm_class_idx: 1
            -
               depth: 3
               value: 3.
               norm_class_idx: 3
               splits:
                  - { var:290, quality:6.0829602050781250e+02,
                      le:2.5582514703273773e-02 }
            -
               depth: 4
               value: 3.
               norm_class_idx: 3
               splits:
                  - { var:949, quality:1.1202645874023438e+02,
                      le:2.0205292105674744e-01 }
            -
               depth: 5
               value: 1.
               norm_class_idx: 1
               splits:
                  - { var:248, quality:9.1360389709472656e+01,
                      le:7.1732118725776672e-02 }
            -
               depth: 6
               value: 3.
               norm_class_idx: 3
               splits:
                  - { var:14, quality:3.1250000000000000e+01,
                      le:1.8808568129315972e-03 }
            -
               depth: 7
               value: 1.
               norm_class_idx: 1
            -
               depth: 7
               value: 3.
               norm_class_idx: 3
               splits:
                  - { var:158, quality:32., le:2.1371582150459290e-01 }
            -
               depth: 8
               value: 3.
               norm_class_idx: 3
            -
               depth: 8
               value: 1.
               norm_class_idx: 1
            -
               depth: 6
               value: 1.
               norm_class_idx: 1
               splits:
                  - { var:419, quality:7.4031745910644531e+01,
                      le:8.7796807289123535e-02 }
            -
               depth: 7
               value: 0.
               norm_class_idx: 0
            -
               depth: 7
               value: 1.
               norm_class_idx: 1
               splits:
                  - { var:1019, quality:7.3405059814453125e+01,
                      le:1.1618469841778278e-02 }
            -
               depth: 8
               value: 3.
               norm_class_idx: 3
            -
               depth: 8
               value: 1.
               norm_class_idx: 1
               splits:
                  - { var:393, quality:7.4199996948242188e+01,
                      le:1.0069832205772400e-01 }
            -
               depth: 9
               value: 1.
               norm_class_idx: 1
            -
               depth: 9
               value: 1.
               norm_class_idx: 1
            -
               depth: 5
               value: 3.
               norm_class_idx: 3
               splits:
                  - { var:1618, quality:5.4750000000000000e+01,
                      le:2.5627782940864563e-01 }
            -
               depth: 6
               value: 3.
               norm_class_idx: 3
            -
               depth: 6
               value: 1.
               norm_class_idx: 1
            -
               depth: 4
               value: 3.
               norm_class_idx: 3
               splits:
                  - { var:1328, quality:5.5720782470703125e+02,
                      le:6.0281328856945038e-02 }
            -
               depth: 5
               value: 3.
               norm_class_idx: 3
               splits:
                  - { var:1310, quality:3.4104046630859375e+02,
                      le:1.7446807026863098e-01 }
            -
               depth: 6
               value: 3.
               norm_class_idx: 3
               splits:
                  - { var:684, quality:3.4069000244140625e+02,
                      le:1.3742381706833839e-02 }
            -
               depth: 7
               value: 3.
               norm_class_idx: 3
            -
               depth: 7
               value: 3.
               norm_class_idx: 3
               splits:
                  - { var:975, quality:3.3939999389648438e+02,
                      le:1.0827822983264923e-01 }
            -
               depth: 8
               value: 3.
               norm_class_idx: 3
            -
               depth: 8
               value: 3.
               norm_class_idx: 3
               splits:
                  - { var:579, quality:18., le:5.6585747748613358e-02 }
            -
               depth: 9
               value: 3.
               norm_class_idx: 3
            -
               depth: 9
               value: 1.
               norm_class_idx: 1
            -
               depth: 6
               value: 1.
               norm_class_idx: 1
            -
               depth: 5
               value: 3.
               norm_class_idx: 3
               splits:
                  - { var:204, quality:2.6981274414062500e+02,
                      le:3.0677038431167603e-01 }
            -
               depth: 6
               value: 3.
               norm_class_idx: 3
               splits:
                  - { var:94, quality:2.3672817993164063e+02,
                      le:1.3706645369529724e-01 }
            -
               depth: 7
               value: 3.
               norm_class_idx: 3
               splits:
                  - { var:1236, quality:7.5436492919921875e+01,
                      le:1.3961251080036163e-01 }
            -
               depth: 8
               value: 3.
               norm_class_idx: 3
               splits:
                  - { var:1182, quality:6.6239128112792969e+01,
                      le:3.0031421780586243e-01 }
            -
               depth: 9
               value: 3.
               norm_class_idx: 3
               splits:
                  - { var:1104, quality:6.3932582855224609e+01,
                      le:1.4770069159567356e-02 }
            -
               depth: 10
               value: 2.
               norm_class_idx: 2
            -
               depth: 10
               value: 3.
               norm_class_idx: 3
            -
               depth: 9
               value: 2.
               norm_class_idx: 2
            -
               depth: 8
               value: 0.
               norm_class_idx: 0
               splits:
                  - { var:362, quality:3.6479854583740234e+01,
                      le:5.8123107999563217e-02 }
            -
               depth: 9
               value: 0.
               norm_class_idx: 0
               splits:
                  - { var:1581, quality:21., le:6.5334647893905640e-02 }
            -
               depth: 10
               value: 3.
               norm_class_idx: 3
            -
               depth: 10
               value: 0.
               norm_class_idx: 0
            -
               depth: 9
               value: 1.
               norm_class_idx: 1
               splits:
                  - { var:1753, quality:2.3200000762939453e+01,
                      le:5.7471934705972672e-03 }
            -
               depth: 10
               value: 2.
               norm_class_idx: 2
            -
               depth: 10
               value: 1.
               norm_class_idx: 1
            -
               depth: 7
               value: 3.
               norm_class_idx: 3
               splits:
                  - { var:772, quality:1.9188973999023438e+02,
                      le:1.9089801609516144e-01 }
            -
               depth: 8
               value: 3.
               norm_class_idx: 3
               splits:
                  - { var:1101, quality:1.7758460998535156e+02,
                      le:3.2088853418827057e-02 }
            -
               depth: 9
               value: 3.
               norm_class_idx: 3
            -
               depth: 9
               value: 3.
               norm_class_idx: 3
               splits:
                  - { var:1227, quality:101., le:2.6001423597335815e-01 }
            -
               depth: 10
               value: 3.
               norm_class_idx: 3
            -
               depth: 10
               value: 2.
               norm_class_idx: 2
            -
               depth: 8
               value: 3.
               norm_class_idx: 3
               splits:
                  - { var:1502, quality:3.0363636016845703e+01,
                      le:5.5868763476610184e-02 }
            -
               depth: 9
               value: 1.
               norm_class_idx: 1
            -
               depth: 9
               value: 3.
               norm_class_idx: 3
               splits:
                  - { var:429, quality:22., le:2.6756399869918823e-01 }
            -
               depth: 10
               value: 3.
               norm_class_idx: 3
            -
               depth: 10
               value: 2.
               norm_class_idx: 2
            -
               depth: 6
               value: 1.
               norm_class_idx: 1
               splits:
                  - { var:1579, quality:5.8392856597900391e+01,
                      le:3.1797978281974792e-01 }
            -
               depth: 7
               value: 1.
               norm_class_idx: 1
               splits:
                  - { var:1408, quality:56., le:2.3310650140047073e-02 }
            -
               depth: 8
               value: 0.
               norm_class_idx: 0
            -
               depth: 8
               value: 1.
               norm_class_idx: 1
            -
               depth: 7
               value: 3.
               norm_class_idx: 3
            -
               depth: 1
               value: 3.
               norm_class_idx: 3
               splits:
                  - { var:1062, quality:5.6782006835937500e+02,
                      le:2.6765012741088867e-01 }
            -
               depth: 2
               value: 3.
               norm_class_idx: 3
               splits:
                  - { var:464, quality:5.3304614257812500e+02,
                      le:1.0515709221363068e-01 }
            -
               depth: 3
               value: 3.
               norm_class_idx: 3
               splits:
                  - { var:193, quality:3.0148056030273438e+02,
                      le:7.6455920934677124e-02 }
            -
               depth: 4
               value: 0.
               norm_class_idx: 0
               splits:
                  - { var:320, quality:9.3081298828125000e+01,
                      le:5.0458233803510666e-02 }
            -
               depth: 5
               value: 3.
               norm_class_idx: 3
               splits:
                  - { var:457, quality:4.4549999237060547e+01,
                      le:1.6119173169136047e-01 }
            -
               depth: 6
               value: 3.
               norm_class_idx: 3
               splits:
                  - { var:207, quality:32., le:3.1772729754447937e-01 }
            -
               depth: 7
               value: 3.
               norm_class_idx: 3
               splits:
                  - { var:1114, quality:3.1729166030883789e+01,
                      le:2.3918005824089050e-01 }
            -
               depth: 8
               value: 3.
               norm_class_idx: 3
               splits:
                  - { var:1227, quality:32., le:2.8473183512687683e-01 }
            -
               depth: 9
               value: 3.
               norm_class_idx: 3
            -
               depth: 9
               value: 2.
               norm_class_idx: 2
            -
               depth: 8
               value: 0.
               norm_class_idx: 0
            -
               depth: 7
               value: 0.
               norm_class_idx: 0
            -
               depth: 6
               value: 2.
               norm_class_idx: 2
            -
               depth: 5
               value: 0.
               norm_class_idx: 0
               splits:
                  - { var:1355, quality:8.5007247924804688e+01,
                      le:8.1830367445945740e-02 }
            -
               depth: 6
               value: 3.
               norm_class_idx: 3
               splits:
                  - { var:474, quality:2.1250000000000000e+01,
                      le:1.4867225289344788e-01 }
            -
               depth: 7
               value: 3.
               norm_class_idx: 3
            -
               depth: 7
               value: 1.
               norm_class_idx: 1
            -
               depth: 6
               value: 0.
               norm_class_idx: 0
               splits:
                  - { var:582, quality:9.3489112854003906e+01,
                      le:8.8729940354824066e-02 }
            -
               depth: 7
               value: 0.
               norm_class_idx: 0
               splits:
                  - { var:506, quality:6.7142105102539063e+01,
                      le:2.4901077151298523e-01 }
            -
               depth: 8
               value: 0.
               norm_class_idx: 0
               splits:
                  - { var:1613, quality:7.0419044494628906e+01,
                      le:1.3325983658432961e-02 }
            -
               depth: 9
               value: 1.
               norm_class_idx: 1
            -
               depth: 9
               value: 0.
               norm_class_idx: 0
               splits:
                  - { var:1716, quality:69., le:5.3828805685043335e-02 }
            -
               depth: 10
               value: 0.
               norm_class_idx: 0
            -
               depth: 10
               value: 1.
               norm_class_idx: 1
            -
               depth: 8
               value: 2.
               norm_class_idx: 2
            -
               depth: 7
               value: 1.
               norm_class_idx: 1
               splits:
                  - { var:1289, quality:4.3490909576416016e+01,
                      le:3.6788921803236008e-02 }
            -
               depth: 8
               value: 0.
               norm_class_idx: 0
               splits:
                  - { var:1210, quality:30., le:9.5955744385719299e-02 }
            -
               depth: 9
               value: 1.
               norm_class_idx: 1
            -
               depth: 9
               value: 0.
               norm_class_idx: 0
            -
               depth: 8
               value: 1.
               norm_class_idx: 1
               splits:
                  - { var:455, quality:3.0064516067504883e+01,
                      le:3.8751520216464996e-02 }
            -
               depth: 9
               value: 0.
               norm_class_idx: 0
            -
               depth: 9
               value: 1.
               norm_class_idx: 1
               splits:
                  - { var:455, quality:2.9399999618530273e+01,
                      le:9.3866840004920959e-02 }
            -
               depth: 10
               value: 1.
               norm_class_idx: 1
            -
               depth: 10
               value: 1.
               norm_class_idx: 1
            -
               depth: 4
               value: 3.
               norm_class_idx: 3
               splits:
                  - { var:1093, quality:2.5929928588867188e+02,
                      le:1.7429511994123459e-02 }
            -
               depth: 5
               value: 2.
               norm_class_idx: 2
               splits:
                  - { var:547, quality:18., le:2.8936862945556641e-01 }
            -
               depth: 6
               value: 2.
               norm_class_idx: 2
            -
               depth: 6
               value: 2.
               norm_class_idx: 2
            -
               depth: 5
               value: 3.
               norm_class_idx: 3
               splits:
                  - { var:1195, quality:2.5618380737304688e+02,
                      le:1.3901942968368530e-01 }
            -
               depth: 6
               value: 3.
               norm_class_idx: 3
               splits:
                  - { var:1561, quality:2.4231904602050781e+02,
                      le:5.9721983969211578e-02 }
            -
               depth: 7
               value: 3.
               norm_class_idx: 3
               splits:
                  - { var:719, quality:1.6833333969116211e+01,
                      le:1.4988841116428375e-01 }
            -
               depth: 8
               value: 0.
               norm_class_idx: 0
            -
               depth: 8
               value: 3.
               norm_class_idx: 3
               splits:
                  - { var:1413, quality:1.3600000381469727e+01,
                      le:1.2051813304424286e-01 }
            -
               depth: 9
               value: 3.
               norm_class_idx: 3
            -
               depth: 9
               value: 3.
               norm_class_idx: 3
            -
               depth: 7
               value: 3.
               norm_class_idx: 3
               splits:
                  - { var:958, quality:2.4184170532226563e+02,
                      le:5.5485069751739502e-01 }
            -
               depth: 8
               value: 3.
               norm_class_idx: 3
               splits:
                  - { var:369, quality:2.3727983093261719e+02,
                      le:1.7155948281288147e-01 }
            -
               depth: 9
               value: 3.
               norm_class_idx: 3
               splits:
                  - { var:997, quality:1.9803979492187500e+02,
                      le:9.0057181660085917e-04 }
            -
               depth: 10
               value: 0.
               norm_class_idx: 0
            -
               depth: 10
               value: 3.
               norm_class_idx: 3
            -
               depth: 9
               value: 3.
               norm_class_idx: 3
               splits:
                  - { var:1110, quality:4.9607841491699219e+01,
                      le:1.8415775895118713e-01 }
            -
               depth: 10
               value: 3.
               norm_class_idx: 3
            -
               depth: 10
               value: 1.
               norm_class_idx: 1
            -
               depth: 8
               value: 2.
               norm_class_idx: 2
            -
               depth: 6
               value: 3.
               norm_class_idx: 3
               splits:
                  - { var:1644, quality:2.2069929122924805e+01,
                      le:1.1296167969703674e-01 }
            -
               depth: 7
               value: 3.
               norm_class_idx: 3
               splits:
                  - { var:810, quality:1.5774435997009277e+01,
                      le:1.0093741118907928e-01 }
            -
               depth: 8
               value: 2.
               norm_class_idx: 2
            -
               depth: 8
               value: 3.
               norm_class_idx: 3
               splits:
                  - { var:480, quality:19., le:4.4208616018295288e-03 }
            -
               depth: 9
               value: 0.
               norm_class_idx: 0
            -
               depth: 9
               value: 3.
               norm_class_idx: 3
            -
               depth: 7
               value: 1.
               norm_class_idx: 1
               splits:
                  - { var:132, quality:1.7799999237060547e+01,
                      le:1.7235442996025085e-01 }
            -
               depth: 8
               value: 3.
               norm_class_idx: 3
            -
               depth: 8
               value: 1.
               norm_class_idx: 1
            -
               depth: 3
               value: 1.
               norm_class_idx: 1
               splits:
                  - { var:1686, quality:3.6934494018554688e+02,
                      le:4.1038632392883301e-02 }
            -
               depth: 4
               value: 0.
               norm_class_idx: 0
               splits:
                  - { var:300, quality:1.7211073303222656e+02,
                      le:8.1233218312263489e-02 }
            -
               depth: 5
               value: 3.
               norm_class_idx: 3
               splits:
                  - { var:178, quality:5.4199604034423828e+01,
                      le:2.3359374701976776e-01 }
            -
               depth: 6
               value: 3.
               norm_class_idx: 3
               splits:
                  - { var:1624, quality:4.9217391967773438e+01,
                      le:4.0408363565802574e-03 }
            -
               depth: 7
               value: 2.
               norm_class_idx: 2
            -
               depth: 7
               value: 3.
               norm_class_idx: 3
               splits:
