%YAML:1.0
---
opencv_ml_rtrees:
   format: 3
   is_classifier: 1
   var_all: 1765
   var_count: 1764
   ord_var_count: 1764
   cat_var_count: 1
   training_params:
      use_surrogates: 0
      max_categories: 15
      regression_accuracy: 0.
      max_depth: 10
      min_sample_count: 10
      cross_validation_folds: 0
      nactive_vars: 4
   global_var_idx: 1
   var_idx: [ 0, 1, 2, 3, 4, 5, 6, 7, 8, 9, 10, 11, 12, 13, 14, 15, 16,
       17, 18, 19, 20, 21, 22, 23, 24, 25, 26, 27, 28, 29, 30, 31, 32,
       33, 34, 35, 36, 37, 38, 39, 40, 41, 42, 43, 44, 45, 46, 47, 48,
       49, 50, 51, 52, 53, 54, 55, 56, 57, 58, 59, 60, 61, 62, 63, 64,
       65, 66, 67, 68, 69, 70, 71, 72, 73, 74, 75, 76, 77, 78, 79, 80,
       81, 82, 83, 84, 85, 86, 87, 88, 89, 90, 91, 92, 93, 94, 95, 96,
       97, 98, 99, 100, 101, 102, 103, 104, 105, 106, 107, 108, 109, 110,
       111, 112, 113, 114, 115, 116, 117, 118, 119, 120, 121, 122, 123,
       124, 125, 126, 127, 128, 129, 130, 131, 132, 133, 134, 135, 136,
       137, 138, 139, 140, 141, 142, 143, 144, 145, 146, 147, 148, 149,
       150, 151, 152, 153, 154, 155, 156, 157, 158, 159, 160, 161, 162,
       163, 164, 165, 166, 167, 168, 169, 170, 171, 172, 173, 174, 175,
       176, 177, 178, 179, 180, 181, 182, 183, 184, 185, 186, 187, 188,
       189, 190, 191, 192, 193, 194, 195, 196, 197, 198, 199, 200, 201,
       202, 203, 204, 205, 206, 207, 208, 209, 210, 211, 212, 213, 214,
       215, 216, 217, 218, 219, 220, 221, 222, 223, 224, 225, 226, 227,
       228, 229, 230, 231, 232, 233, 234, 235, 236, 237, 238, 239, 240,
       241, 242, 243, 244, 245, 246, 247, 248, 249, 250, 251, 252, 253,
       254, 255, 256, 257, 258, 259, 260, 261, 262, 263, 264, 265, 266,
       267, 268, 269, 270, 271, 272, 273, 274, 275, 276, 277, 278, 279,
       280, 281, 282, 283, 284, 285, 286, 287, 288, 289, 290, 291, 292,
       293, 294, 295, 296, 297, 298, 299, 300, 301, 302, 303, 304, 305,
       306, 307, 308, 309, 310, 311, 312, 313, 314, 315, 316, 317, 318,
       319, 320, 321, 322, 323, 324, 325, 326, 327, 328, 329, 330, 331,
       332, 333, 334, 335, 336, 337, 338, 339, 340, 341, 342, 343, 344,
       345, 346, 347, 348, 349, 350, 351, 352, 353, 354, 355, 356, 357,
       358, 359, 360, 361, 362, 363, 364, 365, 366, 367, 368, 369, 370,
       371, 372, 373, 374, 375, 376, 377, 378, 379, 380, 381, 382, 383,
       384, 385, 386, 387, 388, 389, 390, 391, 392, 393, 394, 395, 396,
       397, 398, 399, 400, 401, 402, 403, 404, 405, 406, 407, 408, 409,
       410, 411, 412, 413, 414, 415, 416, 417, 418, 419, 420, 421, 422,
       423, 424, 425, 426, 427, 428, 429, 430, 431, 432, 433, 434, 435,
       436, 437, 438, 439, 440, 441, 442, 443, 444, 445, 446, 447, 448,
       449, 450, 451, 452, 453, 454, 455, 456, 457, 458, 459, 460, 461,
       462, 463, 464, 465, 466, 467, 468, 469, 470, 471, 472, 473, 474,
       475, 476, 477, 478, 479, 480, 481, 482, 483, 484, 485, 486, 487,
       488, 489, 490, 491, 492, 493, 494, 495, 496, 497, 498, 499, 500,
       501, 502, 503, 504, 505, 506, 507, 508, 509, 510, 511, 512, 513,
       514, 515, 516, 517, 518, 519, 520, 521, 522, 523, 524, 525, 526,
       527, 528, 529, 530, 531, 532, 533, 534, 535, 536, 537, 538, 539,
       540, 541, 542, 543, 544, 545, 546, 547, 548, 549, 550, 551, 552,
       553, 554, 555, 556, 557, 558, 559, 560, 561, 562, 563, 564, 565,
       566, 567, 568, 569, 570, 571, 572, 573, 574, 575, 576, 577, 578,
       579, 580, 581, 582, 583, 584, 585, 586, 587, 588, 589, 590, 591,
       592, 593, 594, 595, 596, 597, 598, 599, 600, 601, 602, 603, 604,
       605, 606, 607, 608, 609, 610, 611, 612, 613, 614, 615, 616, 617,
       618, 619, 620, 621, 622, 623, 624, 625, 626, 627, 628, 629, 630,
       631, 632, 633, 634, 635, 636, 637, 638, 639, 640, 641, 642, 643,
       644, 645, 646, 647, 648, 649, 650, 651, 652, 653, 654, 655, 656,
       657, 658, 659, 660, 661, 662, 663, 664, 665, 666, 667, 668, 669,
       670, 671, 672, 673, 674, 675, 676, 677, 678, 679, 680, 681, 682,
       683, 684, 685, 686, 687, 688, 689, 690, 691, 692, 693, 694, 695,
       696, 697, 698, 699, 700, 701, 702, 703, 704, 705, 706, 707, 708,
       709, 710, 711, 712, 713, 714, 715, 716, 717, 718, 719, 720, 721,
       722, 723, 724, 725, 726, 727, 728, 729, 730, 731, 732, 733, 734,
       735, 736, 737, 738, 739, 740, 741, 742, 743, 744, 745, 746, 747,
       748, 749, 750, 751, 752, 753, 754, 755, 756, 757, 758, 759, 760,
       761, 762, 763, 764, 765, 766, 767, 768, 769, 770, 771, 772, 773,
       774, 775, 776, 777, 778, 779, 780, 781, 782, 783, 784, 785, 786,
       787, 788, 789, 790, 791, 792, 793, 794, 795, 796, 797, 798, 799,
       800, 801, 802, 803, 804, 805, 806, 807, 808, 809, 810, 811, 812,
       813, 814, 815, 816, 817, 818, 819, 820, 821, 822, 823, 824, 825,
       826, 827, 828, 829, 830, 831, 832, 833, 834, 835, 836, 837, 838,
       839, 840, 841, 842, 843, 844, 845, 846, 847, 848, 849, 850, 851,
       852, 853, 854, 855, 856, 857, 858, 859, 860, 861, 862, 863, 864,
       865, 866, 867, 868, 869, 870, 871, 872, 873, 874, 875, 876, 877,
       878, 879, 880, 881, 882, 883, 884, 885, 886, 887, 888, 889, 890,
       891, 892, 893, 894, 895, 896, 897, 898, 899, 900, 901, 902, 903,
       904, 905, 906, 907, 908, 909, 910, 911, 912, 913, 914, 915, 916,
       917, 918, 919, 920, 921, 922, 923, 924, 925, 926, 927, 928, 929,
       930, 931, 932, 933, 934, 935, 936, 937, 938, 939, 940, 941, 942,
       943, 944, 945, 946, 947, 948, 949, 950, 951, 952, 953, 954, 955,
       956, 957, 958, 959, 960, 961, 962, 963, 964, 965, 966, 967, 968,
       969, 970, 971, 972, 973, 974, 975, 976, 977, 978, 979, 980, 981,
       982, 983, 984, 985, 986, 987, 988, 989, 990, 991, 992, 993, 994,
       995, 996, 997, 998, 999, 1000, 1001, 1002, 1003, 1004, 1005, 1006,
       1007, 1008, 1009, 1010, 1011, 1012, 1013, 1014, 1015, 1016, 1017,
       1018, 1019, 1020, 1021, 1022, 1023, 1024, 1025, 1026, 1027, 1028,
       1029, 1030, 1031, 1032, 1033, 1034, 1035, 1036, 1037, 1038, 1039,
       1040, 1041, 1042, 1043, 1044, 1045, 1046, 1047, 1048, 1049, 1050,
       1051, 1052, 1053, 1054, 1055, 1056, 1057, 1058, 1059, 1060, 1061,
       1062, 1063, 1064, 1065, 1066, 1067, 1068, 1069, 1070, 1071, 1072,
       1073, 1074, 1075, 1076, 1077, 1078, 1079, 1080, 1081, 1082, 1083,
       1084, 1085, 1086, 1087, 1088, 1089, 1090, 1091, 1092, 1093, 1094,
       1095, 1096, 1097, 1098, 1099, 1100, 1101, 1102, 1103, 1104, 1105,
       1106, 1107, 1108, 1109, 1110, 1111, 1112, 1113, 1114, 1115, 1116,
       1117, 1118, 1119, 1120, 1121, 1122, 1123, 1124, 1125, 1126, 1127,
       1128, 1129, 1130, 1131, 1132, 1133, 1134, 1135, 1136, 1137, 1138,
       1139, 1140, 1141, 1142, 1143, 1144, 1145, 1146, 1147, 1148, 1149,
       1150, 1151, 1152, 1153, 1154, 1155, 1156, 1157, 1158, 1159, 1160,
       1161, 1162, 1163, 1164, 1165, 1166, 1167, 1168, 1169, 1170, 1171,
       1172, 1173, 1174, 1175, 1176, 1177, 1178, 1179, 1180, 1181, 1182,
       1183, 1184, 1185, 1186, 1187, 1188, 1189, 1190, 1191, 1192, 1193,
       1194, 1195, 1196, 1197, 1198, 1199, 1200, 1201, 1202, 1203, 1204,
       1205, 1206, 1207, 1208, 1209, 1210, 1211, 1212, 1213, 1214, 1215,
       1216, 1217, 1218, 1219, 1220, 1221, 1222, 1223, 1224, 1225, 1226,
       1227, 1228, 1229, 1230, 1231, 1232, 1233, 1234, 1235, 1236, 1237,
       1238, 1239, 1240, 1241, 1242, 1243, 1244, 1245, 1246, 1247, 1248,
       1249, 1250, 1251, 1252, 1253, 1254, 1255, 1256, 1257, 1258, 1259,
       1260, 1261, 1262, 1263, 1264, 1265, 1266, 1267, 1268, 1269, 1270,
       1271, 1272, 1273, 1274, 1275, 1276, 1277, 1278, 1279, 1280, 1281,
       1282, 1283, 1284, 1285, 1286, 1287, 1288, 1289, 1290, 1291, 1292,
       1293, 1294, 1295, 1296, 1297, 1298, 1299, 1300, 1301, 1302, 1303,
       1304, 1305, 1306, 1307, 1308, 1309, 1310, 1311, 1312, 1313, 1314,
       1315, 1316, 1317, 1318, 1319, 1320, 1321, 1322, 1323, 1324, 1325,
       1326, 1327, 1328, 1329, 1330, 1331, 1332, 1333, 1334, 1335, 1336,
       1337, 1338, 1339, 1340, 1341, 1342, 1343, 1344, 1345, 1346, 1347,
       1348, 1349, 1350, 1351, 1352, 1353, 1354, 1355, 1356, 1357, 1358,
       1359, 1360, 1361, 1362, 1363, 1364, 1365, 1366, 1367, 1368, 1369,
       1370, 1371, 1372, 1373, 1374, 1375, 1376, 1377, 1378, 1379, 1380,
       1381, 1382, 1383, 1384, 1385, 1386, 1387, 1388, 1389, 1390, 1391,
       1392, 1393, 1394, 1395, 1396, 1397, 1398, 1399, 1400, 1401, 1402,
       1403, 1404, 1405, 1406, 1407, 1408, 1409, 1410, 1411, 1412, 1413,
       1414, 1415, 1416, 1417, 1418, 1419, 1420, 1421, 1422, 1423, 1424,
       1425, 1426, 1427, 1428, 1429, 1430, 1431, 1432, 1433, 1434, 1435,
       1436, 1437, 1438, 1439, 1440, 1441, 1442, 1443, 1444, 1445, 1446,
       1447, 1448, 1449, 1450, 1451, 1452, 1453, 1454, 1455, 1456, 1457,
       1458, 1459, 1460, 1461, 1462, 1463, 1464, 1465, 1466, 1467, 1468,
       1469, 1470, 1471, 1472, 1473, 1474, 1475, 1476, 1477, 1478, 1479,
       1480, 1481, 1482, 1483, 1484, 1485, 1486, 1487, 1488, 1489, 1490,
       1491, 1492, 1493, 1494, 1495, 1496, 1497, 1498, 1499, 1500, 1501,
       1502, 1503, 1504, 1505, 1506, 1507, 1508, 1509, 1510, 1511, 1512,
       1513, 1514, 1515, 1516, 1517, 1518, 1519, 1520, 1521, 1522, 1523,
       1524, 1525, 1526, 1527, 1528, 1529, 1530, 1531, 1532, 1533, 1534,
       1535, 1536, 1537, 1538, 1539, 1540, 1541, 1542, 1543, 1544, 1545,
       1546, 1547, 1548, 1549, 1550, 1551, 1552, 1553, 1554, 1555, 1556,
       1557, 1558, 1559, 1560, 1561, 1562, 1563, 1564, 1565, 1566, 1567,
       1568, 1569, 1570, 1571, 1572, 1573, 1574, 1575, 1576, 1577, 1578,
       1579, 1580, 1581, 1582, 1583, 1584, 1585, 1586, 1587, 1588, 1589,
       1590, 1591, 1592, 1593, 1594, 1595, 1596, 1597, 1598, 1599, 1600,
       1601, 1602, 1603, 1604, 1605, 1606, 1607, 1608, 1609, 1610, 1611,
       1612, 1613, 1614, 1615, 1616, 1617, 1618, 1619, 1620, 1621, 1622,
       1623, 1624, 1625, 1626, 1627, 1628, 1629, 1630, 1631, 1632, 1633,
       1634, 1635, 1636, 1637, 1638, 1639, 1640, 1641, 1642, 1643, 1644,
       1645, 1646, 1647, 1648, 1649, 1650, 1651, 1652, 1653, 1654, 1655,
       1656, 1657, 1658, 1659, 1660, 1661, 1662, 1663, 1664, 1665, 1666,
       1667, 1668, 1669, 1670, 1671, 1672, 1673, 1674, 1675, 1676, 1677,
       1678, 1679, 1680, 1681, 1682, 1683, 1684, 1685, 1686, 1687, 1688,
       1689, 1690, 1691, 1692, 1693, 1694, 1695, 1696, 1697, 1698, 1699,
       1700, 1701, 1702, 1703, 1704, 1705, 1706, 1707, 1708, 1709, 1710,
       1711, 1712, 1713, 1714, 1715, 1716, 1717, 1718, 1719, 1720, 1721,
       1722, 1723, 1724, 1725, 1726, 1727, 1728, 1729, 1730, 1731, 1732,
       1733, 1734, 1735, 1736, 1737, 1738, 1739, 1740, 1741, 1742, 1743,
       1744, 1745, 1746, 1747, 1748, 1749, 1750, 1751, 1752, 1753, 1754,
       1755, 1756, 1757, 1758, 1759, 1760, 1761, 1762, 1763 ]
   var_type: [ 0, 0, 0, 0, 0, 0, 0, 0, 0, 0, 0, 0, 0, 0, 0, 0, 0, 0, 0,
       0, 0, 0, 0, 0, 0, 0, 0, 0, 0, 0, 0, 0, 0, 0, 0, 0, 0, 0, 0, 0, 0,
       0, 0, 0, 0, 0, 0, 0, 0, 0, 0, 0, 0, 0, 0, 0, 0, 0, 0, 0, 0, 0, 0,
       0, 0, 0, 0, 0, 0, 0, 0, 0, 0, 0, 0, 0, 0, 0, 0, 0, 0, 0, 0, 0, 0,
       0, 0, 0, 0, 0, 0, 0, 0, 0, 0, 0, 0, 0, 0, 0, 0, 0, 0, 0, 0, 0, 0,
       0, 0, 0, 0, 0, 0, 0, 0, 0, 0, 0, 0, 0, 0, 0, 0, 0, 0, 0, 0, 0, 0,
       0, 0, 0, 0, 0, 0, 0, 0, 0, 0, 0, 0, 0, 0, 0, 0, 0, 0, 0, 0, 0, 0,
       0, 0, 0, 0, 0, 0, 0, 0, 0, 0, 0, 0, 0, 0, 0, 0, 0, 0, 0, 0, 0, 0,
       0, 0, 0, 0, 0, 0, 0, 0, 0, 0, 0, 0, 0, 0, 0, 0, 0, 0, 0, 0, 0, 0,
       0, 0, 0, 0, 0, 0, 0, 0, 0, 0, 0, 0, 0, 0, 0, 0, 0, 0, 0, 0, 0, 0,
       0, 0, 0, 0, 0, 0, 0, 0, 0, 0, 0, 0, 0, 0, 0, 0, 0, 0, 0, 0, 0, 0,
       0, 0, 0, 0, 0, 0, 0, 0, 0, 0, 0, 0, 0, 0, 0, 0, 0, 0, 0, 0, 0, 0,
       0, 0, 0, 0, 0, 0, 0, 0, 0, 0, 0, 0, 0, 0, 0, 0, 0, 0, 0, 0, 0, 0,
       0, 0, 0, 0, 0, 0, 0, 0, 0, 0, 0, 0, 0, 0, 0, 0, 0, 0, 0, 0, 0, 0,
       0, 0, 0, 0, 0, 0, 0, 0, 0, 0, 0, 0, 0, 0, 0, 0, 0, 0, 0, 0, 0, 0,
       0, 0, 0, 0, 0, 0, 0, 0, 0, 0, 0, 0, 0, 0, 0, 0, 0, 0, 0, 0, 0, 0,
       0, 0, 0, 0, 0, 0, 0, 0, 0, 0, 0, 0, 0, 0, 0, 0, 0, 0, 0, 0, 0, 0,
       0, 0, 0, 0, 0, 0, 0, 0, 0, 0, 0, 0, 0, 0, 0, 0, 0, 0, 0, 0, 0, 0,
       0, 0, 0, 0, 0, 0, 0, 0, 0, 0, 0, 0, 0, 0, 0, 0, 0, 0, 0, 0, 0, 0,
       0, 0, 0, 0, 0, 0, 0, 0, 0, 0, 0, 0, 0, 0, 0, 0, 0, 0, 0, 0, 0, 0,
       0, 0, 0, 0, 0, 0, 0, 0, 0, 0, 0, 0, 0, 0, 0, 0, 0, 0, 0, 0, 0, 0,
       0, 0, 0, 0, 0, 0, 0, 0, 0, 0, 0, 0, 0, 0, 0, 0, 0, 0, 0, 0, 0, 0,
       0, 0, 0, 0, 0, 0, 0, 0, 0, 0, 0, 0, 0, 0, 0, 0, 0, 0, 0, 0, 0, 0,
       0, 0, 0, 0, 0, 0, 0, 0, 0, 0, 0, 0, 0, 0, 0, 0, 0, 0, 0, 0, 0, 0,
       0, 0, 0, 0, 0, 0, 0, 0, 0, 0, 0, 0, 0, 0, 0, 0, 0, 0, 0, 0, 0, 0,
       0, 0, 0, 0, 0, 0, 0, 0, 0, 0, 0, 0, 0, 0, 0, 0, 0, 0, 0, 0, 0, 0,
       0, 0, 0, 0, 0, 0, 0, 0, 0, 0, 0, 0, 0, 0, 0, 0, 0, 0, 0, 0, 0, 0,
       0, 0, 0, 0, 0, 0, 0, 0, 0, 0, 0, 0, 0, 0, 0, 0, 0, 0, 0, 0, 0, 0,
       0, 0, 0, 0, 0, 0, 0, 0, 0, 0, 0, 0, 0, 0, 0, 0, 0, 0, 0, 0, 0, 0,
       0, 0, 0, 0, 0, 0, 0, 0, 0, 0, 0, 0, 0, 0, 0, 0, 0, 0, 0, 0, 0, 0,
       0, 0, 0, 0, 0, 0, 0, 0, 0, 0, 0, 0, 0, 0, 0, 0, 0, 0, 0, 0, 0, 0,
       0, 0, 0, 0, 0, 0, 0, 0, 0, 0, 0, 0, 0, 0, 0, 0, 0, 0, 0, 0, 0, 0,
       0, 0, 0, 0, 0, 0, 0, 0, 0, 0, 0, 0, 0, 0, 0, 0, 0, 0, 0, 0, 0, 0,
       0, 0, 0, 0, 0, 0, 0, 0, 0, 0, 0, 0, 0, 0, 0, 0, 0, 0, 0, 0, 0, 0,
       0, 0, 0, 0, 0, 0, 0, 0, 0, 0, 0, 0, 0, 0, 0, 0, 0, 0, 0, 0, 0, 0,
       0, 0, 0, 0, 0, 0, 0, 0, 0, 0, 0, 0, 0, 0, 0, 0, 0, 0, 0, 0, 0, 0,
       0, 0, 0, 0, 0, 0, 0, 0, 0, 0, 0, 0, 0, 0, 0, 0, 0, 0, 0, 0, 0, 0,
       0, 0, 0, 0, 0, 0, 0, 0, 0, 0, 0, 0, 0, 0, 0, 0, 0, 0, 0, 0, 0, 0,
       0, 0, 0, 0, 0, 0, 0, 0, 0, 0, 0, 0, 0, 0, 0, 0, 0, 0, 0, 0, 0, 0,
       0, 0, 0, 0, 0, 0, 0, 0, 0, 0, 0, 0, 0, 0, 0, 0, 0, 0, 0, 0, 0, 0,
       0, 0, 0, 0, 0, 0, 0, 0, 0, 0, 0, 0, 0, 0, 0, 0, 0, 0, 0, 0, 0, 0,
       0, 0, 0, 0, 0, 0, 0, 0, 0, 0, 0, 0, 0, 0, 0, 0, 0, 0, 0, 0, 0, 0,
       0, 0, 0, 0, 0, 0, 0, 0, 0, 0, 0, 0, 0, 0, 0, 0, 0, 0, 0, 0, 0, 0,
       0, 0, 0, 0, 0, 0, 0, 0, 0, 0, 0, 0, 0, 0, 0, 0, 0, 0, 0, 0, 0, 0,
       0, 0, 0, 0, 0, 0, 0, 0, 0, 0, 0, 0, 0, 0, 0, 0, 0, 0, 0, 0, 0, 0,
       0, 0, 0, 0, 0, 0, 0, 0, 0, 0, 0, 0, 0, 0, 0, 0, 0, 0, 0, 0, 0, 0,
       0, 0, 0, 0, 0, 0, 0, 0, 0, 0, 0, 0, 0, 0, 0, 0, 0, 0, 0, 0, 0, 0,
       0, 0, 0, 0, 0, 0, 0, 0, 0, 0, 0, 0, 0, 0, 0, 0, 0, 0, 0, 0, 0, 0,
       0, 0, 0, 0, 0, 0, 0, 0, 0, 0, 0, 0, 0, 0, 0, 0, 0, 0, 0, 0, 0, 0,
       0, 0, 0, 0, 0, 0, 0, 0, 0, 0, 0, 0, 0, 0, 0, 0, 0, 0, 0, 0, 0, 0,
       0, 0, 0, 0, 0, 0, 0, 0, 0, 0, 0, 0, 0, 0, 0, 0, 0, 0, 0, 0, 0, 0,
       0, 0, 0, 0, 0, 0, 0, 0, 0, 0, 0, 0, 0, 0, 0, 0, 0, 0, 0, 0, 0, 0,
       0, 0, 0, 0, 0, 0, 0, 0, 0, 0, 0, 0, 0, 0, 0, 0, 0, 0, 0, 0, 0, 0,
       0, 0, 0, 0, 0, 0, 0, 0, 0, 0, 0, 0, 0, 0, 0, 0, 0, 0, 0, 0, 0, 0,
       0, 0, 0, 0, 0, 0, 0, 0, 0, 0, 0, 0, 0, 0, 0, 0, 0, 0, 0, 0, 0, 0,
       0, 0, 0, 0, 0, 0, 0, 0, 0, 0, 0, 0, 0, 0, 0, 0, 0, 0, 0, 0, 0, 0,
       0, 0, 0, 0, 0, 0, 0, 0, 0, 0, 0, 0, 0, 0, 0, 0, 0, 0, 0, 0, 0, 0,
       0, 0, 0, 0, 0, 0, 0, 0, 0, 0, 0, 0, 0, 0, 0, 0, 0, 0, 0, 0, 0, 0,
       0, 0, 0, 0, 0, 0, 0, 0, 0, 0, 0, 0, 0, 0, 0, 0, 0, 0, 0, 0, 0, 0,
       0, 0, 0, 0, 0, 0, 0, 0, 0, 0, 0, 0, 0, 0, 0, 0, 0, 0, 0, 0, 0, 0,
       0, 0, 0, 0, 0, 0, 0, 0, 0, 0, 0, 0, 0, 0, 0, 0, 0, 0, 0, 0, 0, 0,
       0, 0, 0, 0, 0, 0, 0, 0, 0, 0, 0, 0, 0, 0, 0, 0, 0, 0, 0, 0, 0, 0,
       0, 0, 0, 0, 0, 0, 0, 0, 0, 0, 0, 0, 0, 0, 0, 0, 0, 0, 0, 0, 0, 0,
       0, 0, 0, 0, 0, 0, 0, 0, 0, 0, 0, 0, 0, 0, 0, 0, 0, 0, 0, 0, 0, 0,
       0, 0, 0, 0, 0, 0, 0, 0, 0, 0, 0, 0, 0, 0, 0, 0, 0, 0, 0, 0, 0, 0,
       0, 0, 0, 0, 0, 0, 0, 0, 0, 0, 0, 0, 0, 0, 0, 0, 0, 0, 0, 0, 0, 0,
       0, 0, 0, 0, 0, 0, 0, 0, 0, 0, 0, 0, 0, 0, 0, 0, 0, 0, 0, 0, 0, 0,
       0, 0, 0, 0, 0, 0, 0, 0, 0, 0, 0, 0, 0, 0, 0, 0, 0, 0, 0, 0, 0, 0,
       0, 0, 0, 0, 0, 0, 0, 0, 0, 0, 0, 0, 0, 0, 0, 0, 0, 0, 0, 0, 0, 0,
       0, 0, 0, 0, 0, 0, 0, 0, 0, 0, 0, 0, 0, 0, 0, 0, 0, 0, 0, 0, 0, 0,
       0, 0, 0, 0, 0, 0, 0, 0, 0, 0, 0, 0, 0, 0, 0, 0, 0, 0, 0, 0, 0, 0,
       0, 0, 0, 0, 0, 0, 0, 0, 0, 0, 0, 0, 0, 0, 0, 0, 0, 0, 0, 0, 0, 0,
       0, 0, 0, 0, 0, 0, 0, 0, 0, 0, 0, 0, 0, 0, 0, 0, 0, 0, 0, 0, 0, 0,
       0, 0, 0, 0, 0, 0, 0, 0, 0, 0, 0, 0, 0, 0, 0, 0, 0, 0, 0, 0, 0, 0,
       0, 0, 0, 0, 0, 0, 0, 0, 0, 0, 0, 0, 0, 0, 0, 0, 0, 0, 0, 0, 0, 0,
       0, 0, 0, 0, 0, 0, 0, 0, 0, 0, 0, 0, 0, 0, 0, 0, 0, 0, 0, 0, 0, 0,
       0, 0, 0, 0, 0, 0, 0, 0, 0, 0, 0, 0, 0, 0, 0, 0, 0, 0, 0, 0, 0, 0,
       0, 0, 0, 0, 0, 0, 0, 0, 0, 0, 0, 0, 0, 0, 0, 0, 0, 0, 0, 0, 0, 0,
       0, 0, 0, 0, 0, 0, 0, 0, 0, 0, 0, 0, 0, 0, 0, 0, 0, 0, 0, 0, 0, 0,
       0, 0, 0, 0, 0, 0, 0, 0, 0, 0, 0, 0, 0, 0, 0, 0, 0, 0, 0, 0, 0, 0,
       0, 0, 0, 0, 0, 0, 0, 1 ]
   cat_ofs: [ 0, 0, 0, 0, 0, 0, 0, 0, 0, 0, 0, 0, 0, 0, 0, 0, 0, 0, 0, 0,
       0, 0, 0, 0, 0, 0, 0, 0, 0, 0, 0, 0, 0, 0, 0, 0, 0, 0, 0, 0, 0, 0,
       0, 0, 0, 0, 0, 0, 0, 0, 0, 0, 0, 0, 0, 0, 0, 0, 0, 0, 0, 0, 0, 0,
       0, 0, 0, 0, 0, 0, 0, 0, 0, 0, 0, 0, 0, 0, 0, 0, 0, 0, 0, 0, 0, 0,
       0, 0, 0, 0, 0, 0, 0, 0, 0, 0, 0, 0, 0, 0, 0, 0, 0, 0, 0, 0, 0, 0,
       0, 0, 0, 0, 0, 0, 0, 0, 0, 0, 0, 0, 0, 0, 0, 0, 0, 0, 0, 0, 0, 0,
       0, 0, 0, 0, 0, 0, 0, 0, 0, 0, 0, 0, 0, 0, 0, 0, 0, 0, 0, 0, 0, 0,
       0, 0, 0, 0, 0, 0, 0, 0, 0, 0, 0, 0, 0, 0, 0, 0, 0, 0, 0, 0, 0, 0,
       0, 0, 0, 0, 0, 0, 0, 0, 0, 0, 0, 0, 0, 0, 0, 0, 0, 0, 0, 0, 0, 0,
       0, 0, 0, 0, 0, 0, 0, 0, 0, 0, 0, 0, 0, 0, 0, 0, 0, 0, 0, 0, 0, 0,
       0, 0, 0, 0, 0, 0, 0, 0, 0, 0, 0, 0, 0, 0, 0, 0, 0, 0, 0, 0, 0, 0,
       0, 0, 0, 0, 0, 0, 0, 0, 0, 0, 0, 0, 0, 0, 0, 0, 0, 0, 0, 0, 0, 0,
       0, 0, 0, 0, 0, 0, 0, 0, 0, 0, 0, 0, 0, 0, 0, 0, 0, 0, 0, 0, 0, 0,
       0, 0, 0, 0, 0, 0, 0, 0, 0, 0, 0, 0, 0, 0, 0, 0, 0, 0, 0, 0, 0, 0,
       0, 0, 0, 0, 0, 0, 0, 0, 0, 0, 0, 0, 0, 0, 0, 0, 0, 0, 0, 0, 0, 0,
       0, 0, 0, 0, 0, 0, 0, 0, 0, 0, 0, 0, 0, 0, 0, 0, 0, 0, 0, 0, 0, 0,
       0, 0, 0, 0, 0, 0, 0, 0, 0, 0, 0, 0, 0, 0, 0, 0, 0, 0, 0, 0, 0, 0,
       0, 0, 0, 0, 0, 0, 0, 0, 0, 0, 0, 0, 0, 0, 0, 0, 0, 0, 0, 0, 0, 0,
       0, 0, 0, 0, 0, 0, 0, 0, 0, 0, 0, 0, 0, 0, 0, 0, 0, 0, 0, 0, 0, 0,
       0, 0, 0, 0, 0, 0, 0, 0, 0, 0, 0, 0, 0, 0, 0, 0, 0, 0, 0, 0, 0, 0,
       0, 0, 0, 0, 0, 0, 0, 0, 0, 0, 0, 0, 0, 0, 0, 0, 0, 0, 0, 0, 0, 0,
       0, 0, 0, 0, 0, 0, 0, 0, 0, 0, 0, 0, 0, 0, 0, 0, 0, 0, 0, 0, 0, 0,
       0, 0, 0, 0, 0, 0, 0, 0, 0, 0, 0, 0, 0, 0, 0, 0, 0, 0, 0, 0, 0, 0,
       0, 0, 0, 0, 0, 0, 0, 0, 0, 0, 0, 0, 0, 0, 0, 0, 0, 0, 0, 0, 0, 0,
       0, 0, 0, 0, 0, 0, 0, 0, 0, 0, 0, 0, 0, 0, 0, 0, 0, 0, 0, 0, 0, 0,
       0, 0, 0, 0, 0, 0, 0, 0, 0, 0, 0, 0, 0, 0, 0, 0, 0, 0, 0, 0, 0, 0,
       0, 0, 0, 0, 0, 0, 0, 0, 0, 0, 0, 0, 0, 0, 0, 0, 0, 0, 0, 0, 0, 0,
       0, 0, 0, 0, 0, 0, 0, 0, 0, 0, 0, 0, 0, 0, 0, 0, 0, 0, 0, 0, 0, 0,
       0, 0, 0, 0, 0, 0, 0, 0, 0, 0, 0, 0, 0, 0, 0, 0, 0, 0, 0, 0, 0, 0,
       0, 0, 0, 0, 0, 0, 0, 0, 0, 0, 0, 0, 0, 0, 0, 0, 0, 0, 0, 0, 0, 0,
       0, 0, 0, 0, 0, 0, 0, 0, 0, 0, 0, 0, 0, 0, 0, 0, 0, 0, 0, 0, 0, 0,
       0, 0, 0, 0, 0, 0, 0, 0, 0, 0, 0, 0, 0, 0, 0, 0, 0, 0, 0, 0, 0, 0,
       0, 0, 0, 0, 0, 0, 0, 0, 0, 0, 0, 0, 0, 0, 0, 0, 0, 0, 0, 0, 0, 0,
       0, 0, 0, 0, 0, 0, 0, 0, 0, 0, 0, 0, 0, 0, 0, 0, 0, 0, 0, 0, 0, 0,
       0, 0, 0, 0, 0, 0, 0, 0, 0, 0, 0, 0, 0, 0, 0, 0, 0, 0, 0, 0, 0, 0,
       0, 0, 0, 0, 0, 0, 0, 0, 0, 0, 0, 0, 0, 0, 0, 0, 0, 0, 0, 0, 0, 0,
       0, 0, 0, 0, 0, 0, 0, 0, 0, 0, 0, 0, 0, 0, 0, 0, 0, 0, 0, 0, 0, 0,
       0, 0, 0, 0, 0, 0, 0, 0, 0, 0, 0, 0, 0, 0, 0, 0, 0, 0, 0, 0, 0, 0,
       0, 0, 0, 0, 0, 0, 0, 0, 0, 0, 0, 0, 0, 0, 0, 0, 0, 0, 0, 0, 0, 0,
       0, 0, 0, 0, 0, 0, 0, 0, 0, 0, 0, 0, 0, 0, 0, 0, 0, 0, 0, 0, 0, 0,
       0, 0, 0, 0, 0, 0, 0, 0, 0, 0, 0, 0, 0, 0, 0, 0, 0, 0, 0, 0, 0, 0,
       0, 0, 0, 0, 0, 0, 0, 0, 0, 0, 0, 0, 0, 0, 0, 0, 0, 0, 0, 0, 0, 0,
       0, 0, 0, 0, 0, 0, 0, 0, 0, 0, 0, 0, 0, 0, 0, 0, 0, 0, 0, 0, 0, 0,
       0, 0, 0, 0, 0, 0, 0, 0, 0, 0, 0, 0, 0, 0, 0, 0, 0, 0, 0, 0, 0, 0,
       0, 0, 0, 0, 0, 0, 0, 0, 0, 0, 0, 0, 0, 0, 0, 0, 0, 0, 0, 0, 0, 0,
       0, 0, 0, 0, 0, 0, 0, 0, 0, 0, 0, 0, 0, 0, 0, 0, 0, 0, 0, 0, 0, 0,
       0, 0, 0, 0, 0, 0, 0, 0, 0, 0, 0, 0, 0, 0, 0, 0, 0, 0, 0, 0, 0, 0,
       0, 0, 0, 0, 0, 0, 0, 0, 0, 0, 0, 0, 0, 0, 0, 0, 0, 0, 0, 0, 0, 0,
       0, 0, 0, 0, 0, 0, 0, 0, 0, 0, 0, 0, 0, 0, 0, 0, 0, 0, 0, 0, 0, 0,
       0, 0, 0, 0, 0, 0, 0, 0, 0, 0, 0, 0, 0, 0, 0, 0, 0, 0, 0, 0, 0, 0,
       0, 0, 0, 0, 0, 0, 0, 0, 0, 0, 0, 0, 0, 0, 0, 0, 0, 0, 0, 0, 0, 0,
       0, 0, 0, 0, 0, 0, 0, 0, 0, 0, 0, 0, 0, 0, 0, 0, 0, 0, 0, 0, 0, 0,
       0, 0, 0, 0, 0, 0, 0, 0, 0, 0, 0, 0, 0, 0, 0, 0, 0, 0, 0, 0, 0, 0,
       0, 0, 0, 0, 0, 0, 0, 0, 0, 0, 0, 0, 0, 0, 0, 0, 0, 0, 0, 0, 0, 0,
       0, 0, 0, 0, 0, 0, 0, 0, 0, 0, 0, 0, 0, 0, 0, 0, 0, 0, 0, 0, 0, 0,
       0, 0, 0, 0, 0, 0, 0, 0, 0, 0, 0, 0, 0, 0, 0, 0, 0, 0, 0, 0, 0, 0,
       0, 0, 0, 0, 0, 0, 0, 0, 0, 0, 0, 0, 0, 0, 0, 0, 0, 0, 0, 0, 0, 0,
       0, 0, 0, 0, 0, 0, 0, 0, 0, 0, 0, 0, 0, 0, 0, 0, 0, 0, 0, 0, 0, 0,
       0, 0, 0, 0, 0, 0, 0, 0, 0, 0, 0, 0, 0, 0, 0, 0, 0, 0, 0, 0, 0, 0,
       0, 0, 0, 0, 0, 0, 0, 0, 0, 0, 0, 0, 0, 0, 0, 0, 0, 0, 0, 0, 0, 0,
       0, 0, 0, 0, 0, 0, 0, 0, 0, 0, 0, 0, 0, 0, 0, 0, 0, 0, 0, 0, 0, 0,
       0, 0, 0, 0, 0, 0, 0, 0, 0, 0, 0, 0, 0, 0, 0, 0, 0, 0, 0, 0, 0, 0,
       0, 0, 0, 0, 0, 0, 0, 0, 0, 0, 0, 0, 0, 0, 0, 0, 0, 0, 0, 0, 0, 0,
       0, 0, 0, 0, 0, 0, 0, 0, 0, 0, 0, 0, 0, 0, 0, 0, 0, 0, 0, 0, 0, 0,
       0, 0, 0, 0, 0, 0, 0, 0, 0, 0, 0, 0, 0, 0, 0, 0, 0, 0, 0, 0, 0, 0,
       0, 0, 0, 0, 0, 0, 0, 0, 0, 0, 0, 0, 0, 0, 0, 0, 0, 0, 0, 0, 0, 0,
       0, 0, 0, 0, 0, 0, 0, 0, 0, 0, 0, 0, 0, 0, 0, 0, 0, 0, 0, 0, 0, 0,
       0, 0, 0, 0, 0, 0, 0, 0, 0, 0, 0, 0, 0, 0, 0, 0, 0, 0, 0, 0, 0, 0,
       0, 0, 0, 0, 0, 0, 0, 0, 0, 0, 0, 0, 0, 0, 0, 0, 0, 0, 0, 0, 0, 0,
       0, 0, 0, 0, 0, 0, 0, 0, 0, 0, 0, 0, 0, 0, 0, 0, 0, 0, 0, 0, 0, 0,
       0, 0, 0, 0, 0, 0, 0, 0, 0, 0, 0, 0, 0, 0, 0, 0, 0, 0, 0, 0, 0, 0,
       0, 0, 0, 0, 0, 0, 0, 0, 0, 0, 0, 0, 0, 0, 0, 0, 0, 0, 0, 0, 0, 0,
       0, 0, 0, 0, 0, 0, 0, 0, 0, 0, 0, 0, 0, 0, 0, 0, 0, 0, 0, 0, 0, 0,
       0, 0, 0, 0, 0, 0, 0, 0, 0, 0, 0, 0, 0, 0, 0, 0, 0, 0, 0, 0, 0, 0,
       0, 0, 0, 0, 0, 0, 0, 0, 0, 0, 0, 0, 0, 0, 0, 0, 0, 0, 0, 0, 0, 0,
       0, 0, 0, 0, 0, 0, 0, 0, 0, 0, 0, 0, 0, 0, 0, 0, 0, 0, 0, 0, 0, 0,
       0, 0, 0, 0, 0, 0, 0, 0, 0, 0, 0, 0, 0, 0, 0, 0, 0, 0, 0, 0, 0, 0,
       0, 0, 0, 0, 0, 0, 0, 0, 0, 0, 0, 0, 0, 0, 0, 0, 0, 0, 0, 0, 0, 0,
       0, 0, 0, 0, 0, 0, 0, 0, 0, 0, 0, 0, 0, 0, 0, 0, 0, 0, 0, 0, 0, 0,
       0, 0, 0, 0, 0, 0, 0, 0, 0, 0, 0, 0, 0, 0, 0, 0, 0, 0, 0, 0, 0, 0,
       0, 0, 0, 0, 0, 0, 0, 0, 0, 0, 0, 0, 0, 0, 0, 0, 0, 0, 0, 0, 0, 0,
       0, 0, 0, 0, 0, 0, 0, 0, 0, 0, 0, 0, 0, 0, 0, 0, 0, 0, 0, 0, 0, 0,
       0, 0, 0, 0, 0, 0, 0, 0, 0, 0, 0, 0, 0, 0, 0, 0, 0, 0, 0, 0, 0, 0,
       0, 0, 0, 0, 0, 0, 0, 0, 0, 0, 0, 0, 0, 0, 0, 0, 0, 0, 0, 0, 0, 0,
       0, 0, 0, 0, 0, 0, 0, 0, 0, 0, 0, 0, 0, 0, 0, 0, 0, 0, 0, 0, 0, 0,
       0, 0, 0, 0, 0, 0, 0, 0, 0, 0, 0, 0, 0, 0, 0, 0, 0, 0, 0, 0, 0, 0,
       0, 0, 0, 0, 0, 0, 0, 0, 0, 0, 0, 0, 0, 0, 0, 0, 0, 0, 0, 0, 0, 0,
       0, 0, 0, 0, 0, 0, 0, 0, 0, 0, 0, 0, 0, 0, 0, 0, 0, 0, 0, 0, 0, 0,
       0, 0, 0, 0, 0, 0, 0, 0, 0, 0, 0, 0, 0, 0, 0, 0, 0, 0, 0, 0, 0, 0,
       0, 0, 0, 0, 0, 0, 0, 0, 0, 0, 0, 0, 0, 0, 0, 0, 0, 0, 0, 0, 0, 0,
       0, 0, 0, 0, 0, 0, 0, 0, 0, 0, 0, 0, 0, 0, 0, 0, 0, 0, 0, 0, 0, 0,
       0, 0, 0, 0, 0, 0, 0, 0, 0, 0, 0, 0, 0, 0, 0, 0, 0, 0, 0, 0, 0, 0,
       0, 0, 0, 0, 0, 0, 0, 0, 0, 0, 0, 0, 0, 0, 0, 0, 0, 0, 0, 0, 0, 0,
       0, 0, 0, 0, 0, 0, 0, 0, 0, 0, 0, 0, 0, 0, 0, 0, 0, 0, 0, 0, 0, 0,
       0, 0, 0, 0, 0, 0, 0, 0, 0, 0, 0, 0, 0, 0, 0, 0, 0, 0, 0, 0, 0, 0,
       0, 0, 0, 0, 0, 0, 0, 0, 0, 0, 0, 0, 0, 0, 0, 0, 0, 0, 0, 0, 0, 0,
       0, 0, 0, 0, 0, 0, 0, 0, 0, 0, 0, 0, 0, 0, 0, 0, 0, 0, 0, 0, 0, 0,
       0, 0, 0, 0, 0, 0, 0, 0, 0, 0, 0, 0, 0, 0, 0, 0, 0, 0, 0, 0, 0, 0,
       0, 0, 0, 0, 0, 0, 0, 0, 0, 0, 0, 0, 0, 0, 0, 0, 0, 0, 0, 0, 0, 0,
       0, 0, 0, 0, 0, 0, 0, 0, 0, 0, 0, 0, 0, 0, 0, 0, 0, 0, 0, 0, 0, 0,
       0, 0, 0, 0, 0, 0, 0, 0, 0, 0, 0, 0, 0, 0, 0, 0, 0, 0, 0, 0, 0, 0,
       0, 0, 0, 0, 0, 0, 0, 0, 0, 0, 0, 0, 0, 0, 0, 0, 0, 0, 0, 0, 0, 0,
       0, 0, 0, 0, 0, 0, 0, 0, 0, 0, 0, 0, 0, 0, 0, 0, 0, 0, 0, 0, 0, 0,
       0, 0, 0, 0, 0, 0, 0, 0, 0, 0, 0, 0, 0, 0, 0, 0, 0, 0, 0, 0, 0, 0,
       0, 0, 0, 0, 0, 0, 0, 0, 0, 0, 0, 0, 0, 0, 0, 0, 0, 0, 0, 0, 0, 0,
       0, 0, 0, 0, 0, 0, 0, 0, 0, 0, 0, 0, 0, 0, 0, 0, 0, 0, 0, 0, 0, 0,
       0, 0, 0, 0, 0, 0, 0, 0, 0, 0, 0, 0, 0, 0, 0, 0, 0, 0, 0, 0, 0, 0,
       0, 0, 0, 0, 0, 0, 0, 0, 0, 0, 0, 0, 0, 0, 0, 0, 0, 0, 0, 0, 0, 0,
       0, 0, 0, 0, 0, 0, 0, 0, 0, 0, 0, 0, 0, 0, 0, 0, 0, 0, 0, 0, 0, 0,
       0, 0, 0, 0, 0, 0, 0, 0, 0, 0, 0, 0, 0, 0, 0, 0, 0, 0, 0, 0, 0, 0,
       0, 0, 0, 0, 0, 0, 0, 0, 0, 0, 0, 0, 0, 0, 0, 0, 0, 0, 0, 0, 0, 0,
       0, 0, 0, 0, 0, 0, 0, 0, 0, 0, 0, 0, 0, 0, 0, 0, 0, 0, 0, 0, 0, 0,
       0, 0, 0, 0, 0, 0, 0, 0, 0, 0, 0, 0, 0, 0, 0, 0, 0, 0, 0, 0, 0, 0,
       0, 0, 0, 0, 0, 0, 0, 0, 0, 0, 0, 0, 0, 0, 0, 0, 0, 0, 0, 0, 0, 0,
       0, 0, 0, 0, 0, 0, 0, 0, 0, 0, 0, 0, 0, 0, 0, 0, 0, 0, 0, 0, 0, 0,
       0, 0, 0, 0, 0, 0, 0, 0, 0, 0, 0, 0, 0, 0, 0, 0, 0, 0, 0, 0, 0, 0,
       0, 0, 0, 0, 0, 0, 0, 0, 0, 0, 0, 0, 0, 0, 0, 0, 0, 0, 0, 0, 0, 0,
       0, 0, 0, 0, 0, 0, 0, 0, 0, 0, 0, 0, 0, 0, 0, 0, 0, 0, 0, 0, 0, 0,
       0, 0, 0, 0, 0, 0, 0, 0, 0, 0, 0, 0, 0, 0, 0, 0, 0, 0, 0, 0, 0, 0,
       0, 0, 0, 0, 0, 0, 0, 0, 0, 0, 0, 0, 0, 0, 0, 0, 0, 0, 0, 0, 0, 0,
       0, 0, 0, 0, 0, 0, 0, 0, 0, 0, 0, 0, 0, 0, 0, 0, 0, 0, 0, 0, 0, 0,
       0, 0, 0, 0, 0, 0, 0, 0, 0, 0, 0, 0, 0, 0, 0, 0, 0, 0, 0, 0, 0, 0,
       0, 0, 0, 0, 0, 0, 0, 0, 0, 0, 0, 0, 0, 0, 0, 0, 0, 0, 0, 0, 0, 0,
       0, 0, 0, 0, 0, 0, 0, 0, 0, 0, 0, 0, 0, 0, 0, 0, 0, 0, 0, 0, 0, 0,
       0, 0, 0, 0, 0, 0, 0, 0, 0, 0, 0, 0, 0, 0, 0, 0, 0, 0, 0, 0, 0, 0,
       0, 0, 0, 0, 0, 0, 0, 0, 0, 0, 0, 0, 0, 0, 0, 0, 0, 0, 0, 0, 0, 0,
       0, 0, 0, 0, 0, 0, 0, 0, 0, 0, 0, 0, 0, 0, 0, 0, 0, 0, 0, 0, 0, 0,
       0, 0, 0, 0, 0, 0, 0, 0, 0, 0, 0, 0, 0, 0, 0, 0, 0, 0, 0, 0, 0, 0,
       0, 0, 0, 0, 0, 0, 0, 0, 0, 0, 0, 0, 0, 0, 0, 0, 0, 0, 0, 0, 0, 0,
       0, 0, 0, 0, 0, 0, 0, 0, 0, 0, 0, 0, 0, 0, 0, 0, 0, 0, 0, 0, 0, 0,
       0, 0, 0, 0, 0, 0, 0, 0, 0, 0, 0, 0, 0, 0, 0, 0, 0, 0, 0, 0, 0, 0,
       0, 0, 0, 0, 0, 0, 0, 0, 0, 0, 0, 0, 0, 0, 0, 0, 0, 0, 0, 0, 0, 0,
       0, 0, 0, 0, 0, 0, 0, 0, 0, 0, 0, 0, 0, 0, 0, 0, 0, 0, 0, 0, 0, 0,
       0, 0, 0, 0, 0, 0, 0, 0, 0, 0, 0, 0, 0, 0, 0, 0, 0, 0, 0, 0, 0, 0,
       0, 0, 0, 0, 0, 0, 0, 0, 0, 0, 0, 0, 0, 0, 0, 0, 0, 0, 0, 0, 0, 0,
       0, 0, 0, 0, 0, 0, 0, 0, 0, 0, 0, 0, 0, 0, 0, 0, 0, 0, 0, 0, 0, 0,
       0, 0, 0, 0, 0, 0, 0, 0, 0, 0, 0, 0, 0, 0, 0, 0, 0, 0, 0, 0, 0, 0,
       0, 0, 0, 0, 0, 0, 0, 0, 0, 0, 0, 0, 0, 0, 0, 0, 0, 0, 0, 0, 0, 0,
       0, 0, 0, 0, 0, 0, 0, 0, 0, 0, 0, 0, 0, 0, 0, 0, 0, 0, 0, 0, 0, 0,
       0, 0, 0, 0, 0, 0, 0, 0, 0, 0, 0, 0, 0, 0, 0, 0, 0, 0, 0, 0, 0, 0,
       0, 0, 0, 0, 0, 0, 0, 0, 0, 0, 0, 0, 0, 0, 0, 0, 0, 0, 0, 0, 0, 0,
       0, 0, 0, 0, 0, 0, 0, 0, 0, 0, 0, 0, 0, 0, 0, 0, 0, 0, 0, 0, 0, 0,
       0, 0, 0, 0, 0, 0, 0, 0, 0, 0, 0, 0, 0, 0, 0, 0, 0, 0, 0, 0, 0, 0,
       0, 0, 0, 0, 0, 0, 0, 0, 0, 0, 0, 0, 0, 0, 0, 0, 0, 0, 0, 0, 0, 0,
       0, 0, 0, 0, 0, 0, 0, 0, 0, 0, 0, 0, 0, 0, 0, 0, 0, 0, 0, 0, 0, 0,
       0, 0, 0, 0, 0, 0, 0, 0, 0, 0, 0, 0, 0, 0, 0, 0, 0, 0, 0, 0, 0, 0,
       0, 0, 0, 0, 0, 0, 0, 0, 0, 0, 0, 0, 0, 0, 0, 0, 0, 0, 0, 0, 0, 0,
       0, 0, 0, 0, 0, 0, 0, 0, 0, 0, 0, 0, 0, 0, 0, 0, 0, 0, 0, 0, 0, 0,
       0, 0, 0, 0, 0, 0, 0, 0, 0, 0, 0, 0, 0, 0, 0, 0, 0, 0, 0, 0, 0, 0,
       0, 0, 0, 0, 0, 0, 0, 0, 0, 0, 0, 0, 0, 0, 0, 0, 0, 0, 0, 0, 0, 0,
       0, 0, 0, 0, 0, 0, 0, 0, 0, 0, 0, 0, 0, 0, 0, 0, 0, 0, 0, 0, 0, 0,
       0, 0, 0, 0, 0, 0, 0, 0, 0, 0, 0, 0, 0, 0, 0, 0, 0, 0, 0, 0, 0, 0,
       0, 0, 0, 0, 0, 0, 0, 0, 0, 0, 0, 0, 0, 0, 0, 0, 0, 0, 0, 0, 0, 0,
       0, 0, 0, 0, 0, 0, 0, 0, 0, 0, 0, 0, 0, 0, 0, 0, 0, 0, 0, 0, 0, 0,
       0, 0, 0, 0, 0, 0, 0, 0, 0, 0, 0, 0, 0, 0, 0, 0, 0, 0, 0, 0, 0, 0,
       0, 0, 0, 0, 0, 0, 0, 0, 0, 0, 0, 0, 0, 0, 0, 0, 0, 0, 0, 0, 0, 0,
       0, 0, 0, 0, 0, 0, 0, 0, 0, 0, 0, 0, 0, 0, 0, 0, 0, 0, 0, 0, 0, 0,
       0, 0, 0, 0, 0, 0, 0, 0, 0, 0, 0, 0, 0, 0, 0, 0, 0, 0, 0, 0, 0, 0,
       0, 0, 0, 0, 0, 0, 0, 0, 0, 0, 0, 0, 0, 0, 0, 0, 0, 0, 0, 0, 0, 0,
       0, 0, 0, 0, 0, 0, 0, 0, 0, 0, 0, 0, 0, 0, 0, 0, 0, 0, 0, 0, 0, 0,
       0, 0, 0, 0, 0, 0, 0, 0, 0, 0 ]
   class_labels: [ 0, 1, 2, 3, 4, 5 ]
   missing_subst: [ 0., 0., 0., 0., 0., 0., 0., 0., 0., 0., 0., 0., 0.,
       0., 0., 0., 0., 0., 0., 0., 0., 0., 0., 0., 0., 0., 0., 0., 0.,
       0., 0., 0., 0., 0., 0., 0., 0., 0., 0., 0., 0., 0., 0., 0., 0.,
       0., 0., 0., 0., 0., 0., 0., 0., 0., 0., 0., 0., 0., 0., 0., 0.,
       0., 0., 0., 0., 0., 0., 0., 0., 0., 0., 0., 0., 0., 0., 0., 0.,
       0., 0., 0., 0., 0., 0., 0., 0., 0., 0., 0., 0., 0., 0., 0., 0.,
       0., 0., 0., 0., 0., 0., 0., 0., 0., 0., 0., 0., 0., 0., 0., 0.,
       0., 0., 0., 0., 0., 0., 0., 0., 0., 0., 0., 0., 0., 0., 0., 0.,
       0., 0., 0., 0., 0., 0., 0., 0., 0., 0., 0., 0., 0., 0., 0., 0.,
       0., 0., 0., 0., 0., 0., 0., 0., 0., 0., 0., 0., 0., 0., 0., 0.,
       0., 0., 0., 0., 0., 0., 0., 0., 0., 0., 0., 0., 0., 0., 0., 0.,
       0., 0., 0., 0., 0., 0., 0., 0., 0., 0., 0., 0., 0., 0., 0., 0.,
       0., 0., 0., 0., 0., 0., 0., 0., 0., 0., 0., 0., 0., 0., 0., 0.,
       0., 0., 0., 0., 0., 0., 0., 0., 0., 0., 0., 0., 0., 0., 0., 0.,
       0., 0., 0., 0., 0., 0., 0., 0., 0., 0., 0., 0., 0., 0., 0., 0.,
       0., 0., 0., 0., 0., 0., 0., 0., 0., 0., 0., 0., 0., 0., 0., 0.,
       0., 0., 0., 0., 0., 0., 0., 0., 0., 0., 0., 0., 0., 0., 0., 0.,
       0., 0., 0., 0., 0., 0., 0., 0., 0., 0., 0., 0., 0., 0., 0., 0.,
       0., 0., 0., 0., 0., 0., 0., 0., 0., 0., 0., 0., 0., 0., 0., 0.,
       0., 0., 0., 0., 0., 0., 0., 0., 0., 0., 0., 0., 0., 0., 0., 0.,
       0., 0., 0., 0., 0., 0., 0., 0., 0., 0., 0., 0., 0., 0., 0., 0.,
       0., 0., 0., 0., 0., 0., 0., 0., 0., 0., 0., 0., 0., 0., 0., 0.,
       0., 0., 0., 0., 0., 0., 0., 0., 0., 0., 0., 0., 0., 0., 0., 0.,
       0., 0., 0., 0., 0., 0., 0., 0., 0., 0., 0., 0., 0., 0., 0., 0.,
       0., 0., 0., 0., 0., 0., 0., 0., 0., 0., 0., 0., 0., 0., 0., 0.,
       0., 0., 0., 0., 0., 0., 0., 0., 0., 0., 0., 0., 0., 0., 0., 0.,
       0., 0., 0., 0., 0., 0., 0., 0., 0., 0., 0., 0., 0., 0., 0., 0.,
       0., 0., 0., 0., 0., 0., 0., 0., 0., 0., 0., 0., 0., 0., 0., 0.,
       0., 0., 0., 0., 0., 0., 0., 0., 0., 0., 0., 0., 0., 0., 0., 0.,
       0., 0., 0., 0., 0., 0., 0., 0., 0., 0., 0., 0., 0., 0., 0., 0.,
       0., 0., 0., 0., 0., 0., 0., 0., 0., 0., 0., 0., 0., 0., 0., 0.,
       0., 0., 0., 0., 0., 0., 0., 0., 0., 0., 0., 0., 0., 0., 0., 0.,
       0., 0., 0., 0., 0., 0., 0., 0., 0., 0., 0., 0., 0., 0., 0., 0.,
       0., 0., 0., 0., 0., 0., 0., 0., 0., 0., 0., 0., 0., 0., 0., 0.,
       0., 0., 0., 0., 0., 0., 0., 0., 0., 0., 0., 0., 0., 0., 0., 0.,
       0., 0., 0., 0., 0., 0., 0., 0., 0., 0., 0., 0., 0., 0., 0., 0.,
       0., 0., 0., 0., 0., 0., 0., 0., 0., 0., 0., 0., 0., 0., 0., 0.,
       0., 0., 0., 0., 0., 0., 0., 0., 0., 0., 0., 0., 0., 0., 0., 0.,
       0., 0., 0., 0., 0., 0., 0., 0., 0., 0., 0., 0., 0., 0., 0., 0.,
       0., 0., 0., 0., 0., 0., 0., 0., 0., 0., 0., 0., 0., 0., 0., 0.,
       0., 0., 0., 0., 0., 0., 0., 0., 0., 0., 0., 0., 0., 0., 0., 0.,
       0., 0., 0., 0., 0., 0., 0., 0., 0., 0., 0., 0., 0., 0., 0., 0.,
       0., 0., 0., 0., 0., 0., 0., 0., 0., 0., 0., 0., 0., 0., 0., 0.,
       0., 0., 0., 0., 0., 0., 0., 0., 0., 0., 0., 0., 0., 0., 0., 0.,
       0., 0., 0., 0., 0., 0., 0., 0., 0., 0., 0., 0., 0., 0., 0., 0.,
       0., 0., 0., 0., 0., 0., 0., 0., 0., 0., 0., 0., 0., 0., 0., 0.,
       0., 0., 0., 0., 0., 0., 0., 0., 0., 0., 0., 0., 0., 0., 0., 0.,
       0., 0., 0., 0., 0., 0., 0., 0., 0., 0., 0., 0., 0., 0., 0., 0.,
       0., 0., 0., 0., 0., 0., 0., 0., 0., 0., 0., 0., 0., 0., 0., 0.,
       0., 0., 0., 0., 0., 0., 0., 0., 0., 0., 0., 0., 0., 0., 0., 0.,
       0., 0., 0., 0., 0., 0., 0., 0., 0., 0., 0., 0., 0., 0., 0., 0.,
       0., 0., 0., 0., 0., 0., 0., 0., 0., 0., 0., 0., 0., 0., 0., 0.,
       0., 0., 0., 0., 0., 0., 0., 0., 0., 0., 0., 0., 0., 0., 0., 0.,
       0., 0., 0., 0., 0., 0., 0., 0., 0., 0., 0., 0., 0., 0., 0., 0.,
       0., 0., 0., 0., 0., 0., 0., 0., 0., 0., 0., 0., 0., 0., 0., 0.,
       0., 0., 0., 0., 0., 0., 0., 0., 0., 0., 0., 0., 0., 0., 0., 0.,
       0., 0., 0., 0., 0., 0., 0., 0., 0., 0., 0., 0., 0., 0., 0., 0.,
       0., 0., 0., 0., 0., 0., 0., 0., 0., 0., 0., 0., 0., 0., 0., 0.,
       0., 0., 0., 0., 0., 0., 0., 0., 0., 0., 0., 0., 0., 0., 0., 0.,
       0., 0., 0., 0., 0., 0., 0., 0., 0., 0., 0., 0., 0., 0., 0., 0.,
       0., 0., 0., 0., 0., 0., 0., 0., 0., 0., 0., 0., 0., 0., 0., 0.,
       0., 0., 0., 0., 0., 0., 0., 0., 0., 0., 0., 0., 0., 0., 0., 0.,
       0., 0., 0., 0., 0., 0., 0., 0., 0., 0., 0., 0., 0., 0., 0., 0.,
       0., 0., 0., 0., 0., 0., 0., 0., 0., 0., 0., 0., 0., 0., 0., 0.,
       0., 0., 0., 0., 0., 0., 0., 0., 0., 0., 0., 0., 0., 0., 0., 0.,
       0., 0., 0., 0., 0., 0., 0., 0., 0., 0., 0., 0., 0., 0., 0., 0.,
       0., 0., 0., 0., 0., 0., 0., 0., 0., 0., 0., 0., 0., 0., 0., 0.,
       0., 0., 0., 0., 0., 0., 0., 0., 0., 0., 0., 0., 0., 0., 0., 0.,
       0., 0., 0., 0., 0., 0., 0., 0., 0., 0., 0., 0., 0., 0., 0., 0.,
       0., 0., 0., 0., 0., 0., 0., 0., 0., 0., 0., 0., 0., 0., 0., 0.,
       0., 0., 0., 0., 0., 0., 0., 0., 0., 0., 0., 0., 0., 0., 0., 0.,
       0., 0., 0., 0., 0., 0., 0., 0., 0., 0., 0., 0., 0., 0., 0., 0.,
       0., 0., 0., 0., 0., 0., 0., 0., 0., 0., 0., 0., 0., 0., 0., 0.,
       0., 0., 0., 0., 0., 0., 0., 0., 0., 0., 0., 0., 0., 0., 0., 0.,
       0., 0., 0., 0., 0., 0., 0., 0., 0., 0., 0., 0., 0., 0., 0., 0.,
       0., 0., 0., 0., 0., 0., 0., 0., 0., 0., 0., 0., 0., 0., 0., 0.,
       0., 0., 0., 0., 0., 0., 0., 0., 0., 0., 0., 0., 0., 0., 0., 0.,
       0., 0., 0., 0., 0., 0., 0., 0., 0., 0., 0., 0., 0., 0., 0., 0.,
       0., 0., 0., 0., 0., 0., 0., 0., 0., 0., 0., 0., 0., 0., 0., 0.,
       0., 0., 0., 0., 0., 0., 0., 0., 0., 0., 0., 0., 0., 0., 0., 0.,
       0., 0., 0., 0., 0., 0., 0., 0., 0., 0., 0., 0., 0., 0., 0., 0.,
       0., 0., 0., 0., 0., 0., 0., 0., 0., 0., 0., 0., 0., 0., 0., 0.,
       0., 0., 0., 0., 0., 0., 0., 0., 0., 0., 0., 0., 0., 0., 0., 0.,
       0., 0., 0., 0., 0., 0., 0., 0., 0., 0., 0., 0., 0., 0., 0., 0.,
       0., 0., 0., 0., 0., 0., 0., 0., 0., 0., 0., 0., 0., 0., 0., 0.,
       0., 0., 0., 0., 0., 0., 0., 0., 0., 0., 0., 0., 0., 0., 0., 0.,
       0., 0., 0., 0., 0., 0., 0., 0., 0., 0., 0., 0., 0., 0., 0., 0.,
       0., 0., 0., 0., 0., 0., 0., 0., 0., 0., 0., 0., 0., 0., 0., 0.,
       0., 0., 0., 0., 0., 0., 0., 0., 0., 0., 0., 0., 0., 0., 0., 0.,
       0., 0., 0., 0., 0., 0., 0., 0., 0., 0., 0., 0., 0., 0., 0., 0.,
       0., 0., 0., 0., 0., 0., 0., 0., 0., 0., 0., 0., 0., 0., 0., 0.,
       0., 0., 0., 0., 0., 0., 0., 0., 0., 0., 0., 0., 0., 0., 0., 0.,
       0., 0., 0., 0., 0., 0., 0., 0., 0., 0., 0., 0., 0., 0., 0., 0.,
       0., 0., 0., 0., 0., 0., 0., 0., 0., 0., 0., 0., 0., 0., 0., 0.,
       0., 0., 0., 0., 0., 0., 0., 0., 0., 0., 0., 0., 0., 0., 0., 0.,
       0., 0., 0., 0., 0., 0., 0., 0., 0., 0., 0., 0., 0., 0., 0., 0.,
       0., 0., 0., 0., 0., 0., 0., 0., 0., 0., 0., 0., 0., 0., 0., 0.,
       0., 0., 0., 0., 0., 0., 0., 0., 0., 0., 0., 0., 0., 0., 0., 0.,
       0., 0., 0., 0., 0., 0., 0., 0., 0., 0., 0., 0., 0., 0., 0., 0.,
       0., 0., 0., 0., 0., 0., 0., 0., 0., 0., 0., 0., 0., 0., 0., 0.,
       0., 0., 0., 0., 0., 0., 0., 0., 0., 0., 0., 0., 0., 0., 0., 0.,
       0., 0., 0., 0., 0., 0., 0., 0., 0., 0., 0., 0., 0., 0., 0., 0.,
       0., 0., 0., 0., 0., 0., 0., 0., 0., 0., 0., 0., 0., 0., 0., 0.,
       0., 0., 0., 0., 0., 0., 0., 0., 0., 0., 0., 0., 0., 0., 0., 0.,
       0., 0., 0., 0., 0., 0., 0., 0., 0., 0., 0., 0., 0., 0., 0., 0.,
       0., 0., 0., 0., 0., 0., 0., 0., 0., 0., 0., 0., 0., 0., 0., 0.,
       0., 0., 0., 0., 0., 0., 0., 0., 0., 0., 0., 0., 0., 0., 0., 0.,
       0., 0., 0., 0., 0., 0., 0., 0., 0., 0., 0., 0., 0., 0., 0., 0.,
       0., 0., 0., 0., 0., 0., 0., 0., 0., 0., 0., 0., 0., 0., 0., 0.,
       0., 0., 0., 0., 0., 0., 0., 0., 0., 0., 0., 0., 0., 0., 0., 0.,
       0., 0., 0., 0., 0., 0., 0., 0. ]
   oob_error: 8.2089552238805971e-02
   var_importance: [ 5.68063464e-04, 5.66600298e-04, 5.66722243e-04,
       5.67088020e-04, 5.67819632e-04, 5.66356466e-04, 5.67697687e-04,
       5.66966133e-04, 5.65990689e-04, 5.66356466e-04, 5.66844188e-04,
       5.66356466e-04, 5.66600298e-04, 5.67575742e-04, 5.66112634e-04,
       5.67088020e-04, 5.66844188e-04, 5.66722243e-04, 5.67088020e-04,
       5.67209965e-04, 5.66478411e-04, 5.66600298e-04, 5.66478411e-04,
       5.66844188e-04, 5.67453797e-04, 5.66600298e-04, 5.68063464e-04,
       5.66234521e-04, 5.66966133e-04, 5.66356466e-04, 5.66722243e-04,
       5.66600298e-04, 5.66722243e-04, 5.66356466e-04, 5.66478411e-04,
       5.66234521e-04, 5.66966133e-04, 5.66722243e-04, 5.66600298e-04,
       5.66478411e-04, 5.66478411e-04, 5.67331910e-04, 5.66356466e-04,
       5.68185409e-04, 5.66600298e-04, 5.66966133e-04, 5.66478411e-04,
       5.66356466e-04, 5.66478411e-04, 5.66722243e-04, 5.66722243e-04,
       5.67941519e-04, 5.67209965e-04, 5.66600298e-04, 5.66478411e-04,
       5.67331910e-04, 5.67209965e-04, 5.66478411e-04, 5.66966133e-04,
       5.66966133e-04, 5.66356466e-04, 5.66966133e-04, 5.66722243e-04,
       5.66966133e-04, 5.66356466e-04, 5.66478411e-04, 5.66600298e-04,
       5.67819632e-04, 5.66478411e-04, 5.67453797e-04, 5.66600298e-04,
       5.66478411e-04, 5.66478411e-04, 5.66600298e-04, 5.66478411e-04,
       5.66478411e-04, 5.66356466e-04, 5.66600298e-04, 5.67819632e-04,
       5.67575742e-04, 5.66844188e-04, 5.66478411e-04, 5.66844188e-04,
       5.66356466e-04, 5.66234521e-04, 5.67209965e-04, 5.67819632e-04,
       5.66722243e-04, 5.66356466e-04, 5.66600298e-04, 5.66722243e-04,
       5.66966133e-04, 5.66478411e-04, 5.66844188e-04, 5.66356466e-04,
       5.66722243e-04, 5.67088020e-04, 5.66234521e-04, 5.66600298e-04,
       5.66478411e-04, 5.66722243e-04, 5.67453797e-04, 5.66600298e-04,
       5.66722243e-04, 5.66600298e-04, 5.66478411e-04, 5.66844188e-04,
       5.66722243e-04, 5.66600298e-04, 5.66966133e-04, 5.66844188e-04,
       5.67331910e-04, 5.68307296e-04, 5.66844188e-04, 5.66966133e-04,
       5.66722243e-04, 5.66844188e-04, 5.67575742e-04, 5.66478411e-04,
       5.68916963e-04, 5.68307296e-04, 5.68185409e-04, 5.67453797e-04,
       5.67088020e-04, 5.66722243e-04, 5.69404685e-04, 5.66478411e-04,
       5.66722243e-04, 5.66600298e-04, 5.68063464e-04, 5.66478411e-04,
       5.66600298e-04, 5.67819632e-04, 5.67331910e-04, 5.66722243e-04,
       5.66722243e-04, 5.67941519e-04, 5.67453797e-04, 5.67088020e-04,
       5.67209965e-04, 5.66600298e-04, 5.66966133e-04, 5.66478411e-04,
       5.68185409e-04, 5.66478411e-04, 5.66356466e-04, 5.67453797e-04,
       5.65624912e-04, 5.67453797e-04, 5.66844188e-04, 5.66478411e-04,
       5.66966133e-04, 5.66478411e-04, 5.66600298e-04, 5.66600298e-04,
       5.67209965e-04, 5.67697687e-04, 5.66722243e-04, 5.66600298e-04,
       5.66234521e-04, 5.66722243e-04, 5.66600298e-04, 5.66844188e-04,
       5.68307296e-04, 5.67453797e-04, 5.68916963e-04, 5.66722243e-04,
       5.66600298e-04, 5.66722243e-04, 5.66478411e-04, 5.67697687e-04,
       5.66356466e-04, 5.66478411e-04, 5.66966133e-04, 5.66722243e-04,
       5.67088020e-04, 5.66478411e-04, 5.66478411e-04, 5.66844188e-04,
       5.66966133e-04, 5.66722243e-04, 5.67453797e-04, 5.66966133e-04,
       5.66356466e-04, 5.66478411e-04, 5.67819632e-04, 5.66600298e-04,
       5.66600298e-04, 5.67088020e-04, 5.66478411e-04, 5.67331910e-04,
       5.66600298e-04, 5.66478411e-04, 5.66478411e-04, 5.66600298e-04,
       5.66600298e-04, 5.68307296e-04, 5.66478411e-04, 5.66600298e-04,
       5.67209965e-04, 5.66600298e-04, 5.65990689e-04, 5.67331910e-04,
       5.66722243e-04, 5.66478411e-04, 5.66722243e-04, 5.66478411e-04,
       5.66478411e-04, 5.66722243e-04, 5.67575742e-04, 5.68307296e-04,
       5.66234521e-04, 5.66600298e-04, 5.66356466e-04, 5.66966133e-04,
       5.66478411e-04, 5.66478411e-04, 5.66966133e-04, 5.66966133e-04,
       5.66600298e-04, 5.66966133e-04, 5.66722243e-04, 5.66356466e-04,
       5.66600298e-04, 5.67331910e-04, 5.66722243e-04, 5.66844188e-04,
       5.67331910e-04, 5.66966133e-04, 5.66600298e-04, 5.66478411e-04,
       5.66844188e-04, 5.66478411e-04, 5.66478411e-04, 5.66600298e-04,
       5.68551186e-04, 5.66112634e-04, 5.66112634e-04, 5.66600298e-04,
       5.66600298e-04, 5.66722243e-04, 5.66478411e-04, 5.66722243e-04,
       5.66478411e-04, 5.66356466e-04, 5.66966133e-04, 5.68551186e-04,
       5.66722243e-04, 5.66478411e-04, 5.66356466e-04, 5.66234521e-04,
       5.66600298e-04, 5.66600298e-04, 5.66722243e-04, 5.66844188e-04,
       5.66478411e-04, 5.66112634e-04, 5.66600298e-04, 5.66478411e-04,
       5.66478411e-04, 5.67088020e-04, 5.66478411e-04, 5.66600298e-04,
       5.66478411e-04, 5.66478411e-04, 5.66844188e-04, 5.66844188e-04,
       5.68063464e-04, 5.66600298e-04, 5.66478411e-04, 5.66478411e-04,
       5.66478411e-04, 5.66356466e-04, 5.66722243e-04, 5.66478411e-04,
       5.67209965e-04, 5.66478411e-04, 5.66844188e-04, 5.66478411e-04,
       5.66478411e-04, 5.67941519e-04, 5.66600298e-04, 5.66356466e-04,
       5.66966133e-04, 5.66600298e-04, 5.66600298e-04, 5.66844188e-04,
       5.67088020e-04, 5.66722243e-04, 5.66844188e-04, 5.68063464e-04,
       5.66478411e-04, 5.66844188e-04, 5.67088020e-04, 5.67209965e-04,
       5.66722243e-04, 5.66722243e-04, 5.66844188e-04, 5.66478411e-04,
       5.66966133e-04, 5.66478411e-04, 5.66844188e-04, 5.66600298e-04,
       5.67331910e-04, 5.66600298e-04, 5.66844188e-04, 5.66966133e-04,
       5.66478411e-04, 5.67331910e-04, 5.66478411e-04, 5.66600298e-04,
       5.66844188e-04, 5.67088020e-04, 5.66722243e-04, 5.66722243e-04,
       5.66600298e-04, 5.66234521e-04, 5.67209965e-04, 5.67209965e-04,
       5.66356466e-04, 5.66478411e-04, 5.66478411e-04, 5.66600298e-04,
       5.66478411e-04, 5.66722243e-04, 5.66478411e-04, 5.66600298e-04,
       5.66478411e-04, 5.67331910e-04, 5.66478411e-04, 5.66844188e-04,
       5.66478411e-04, 5.66478411e-04, 5.67088020e-04, 5.66600298e-04,
       5.66844188e-04, 5.66600298e-04, 5.67697687e-04, 5.66966133e-04,
       5.67697687e-04, 5.66722243e-04, 5.66600298e-04, 5.66722243e-04,
       5.66478411e-04, 5.66844188e-04, 5.66966133e-04, 5.66844188e-04,
       5.66722243e-04, 5.66844188e-04, 5.66600298e-04, 5.66478411e-04,
       5.66478411e-04, 5.66966133e-04, 5.67088020e-04, 5.67453797e-04,
       5.66722243e-04, 5.66356466e-04, 5.66966133e-04, 5.66844188e-04,
       5.66356466e-04, 5.66478411e-04, 5.66478411e-04, 5.66722243e-04,
       5.66722243e-04, 5.66722243e-04, 5.66478411e-04, 5.67088020e-04,
       5.67331910e-04, 5.66478411e-04, 5.68063464e-04, 5.66600298e-04,
       5.66722243e-04, 5.66600298e-04, 5.66966133e-04, 5.66478411e-04,
       5.66478411e-04, 5.66722243e-04, 5.67209965e-04, 5.68307296e-04,
       5.67088020e-04, 5.66356466e-04, 5.66966133e-04, 5.66478411e-04,
       5.66478411e-04, 5.66478411e-04, 5.66600298e-04, 5.66844188e-04,
       5.66722243e-04, 5.66966133e-04, 5.66966133e-04, 5.66356466e-04,
       5.68307296e-04, 5.66478411e-04, 5.66478411e-04, 5.66478411e-04,
       5.67088020e-04, 5.66722243e-04, 5.67331910e-04, 5.66844188e-04,
       5.67453797e-04, 5.66844188e-04, 5.66478411e-04, 5.66844188e-04,
       5.66966133e-04, 5.67453797e-04, 5.67575742e-04, 5.66478411e-04,
       5.66600298e-04, 5.66478411e-04, 5.66722243e-04, 5.66966133e-04,
       5.66966133e-04, 5.66478411e-04, 5.66478411e-04, 5.66844188e-04,
       5.68551186e-04, 5.67331910e-04, 5.66478411e-04, 5.67453797e-04,
       5.66356466e-04, 5.67331910e-04, 5.66478411e-04, 5.66478411e-04,
       5.65990689e-04, 5.67331910e-04, 5.66478411e-04, 5.66356466e-04,
       5.66600298e-04, 5.66722243e-04, 5.66600298e-04, 5.66844188e-04,
       5.66966133e-04, 5.66478411e-04, 5.66722243e-04, 5.66844188e-04,
       5.66722243e-04, 5.66478411e-04, 5.66844188e-04, 5.66600298e-04,
       5.66600298e-04, 5.66478411e-04, 5.66722243e-04, 5.66600298e-04,
       5.67209965e-04, 5.66844188e-04, 5.66478411e-04, 5.66844188e-04,
       5.66600298e-04, 5.66844188e-04, 5.66600298e-04, 5.66966133e-04,
       5.66478411e-04, 5.67453797e-04, 5.67209965e-04, 5.66478411e-04,
       5.66722243e-04, 5.66478411e-04, 5.67088020e-04, 5.67209965e-04,
       5.67453797e-04, 5.67088020e-04, 5.66234521e-04, 5.66234521e-04,
       5.66478411e-04, 5.66478411e-04, 5.66600298e-04, 5.66844188e-04,
       5.66844188e-04, 5.67941519e-04, 5.65868744e-04, 5.67331910e-04,
       5.68185409e-04, 5.66722243e-04, 5.66478411e-04, 5.66478411e-04,
       5.66356466e-04, 5.67209965e-04, 5.66966133e-04, 5.66112634e-04,
       5.70014294e-04, 5.66600298e-04, 5.67088020e-04, 5.66478411e-04,
       5.67088020e-04, 5.66478411e-04, 5.66966133e-04, 5.67697687e-04,
       5.68063464e-04, 5.66234521e-04, 5.67088020e-04, 5.66722243e-04,
       5.67088020e-04, 5.66478411e-04, 5.66844188e-04, 5.68795018e-04,
       5.67088020e-04, 5.66844188e-04, 5.66234521e-04, 5.67088020e-04,
       5.67088020e-04, 5.66478411e-04, 5.67453797e-04, 5.68429241e-04,
       5.66600298e-04, 5.66478411e-04, 5.66966133e-04, 5.66844188e-04,
       5.67697687e-04, 5.69648517e-04, 5.66722243e-04, 5.67453797e-04,
       5.66112634e-04, 5.66722243e-04, 5.66722243e-04, 5.66966133e-04,
       5.67088020e-04, 5.66478411e-04, 5.66600298e-04, 5.66722243e-04,
       5.66722243e-04, 5.66722243e-04, 5.66478411e-04, 5.66966133e-04,
       5.66722243e-04, 5.66600298e-04, 5.67697687e-04, 5.67453797e-04,
       5.66356466e-04, 5.67819632e-04, 5.66966133e-04, 5.66600298e-04,
       5.68673131e-04, 5.66600298e-04, 5.67575742e-04, 5.66356466e-04,
       5.66478411e-04, 5.66600298e-04, 5.66478411e-04, 5.66478411e-04,
       5.66966133e-04, 5.66600298e-04, 5.67088020e-04, 5.66478411e-04,
       5.68795018e-04, 5.66478411e-04, 5.66478411e-04, 5.67088020e-04,
       5.66356466e-04, 5.67819632e-04, 5.66722243e-04, 5.67575742e-04,
       5.66966133e-04, 5.67941519e-04, 5.66478411e-04, 5.66722243e-04,
       5.66478411e-04, 5.66234521e-04, 5.66478411e-04, 5.66478411e-04,
       5.66234521e-04, 5.66844188e-04, 5.66478411e-04, 5.66600298e-04,
       5.66600298e-04, 5.65990689e-04, 5.66356466e-04, 5.66478411e-04,
       5.68795018e-04, 5.66356466e-04, 5.66600298e-04, 5.66844188e-04,
       5.67575742e-04, 5.66600298e-04, 5.66356466e-04, 5.66478411e-04,
       5.66600298e-04, 5.66966133e-04, 5.67453797e-04, 5.67575742e-04,
       5.66478411e-04, 5.67331910e-04, 5.67819632e-04, 5.66478411e-04,
       5.66234521e-04, 5.68551186e-04, 5.66478411e-04, 5.67819632e-04,
       5.66478411e-04, 5.67209965e-04, 5.66356466e-04, 5.66478411e-04,
       5.66722243e-04, 5.66478411e-04, 5.66844188e-04, 5.67088020e-04,
       5.66600298e-04, 5.66722243e-04, 5.66478411e-04, 5.66478411e-04,
       5.66478411e-04, 5.67331910e-04, 5.66478411e-04, 5.66478411e-04,
       5.66600298e-04, 5.66966133e-04, 5.66844188e-04, 5.66722243e-04,
       5.66356466e-04, 5.66600298e-04, 5.66722243e-04, 5.67453797e-04,
       5.66600298e-04, 5.66478411e-04, 5.66600298e-04, 5.67453797e-04,
       5.66844188e-04, 5.66356466e-04, 5.66600298e-04, 5.66234521e-04,
       5.66234521e-04, 5.66478411e-04, 5.67331910e-04, 5.66600298e-04,
       5.66966133e-04, 5.66478411e-04, 5.66600298e-04, 5.66600298e-04,
       5.66478411e-04, 5.66600298e-04, 5.66600298e-04, 5.67941519e-04,
       5.66478411e-04, 5.67331910e-04, 5.67088020e-04, 5.66844188e-04,
       5.67453797e-04, 5.66478411e-04, 5.66478411e-04, 5.66722243e-04,
       5.66478411e-04, 5.66478411e-04, 5.67453797e-04, 5.66478411e-04,
       5.67453797e-04, 5.67819632e-04, 5.66966133e-04, 5.66356466e-04,
       5.68063464e-04, 5.66600298e-04, 5.66600298e-04, 5.66966133e-04,
       5.67209965e-04, 5.67453797e-04, 5.66234521e-04, 5.66356466e-04,
       5.66966133e-04, 5.67575742e-04, 5.67088020e-04, 5.66600298e-04,
       5.66722243e-04, 5.67088020e-04, 5.66600298e-04, 5.66722243e-04,
       5.67088020e-04, 5.66234521e-04, 5.66600298e-04, 5.66600298e-04,
       5.67697687e-04, 5.65868744e-04, 5.66478411e-04, 5.66478411e-04,
       5.66478411e-04, 5.66234521e-04, 5.66234521e-04, 5.66966133e-04,
       5.66478411e-04, 5.66600298e-04, 5.66356466e-04, 5.66966133e-04,
       5.66600298e-04, 5.66478411e-04, 5.66112634e-04, 5.66600298e-04,
       5.66478411e-04, 5.67331910e-04, 5.66478411e-04, 5.67575742e-04,
       5.66478411e-04, 5.66844188e-04, 5.66478411e-04, 5.65990689e-04,
       5.66600298e-04, 5.67453797e-04, 5.67209965e-04, 5.66478411e-04,
       5.67819632e-04, 5.66478411e-04, 5.67331910e-04, 5.65868744e-04,
       5.66234521e-04, 5.66478411e-04, 5.66356466e-04, 5.67331910e-04,
       5.67453797e-04, 5.66478411e-04, 5.69526630e-04, 5.68551186e-04,
       5.66600298e-04, 5.66356466e-04, 5.66844188e-04, 5.69160795e-04,
       5.66478411e-04, 5.66478411e-04, 5.66722243e-04, 5.67453797e-04,
       5.67575742e-04, 5.66478411e-04, 5.66722243e-04, 5.66600298e-04,
       5.66478411e-04, 5.69282740e-04, 5.66600298e-04, 5.67575742e-04,
       5.66844188e-04, 5.66844188e-04, 5.66356466e-04, 5.66112634e-04,
       5.66844188e-04, 5.67453797e-04, 5.67331910e-04, 5.68429241e-04,
       5.66844188e-04, 5.66356466e-04, 5.67697687e-04, 5.66844188e-04,
       5.66600298e-04, 5.67209965e-04, 5.67088020e-04, 5.69282740e-04,
       5.66478411e-04, 5.67575742e-04, 5.66478411e-04, 5.66600298e-04,
       5.66478411e-04, 5.66478411e-04, 5.66600298e-04, 5.68916963e-04,
       5.67697687e-04, 5.66478411e-04, 5.66600298e-04, 5.66478411e-04,
       5.71721292e-04, 5.66722243e-04, 5.66478411e-04, 5.67331910e-04,
       5.67575742e-04, 5.66356466e-04, 5.66478411e-04, 5.66722243e-04,
       5.66966133e-04, 5.69770462e-04, 5.66478411e-04, 5.66600298e-04,
       5.67941519e-04, 5.68673131e-04, 5.66356466e-04, 5.66478411e-04,
       5.66234521e-04, 5.66478411e-04, 5.66478411e-04, 5.66600298e-04,
       5.67088020e-04, 5.66478411e-04, 5.66722243e-04, 5.65746799e-04,
       5.66112634e-04, 5.66478411e-04, 5.66966133e-04, 5.67088020e-04,
       5.67697687e-04, 5.66722243e-04, 5.67088020e-04, 5.67453797e-04,
       5.66966133e-04, 5.66356466e-04, 5.66844188e-04, 5.66478411e-04,
       5.67088020e-04, 5.66722243e-04, 5.66966133e-04, 5.66966133e-04,
       5.67209965e-04, 5.67088020e-04, 5.66844188e-04, 5.66722243e-04,
       5.66722243e-04, 5.67209965e-04, 5.67088020e-04, 5.66478411e-04,
       5.66356466e-04, 5.66478411e-04, 5.66478411e-04, 5.67819632e-04,
       5.66356466e-04, 5.66478411e-04, 5.66356466e-04, 5.66844188e-04,
       5.67209965e-04, 5.66844188e-04, 5.66356466e-04, 5.66478411e-04,
       5.66478411e-04, 5.67209965e-04, 5.66478411e-04, 5.66234521e-04,
       5.66478411e-04, 5.66600298e-04, 5.66478411e-04, 5.67088020e-04,
       5.66600298e-04, 5.67209965e-04, 5.65990689e-04, 5.67819632e-04,
       5.67697687e-04, 5.66356466e-04, 5.67453797e-04, 5.67088020e-04,
       5.66478411e-04, 5.66478411e-04, 5.66722243e-04, 5.66478411e-04,
       5.66478411e-04, 5.66844188e-04, 5.66478411e-04, 5.66478411e-04,
       5.66844188e-04, 5.66478411e-04, 5.66356466e-04, 5.66478411e-04,
       5.67575742e-04, 5.66722243e-04, 5.66478411e-04, 5.65990689e-04,
       5.67088020e-04, 5.66356466e-04, 5.66600298e-04, 5.66234521e-04,
       5.66844188e-04, 5.66234521e-04, 5.66356466e-04, 5.67209965e-04,
       5.66478411e-04, 5.66722243e-04, 5.66966133e-04, 5.66234521e-04,
       5.66478411e-04, 5.66722243e-04, 5.67088020e-04, 5.66722243e-04,
       5.66478411e-04, 5.66356466e-04, 5.66844188e-04, 5.66478411e-04,
       5.66356466e-04, 5.66478411e-04, 5.66966133e-04, 5.66600298e-04,
       5.66478411e-04, 5.68429241e-04, 5.67209965e-04, 5.66844188e-04,
       5.66722243e-04, 5.66356466e-04, 5.67941519e-04, 5.66600298e-04,
       5.66844188e-04, 5.66478411e-04, 5.67453797e-04, 5.66478411e-04,
       5.66966133e-04, 5.66234521e-04, 5.66600298e-04, 5.66478411e-04,
       5.66478411e-04, 5.65746799e-04, 5.66966133e-04, 5.67209965e-04,
       5.66478411e-04, 5.66600298e-04, 5.67088020e-04, 5.66966133e-04,
       5.66478411e-04, 5.67575742e-04, 5.66478411e-04, 5.66478411e-04,
       5.67453797e-04, 5.66966133e-04, 5.66600298e-04, 5.66356466e-04,
       5.66478411e-04, 5.66478411e-04, 5.67209965e-04, 5.66844188e-04,
       5.66966133e-04, 5.67209965e-04, 5.66844188e-04, 5.66478411e-04,
       5.66356466e-04, 5.66600298e-04, 5.66722243e-04, 5.66478411e-04,
       5.66478411e-04, 5.67088020e-04, 5.66478411e-04, 5.67331910e-04,
       5.66722243e-04, 5.66600298e-04, 5.66722243e-04, 5.66722243e-04,
       5.66478411e-04, 5.66356466e-04, 5.66722243e-04, 5.68063464e-04,
       5.67088020e-04, 5.67088020e-04, 5.66844188e-04, 5.66478411e-04,
       5.66356466e-04, 5.66478411e-04, 5.66600298e-04, 5.66600298e-04,
       5.66966133e-04, 5.66844188e-04, 5.66600298e-04, 5.66478411e-04,
       5.66600298e-04, 5.67088020e-04, 5.67088020e-04, 5.67088020e-04,
       5.66478411e-04, 5.66966133e-04, 5.66478411e-04, 5.66356466e-04,
       5.66722243e-04, 5.67331910e-04, 5.66600298e-04, 5.66478411e-04,
       5.66478411e-04, 5.66478411e-04, 5.66722243e-04, 5.66478411e-04,
       5.66600298e-04, 5.65990689e-04, 5.66600298e-04, 5.67088020e-04,
       5.66844188e-04, 5.66600298e-04, 5.66478411e-04, 5.66844188e-04,
       5.66478411e-04, 5.66600298e-04, 5.66722243e-04, 5.67819632e-04,
       5.68063464e-04, 5.66722243e-04, 5.67331910e-04, 5.66966133e-04,
       5.66722243e-04, 5.66844188e-04, 5.66478411e-04, 5.67209965e-04,
       5.67453797e-04, 5.67697687e-04, 5.66722243e-04, 5.67453797e-04,
       5.66356466e-04, 5.66844188e-04, 5.66966133e-04, 5.66478411e-04,
       5.66478411e-04, 5.69526630e-04, 5.68063464e-04, 5.66478411e-04,
       5.66478411e-04, 5.66600298e-04, 5.66966133e-04, 5.66478411e-04,
       5.66478411e-04, 5.66844188e-04, 5.67453797e-04, 5.66600298e-04,
       5.68307296e-04, 5.66722243e-04, 5.66600298e-04, 5.66966133e-04,
       5.66478411e-04, 5.67088020e-04, 5.67453797e-04, 5.66966133e-04,
       5.67088020e-04, 5.66722243e-04, 5.66966133e-04, 5.66844188e-04,
       5.66722243e-04, 5.66966133e-04, 5.66600298e-04, 5.67697687e-04,
       5.67819632e-04, 5.66844188e-04, 5.66478411e-04, 5.66600298e-04,
       5.67331910e-04, 5.68429241e-04, 5.69282740e-04, 5.66600298e-04,
       5.66356466e-04, 5.67088020e-04, 5.68429241e-04, 5.66356466e-04,
       5.66356466e-04, 5.66600298e-04, 5.67453797e-04, 5.67453797e-04,
       5.67331910e-04, 5.66600298e-04, 5.67331910e-04, 5.66600298e-04,
       5.65868744e-04, 5.66844188e-04, 5.66844188e-04, 5.69160795e-04,
       5.70014294e-04, 5.66600298e-04, 5.66722243e-04, 5.67453797e-04,
       5.66844188e-04, 5.66478411e-04, 5.66356466e-04, 5.67331910e-04,
       5.66478411e-04, 5.67331910e-04, 5.67331910e-04, 5.66722243e-04,
       5.67819632e-04, 5.66478411e-04, 5.66844188e-04, 5.66478411e-04,
       5.66844188e-04, 5.67575742e-04, 5.66478411e-04, 5.66600298e-04,
       5.66966133e-04, 5.66844188e-04, 5.67697687e-04, 5.68063464e-04,
       5.70014294e-04, 5.66722243e-04, 5.66966133e-04, 5.66356466e-04,
       5.66478411e-04, 5.66478411e-04, 5.66600298e-04, 5.66722243e-04,
       5.66234521e-04, 5.66722243e-04, 5.67697687e-04, 5.66478411e-04,
       5.67209965e-04, 5.67575742e-04, 5.67209965e-04, 5.66600298e-04,
       5.66356466e-04, 5.66600298e-04, 5.67088020e-04, 5.68551186e-04,
       5.66478411e-04, 5.67209965e-04, 5.66600298e-04, 5.66478411e-04,
       5.67209965e-04, 5.66600298e-04, 5.66966133e-04, 5.67697687e-04,
       5.67331910e-04, 5.66600298e-04, 5.66478411e-04, 5.66478411e-04,
       5.66600298e-04, 5.66478411e-04, 5.66356466e-04, 5.66478411e-04,
       5.66600298e-04, 5.66966133e-04, 5.66600298e-04, 5.66722243e-04,
       5.66722243e-04, 5.66600298e-04, 5.67453797e-04, 5.67088020e-04,
       5.66356466e-04, 5.66234521e-04, 5.66722243e-04, 5.66966133e-04,
       5.67697687e-04, 5.67209965e-04, 5.67331910e-04, 5.66478411e-04,
       5.66356466e-04, 5.66234521e-04, 5.66966133e-04, 5.66600298e-04,
       5.66600298e-04, 5.66478411e-04, 5.67209965e-04, 5.67453797e-04,
       5.66600298e-04, 5.66478411e-04, 5.67088020e-04, 5.66600298e-04,
       5.66844188e-04, 5.66600298e-04, 5.65990689e-04, 5.66478411e-04,
       5.66112634e-04, 5.67088020e-04, 5.66478411e-04, 5.66722243e-04,
       5.66722243e-04, 5.66478411e-04, 5.67453797e-04, 5.67453797e-04,
       5.66600298e-04, 5.66722243e-04, 5.67331910e-04, 5.66600298e-04,
       5.66356466e-04, 5.67088020e-04, 5.65868744e-04, 5.66478411e-04,
       5.66478411e-04, 5.66722243e-04, 5.66600298e-04, 5.68307296e-04,
       5.66356466e-04, 5.66966133e-04, 5.66722243e-04, 5.66966133e-04,
       5.66478411e-04, 5.66478411e-04, 5.66966133e-04, 5.67209965e-04,
       5.66478411e-04, 5.67088020e-04, 5.68063464e-04, 5.66478411e-04,
       5.67209965e-04, 5.68673131e-04, 5.66478411e-04, 5.66356466e-04,
       5.67331910e-04, 5.66722243e-04, 5.66478411e-04, 5.66600298e-04,
       5.67331910e-04, 5.68185409e-04, 5.67209965e-04, 5.66600298e-04,
       5.66722243e-04, 5.67453797e-04, 5.66600298e-04, 5.67209965e-04,
       5.66478411e-04, 5.66966133e-04, 5.66722243e-04, 5.66600298e-04,
       5.67088020e-04, 5.66356466e-04, 5.66356466e-04, 5.67575742e-04,
       5.66600298e-04, 5.66600298e-04, 5.66966133e-04, 5.66966133e-04,
       5.66478411e-04, 5.66356466e-04, 5.66600298e-04, 5.66844188e-04,
       5.66844188e-04, 5.66844188e-04, 5.66478411e-04, 5.66844188e-04,
       5.66722243e-04, 5.66356466e-04, 5.66600298e-04, 5.66112634e-04,
       5.66966133e-04, 5.66478411e-04, 5.66478411e-04, 5.66478411e-04,
       5.67697687e-04, 5.66600298e-04, 5.66478411e-04, 5.66966133e-04,
       5.66600298e-04, 5.67331910e-04, 5.66844188e-04, 5.66478411e-04,
       5.66844188e-04, 5.66844188e-04, 5.66478411e-04, 5.66600298e-04,
       5.66722243e-04, 5.66478411e-04, 5.67819632e-04, 5.66844188e-04,
       5.66478411e-04, 5.66478411e-04, 5.66722243e-04, 5.66112634e-04,
       5.66478411e-04, 5.66600298e-04, 5.66722243e-04, 5.66478411e-04,
       5.66356466e-04, 5.67453797e-04, 5.67209965e-04, 5.67331910e-04,
       5.66234521e-04, 5.67209965e-04, 5.68185409e-04, 5.66722243e-04,
       5.70380071e-04, 5.67331910e-04, 5.66600298e-04, 5.67209965e-04,
       5.67088020e-04, 5.67209965e-04, 5.67575742e-04, 5.68185409e-04,
       5.66966133e-04, 5.67088020e-04, 5.69648517e-04, 5.68063464e-04,
       5.67331910e-04, 5.66722243e-04, 5.67088020e-04, 5.66478411e-04,
       5.66600298e-04, 5.66478411e-04, 5.66600298e-04, 5.66966133e-04,
       5.69648517e-04, 5.67209965e-04, 5.67088020e-04, 5.66600298e-04,
       5.67575742e-04, 5.66844188e-04, 5.67331910e-04, 5.66966133e-04,
       5.67819632e-04, 5.66478411e-04, 5.66722243e-04, 5.67331910e-04,
       5.66478411e-04, 5.66722243e-04, 5.66722243e-04, 5.67819632e-04,
       5.66478411e-04, 5.66600298e-04, 5.66722243e-04, 5.66478411e-04,
       5.66356466e-04, 5.66844188e-04, 5.66600298e-04, 5.69892407e-04,
       5.66844188e-04, 5.66966133e-04, 5.67819632e-04, 5.67941519e-04,
       5.66600298e-04, 5.66844188e-04, 5.66478411e-04, 5.67209965e-04,
       5.66966133e-04, 5.66600298e-04, 5.66478411e-04, 5.66600298e-04,
       5.66112634e-04, 5.66478411e-04, 5.66478411e-04, 5.66478411e-04,
       5.66722243e-04, 5.69526630e-04, 5.66478411e-04, 5.66356466e-04,
       5.66600298e-04, 5.66966133e-04, 5.66356466e-04, 5.66478411e-04,
       5.66478411e-04, 5.66112634e-04, 5.66356466e-04, 5.66600298e-04,
       5.67331910e-04, 5.67575742e-04, 5.67088020e-04, 5.66478411e-04,
       5.66600298e-04, 5.66234521e-04, 5.66966133e-04, 5.68307296e-04,
       5.67331910e-04, 5.67453797e-04, 5.69282740e-04, 5.66722243e-04,
       5.66478411e-04, 5.66478411e-04, 5.67209965e-04, 5.68063464e-04,
       5.66722243e-04, 5.66966133e-04, 5.66844188e-04, 5.67453797e-04,
       5.66722243e-04, 5.66478411e-04, 5.66112634e-04, 5.66478411e-04,
       5.68673131e-04, 5.67331910e-04, 5.66844188e-04, 5.67209965e-04,
       5.66600298e-04, 5.67453797e-04, 5.66478411e-04, 5.66478411e-04,
       5.66844188e-04, 5.66844188e-04, 5.67819632e-04, 5.67331910e-04,
       5.67088020e-04, 5.67575742e-04, 5.66234521e-04, 5.66356466e-04,
       5.66356466e-04, 5.66478411e-04, 5.66356466e-04, 5.66600298e-04,
       5.67088020e-04, 5.66600298e-04, 5.67088020e-04, 5.66356466e-04,
       5.66966133e-04, 5.66600298e-04, 5.66478411e-04, 5.66966133e-04,
       5.67941519e-04, 5.67697687e-04, 5.66722243e-04, 5.66478411e-04,
       5.66600298e-04, 5.66356466e-04, 5.66478411e-04, 5.67088020e-04,
       5.66844188e-04, 5.66478411e-04, 5.66600298e-04, 5.67331910e-04,
       5.66844188e-04, 5.66844188e-04, 5.66356466e-04, 5.66478411e-04,
       5.66600298e-04, 5.66478411e-04, 5.66234521e-04, 5.66478411e-04,
       5.67209965e-04, 5.68063464e-04, 5.67209965e-04, 5.67209965e-04,
       5.66722243e-04, 5.66844188e-04, 5.66844188e-04, 5.66600298e-04,
       5.66600298e-04, 5.66478411e-04, 5.66478411e-04, 5.66478411e-04,
       5.66478411e-04, 5.66356466e-04, 5.66844188e-04, 5.67088020e-04,
       5.66966133e-04, 5.67453797e-04, 5.66844188e-04, 5.67088020e-04,
       5.67209965e-04, 5.66966133e-04, 5.67453797e-04, 5.66966133e-04,
       5.67453797e-04, 5.66356466e-04, 5.66234521e-04, 5.66478411e-04,
       5.66844188e-04, 5.67453797e-04, 5.66600298e-04, 5.66356466e-04,
       5.67088020e-04, 5.67209965e-04, 5.67209965e-04, 5.66356466e-04,
       5.66478411e-04, 5.70867793e-04, 5.66478411e-04, 5.67453797e-04,
       5.66600298e-04, 5.66478411e-04, 5.66600298e-04, 5.66600298e-04,
       5.67209965e-04, 5.66478411e-04, 5.66478411e-04, 5.66722243e-04,
       5.66600298e-04, 5.66478411e-04, 5.66966133e-04, 5.66234521e-04,
       5.66478411e-04, 5.66478411e-04, 5.68063464e-04, 5.66844188e-04,
       5.66844188e-04, 5.66478411e-04, 5.67209965e-04, 5.66478411e-04,
       5.67209965e-04, 5.67697687e-04, 5.66478411e-04, 5.66600298e-04,
       5.67453797e-04, 5.69160795e-04, 5.66478411e-04, 5.66722243e-04,
       5.66844188e-04, 5.66600298e-04, 5.66478411e-04, 5.67331910e-04,
       5.69404685e-04, 5.66844188e-04, 5.66722243e-04, 5.66356466e-04,
       5.66966133e-04, 5.67819632e-04, 5.66722243e-04, 5.67453797e-04,
       5.66722243e-04, 5.66844188e-04, 5.67697687e-04, 5.68185409e-04,
       5.66478411e-04, 5.66722243e-04, 5.66722243e-04, 5.65990689e-04,
       5.66600298e-04, 5.66722243e-04, 5.66478411e-04, 5.67088020e-04,
       5.66844188e-04, 5.66722243e-04, 5.67331910e-04, 5.66478411e-04,
       5.66722243e-04, 5.66966133e-04, 5.66600298e-04, 5.66844188e-04,
       5.66600298e-04, 5.66600298e-04, 5.66356466e-04, 5.67453797e-04,
       5.66478411e-04, 5.66478411e-04, 5.66478411e-04, 5.66234521e-04,
       5.68795018e-04, 5.68429241e-04, 5.66600298e-04, 5.67331910e-04,
       5.66356466e-04, 5.66478411e-04, 5.66478411e-04, 5.67575742e-04,
       5.66478411e-04, 5.66844188e-04, 5.67088020e-04, 5.66844188e-04,
       5.66600298e-04, 5.66966133e-04, 5.66356466e-04, 5.66356466e-04,
       5.66356466e-04, 5.66722243e-04, 5.66478411e-04, 5.68185409e-04,
       5.66356466e-04, 5.65990689e-04, 5.67209965e-04, 5.66478411e-04,
       5.66844188e-04, 5.66478411e-04, 5.66844188e-04, 5.66600298e-04,
       5.67331910e-04, 5.67088020e-04, 5.66844188e-04, 5.67819632e-04,
       5.66356466e-04, 5.66478411e-04, 5.66112634e-04, 5.67331910e-04,
       5.67819632e-04, 5.66112634e-04, 5.66356466e-04, 5.66600298e-04,
       5.66356466e-04, 5.66478411e-04, 5.66356466e-04, 5.66600298e-04,
       5.66478411e-04, 5.66966133e-04, 5.67453797e-04, 5.66844188e-04,
       5.67819632e-04, 5.70380071e-04, 5.66478411e-04, 5.69892407e-04,
       5.66112634e-04, 5.66844188e-04, 5.65381022e-04, 5.67453797e-04,
       5.66478411e-04, 5.66478411e-04, 5.66478411e-04, 5.66722243e-04,
       5.67088020e-04, 5.66356466e-04, 5.66478411e-04, 5.66722243e-04,
       5.66722243e-04, 5.66844188e-04, 5.66234521e-04, 5.67453797e-04,
       5.66600298e-04, 5.66600298e-04, 5.67331910e-04, 5.66844188e-04,
       5.68673131e-04, 5.67941519e-04, 5.67453797e-04, 5.66478411e-04,
       5.67088020e-04, 5.70380071e-04, 5.66600298e-04, 5.66966133e-04,
       5.67575742e-04, 5.66722243e-04, 5.66478411e-04, 5.66478411e-04,
       5.67941519e-04, 5.67575742e-04, 5.67088020e-04, 5.68307296e-04,
       5.66478411e-04, 5.67819632e-04, 5.66600298e-04, 5.67575742e-04,
       5.66844188e-04, 5.67209965e-04, 5.67819632e-04, 5.66722243e-04,
       5.66844188e-04, 5.66722243e-04, 5.66844188e-04, 5.66844188e-04,
       5.66600298e-04, 5.67209965e-04, 5.66722243e-04, 5.67088020e-04,
       5.66478411e-04, 5.67575742e-04, 5.66966133e-04, 5.68673131e-04,
       5.67331910e-04, 5.66844188e-04, 5.68916963e-04, 5.66234521e-04,
       5.66966133e-04, 5.66478411e-04, 5.67453797e-04, 5.67819632e-04,
       5.67088020e-04, 5.66722243e-04, 5.66234521e-04, 5.66966133e-04,
       5.66478411e-04, 5.67209965e-04, 5.69282740e-04, 5.67575742e-04,
       5.66478411e-04, 5.66356466e-04, 5.66600298e-04, 5.67331910e-04,
       5.69038908e-04, 5.66844188e-04, 5.69892407e-04, 5.68551186e-04,
       5.67697687e-04, 5.66844188e-04, 5.66844188e-04, 5.67209965e-04,
       5.67575742e-04, 5.67331910e-04, 5.66478411e-04, 5.66478411e-04,
       5.66356466e-04, 5.66478411e-04, 5.66966133e-04, 5.66478411e-04,
       5.67209965e-04, 5.69648517e-04, 5.66844188e-04, 5.66478411e-04,
       5.68063464e-04, 5.67088020e-04, 5.66722243e-04, 5.66234521e-04,
       5.66844188e-04, 5.66478411e-04, 5.67088020e-04, 5.67697687e-04,
       5.66478411e-04, 5.67088020e-04, 5.66844188e-04, 5.66966133e-04,
       5.66356466e-04, 5.66600298e-04, 5.67575742e-04, 5.66966133e-04,
       5.69770462e-04, 5.66234521e-04, 5.66844188e-04, 5.67209965e-04,
       5.66600298e-04, 5.67575742e-04, 5.66478411e-04, 5.66722243e-04,
       5.67697687e-04, 5.67453797e-04, 5.66600298e-04, 5.67088020e-04,
       5.67331910e-04, 5.67697687e-04, 5.66966133e-04, 5.66234521e-04,
       5.67209965e-04, 5.66478411e-04, 5.67331910e-04, 5.66478411e-04,
       5.66478411e-04, 5.67697687e-04, 5.66478411e-04, 5.66722243e-04,
       5.67088020e-04, 5.66356466e-04, 5.66478411e-04, 5.66600298e-04,
       5.66722243e-04, 5.66478411e-04, 5.66478411e-04, 5.67331910e-04,
       5.66478411e-04, 5.66966133e-04, 5.66600298e-04, 5.66600298e-04,
       5.67209965e-04, 5.66478411e-04, 5.66478411e-04, 5.66722243e-04,
       5.66966133e-04, 5.66478411e-04, 5.66478411e-04, 5.66722243e-04,
       5.67697687e-04, 5.67575742e-04, 5.67088020e-04, 5.68185409e-04,
       5.69404685e-04, 5.67941519e-04, 5.66356466e-04, 5.67575742e-04,
       5.66478411e-04, 5.68307296e-04, 5.66966133e-04, 5.66356466e-04,
       5.66600298e-04, 5.66112634e-04, 5.66844188e-04, 5.66478411e-04,
       5.66478411e-04, 5.66478411e-04, 5.66356466e-04, 5.66722243e-04,
       5.67331910e-04, 5.67575742e-04, 5.66478411e-04, 5.66722243e-04,
       5.66844188e-04, 5.66234521e-04, 5.66722243e-04, 5.66966133e-04,
       5.67453797e-04, 5.66478411e-04, 5.66966133e-04, 5.67453797e-04,
       5.66478411e-04, 5.67088020e-04, 5.66600298e-04, 5.66478411e-04,
       5.66722243e-04, 5.67453797e-04, 5.66478411e-04, 5.66234521e-04,
       5.66600298e-04, 5.66478411e-04, 5.66722243e-04, 5.67088020e-04,
       5.66478411e-04, 5.66966133e-04, 5.66478411e-04, 5.66600298e-04,
       5.66844188e-04, 5.66478411e-04, 5.66722243e-04, 5.67088020e-04,
       5.66112634e-04, 5.66600298e-04, 5.66844188e-04, 5.68185409e-04,
       5.66478411e-04, 5.67331910e-04, 5.67088020e-04, 5.66844188e-04,
       5.67331910e-04, 5.67088020e-04, 5.67088020e-04, 5.66722243e-04,
       5.66478411e-04, 5.66966133e-04, 5.66722243e-04, 5.66966133e-04,
       5.66478411e-04, 5.67209965e-04, 5.67819632e-04, 5.66478411e-04,
       5.66478411e-04 ]
   ntrees: 100
   trees:
      -
         nodes:
            -
               depth: 0
               value: 5.
               norm_class_idx: 5
               splits:
                  - { var:0, quality:9.1235939025878906e+01,
                      le:1.2836284935474396e-02 }
            -
               depth: 1
               value: 4.
               norm_class_idx: 4
               splits:
                  - { var:73, quality:3.1333333969116211e+01,
                      le:7.5732409954071045e-02 }
            -
               depth: 2
               value: 4.
               norm_class_idx: 4
               splits:
                  - { var:132, quality:1.2458333015441895e+01,
                      le:7.6609723269939423e-02 }
            -
               depth: 3
               value: 4.
               norm_class_idx: 4
               splits:
                  - { var:998, quality:1.4166666984558105e+01,
                      le:8.2411512732505798e-02 }
            -
               depth: 4
               value: 4.
               norm_class_idx: 4
               splits:
                  - { var:998, quality:12., le:8.7010180577635765e-03 }
            -
               depth: 5
               value: 0.
               norm_class_idx: 0
            -
               depth: 5
               value: 4.
               norm_class_idx: 4
            -
               depth: 4
               value: 5.
               norm_class_idx: 5
            -
               depth: 3
               value: 5.
               norm_class_idx: 5
               splits:
                  - { var:1542, quality:6.4444446563720703e+00,
                      le:9.0261973440647125e-02 }
            -
               depth: 4
               value: 5.
               norm_class_idx: 5
            -
               depth: 4
               value: 3.
               norm_class_idx: 3
            -
               depth: 2
               value: 4.
               norm_class_idx: 4
               splits:
                  - { var:805, quality:2.9858585357666016e+01,
                      le:1.6941286623477936e-01 }
            -
               depth: 3
               value: 1.
               norm_class_idx: 1
            -
               depth: 3
               value: 4.
               norm_class_idx: 4
               splits:
                  - { var:1464, quality:2.7133333206176758e+01,
                      le:5.3320646286010742e-02 }
            -
               depth: 4
               value: 4.
               norm_class_idx: 4
               splits:
                  - { var:528, quality:15., le:9.5424525439739227e-02 }
            -
               depth: 5
               value: 4.
               norm_class_idx: 4
            -
               depth: 5
               value: 0.
               norm_class_idx: 0
            -
               depth: 4
               value: 4.
               norm_class_idx: 4
            -
               depth: 1
               value: 5.
               norm_class_idx: 5
               splits:
                  - { var:501, quality:7.3652526855468750e+01,
                      le:3.0525833368301392e-01 }
            -
               depth: 2
               value: 5.
               norm_class_idx: 5
               splits:
                  - { var:525, quality:6.5137161254882813e+01,
                      le:1.5571066737174988e-01 }
            -
               depth: 3
               value: 5.
               norm_class_idx: 5
               splits:
                  - { var:949, quality:6.2417129516601563e+01,
                      le:4.3426841497421265e-02 }
            -
               depth: 4
               value: 3.
               norm_class_idx: 3
               splits:
                  - { var:1009, quality:1.5470588684082031e+01,
                      le:6.2218578532338142e-03 }
            -
               depth: 5
               value: 1.
               norm_class_idx: 1
            -
               depth: 5
               value: 3.
               norm_class_idx: 3
               splits:
                  - { var:1076, quality:1.5125000000000000e+01,
                      le:2.6787748932838440e-01 }
            -
               depth: 6
               value: 3.
               norm_class_idx: 3
               splits:
                  - { var:730, quality:1.4666666984558105e+01,
                      le:1.2049270793795586e-02 }
            -
               depth: 7
               value: 3.
               norm_class_idx: 3
            -
               depth: 7
               value: 3.
               norm_class_idx: 3
            -
               depth: 6
               value: 1.
               norm_class_idx: 1
            -
               depth: 4
               value: 5.
               norm_class_idx: 5
               splits:
                  - { var:937, quality:5.8153614044189453e+01,
                      le:9.9465444684028625e-02 }
            -
               depth: 5
               value: 5.
               norm_class_idx: 5
               splits:
                  - { var:1755, quality:4.8932868957519531e+01,
                      le:4.2817071080207825e-02 }
            -
               depth: 6
               value: 1.
               norm_class_idx: 1
               splits:
                  - { var:747, quality:1.3285714149475098e+01,
                      le:9.7085610032081604e-03 }
            -
               depth: 7
               value: 0.
               norm_class_idx: 0
               splits:
                  - { var:1667, quality:1.0142857551574707e+01,
                      le:1.3765206933021545e-01 }
            -
               depth: 8
               value: 3.
               norm_class_idx: 3
            -
               depth: 8
               value: 0.
               norm_class_idx: 0
            -
               depth: 7
               value: 1.
               norm_class_idx: 1
               splits:
                  - { var:1557, quality:14., le:9.9643461406230927e-02 }
            -
               depth: 8
               value: 1.
               norm_class_idx: 1
            -
               depth: 8
               value: 5.
               norm_class_idx: 5
            -
               depth: 6
               value: 5.
               norm_class_idx: 5
               splits:
                  - { var:208, quality:4.8077045440673828e+01,
                      le:1.9967997074127197e-01 }
            -
               depth: 7
               value: 5.
               norm_class_idx: 5
               splits:
                  - { var:1197, quality:5.1843372344970703e+01,
                      le:3.6523533053696156e-03 }
            -
               depth: 8
               value: 3.
               norm_class_idx: 3
            -
               depth: 8
               value: 5.
               norm_class_idx: 5
               splits:
                  - { var:416, quality:5.0918682098388672e+01,
                      le:1.8927644193172455e-01 }
            -
               depth: 9
               value: 5.
               norm_class_idx: 5
               splits:
                  - { var:1165, quality:5.3846153259277344e+01,
                      le:4.5369107276201248e-02 }
            -
               depth: 10
               value: 1.
               norm_class_idx: 1
            -
               depth: 10
               value: 5.
               norm_class_idx: 5
            -
               depth: 9
               value: 1.
               norm_class_idx: 1
               splits:
                  - { var:1397, quality:7.2222223281860352e+00,
                      le:3.1446152925491333e-01 }
            -
               depth: 10
               value: 1.
               norm_class_idx: 1
            -
               depth: 10
               value: 3.
               norm_class_idx: 3
            -
               depth: 7
               value: 4.
               norm_class_idx: 4
            -
               depth: 5
               value: 1.
               norm_class_idx: 1
               splits:
                  - { var:1261, quality:1.9142856597900391e+01,
                      le:9.0614892542362213e-03 }
            -
               depth: 6
               value: 1.
               norm_class_idx: 1
            -
               depth: 6
               value: 1.
               norm_class_idx: 1
               splits:
                  - { var:1097, quality:1.5142857551574707e+01,
                      le:1.0191689431667328e-01 }
            -
               depth: 7
               value: 3.
               norm_class_idx: 3
               splits:
                  - { var:356, quality:9.3333330154418945e+00,
                      le:1.9985958933830261e-01 }
            -
               depth: 8
               value: 3.
               norm_class_idx: 3
            -
               depth: 8
               value: 5.
               norm_class_idx: 5
            -
               depth: 7
               value: 1.
               norm_class_idx: 1
               splits:
                  - { var:970, quality:1.2153845787048340e+01,
                      le:2.6213791221380234e-02 }
            -
               depth: 8
               value: 5.
               norm_class_idx: 5
            -
               depth: 8
               value: 1.
               norm_class_idx: 1
               splits:
                  - { var:639, quality:1.1666666984558105e+01,
                      le:1.0772117972373962e-01 }
            -
               depth: 9
               value: 1.
               norm_class_idx: 1
            -
               depth: 9
               value: 1.
               norm_class_idx: 1
            -
               depth: 3
               value: 4.
               norm_class_idx: 4
               splits:
                  - { var:227, quality:1.9157623291015625e+01,
                      le:1.4354033395648003e-02 }
            -
               depth: 4
               value: 0.
               norm_class_idx: 0
               splits:
                  - { var:137, quality:1.4449999809265137e+01,
                      le:5.8413997292518616e-02 }
            -
               depth: 5
               value: 4.
               norm_class_idx: 4
            -
               depth: 5
               value: 0.
               norm_class_idx: 0
            -
               depth: 4
               value: 5.
               norm_class_idx: 5
               splits:
                  - { var:403, quality:1.5590909004211426e+01,
                      le:6.8191207945346832e-02 }
            -
               depth: 5
               value: 2.
               norm_class_idx: 2
               splits:
                  - { var:931, quality:9., le:1.7325818538665771e-01 }
            -
               depth: 6
               value: 2.
               norm_class_idx: 2
            -
               depth: 6
               value: 3.
               norm_class_idx: 3
            -
               depth: 5
               value: 5.
               norm_class_idx: 5
               splits:
                  - { var:1574, quality:1.4592592239379883e+01,
                      le:2.6994153857231140e-02 }
            -
               depth: 6
               value: 3.
               norm_class_idx: 3
            -
               depth: 6
               value: 5.
               norm_class_idx: 5
               splits:
                  - { var:987, quality:1.2690909385681152e+01,
                      le:1.6015745699405670e-02 }
            -
               depth: 7
               value: 4.
               norm_class_idx: 4
            -
               depth: 7
               value: 5.
               norm_class_idx: 5
               splits:
                  - { var:923, quality:1.2923076629638672e+01,
                      le:1.7890155315399170e-01 }
            -
               depth: 8
               value: 5.
               norm_class_idx: 5
               splits:
                  - { var:920, quality:7., le:3.2414004206657410e-02 }
            -
               depth: 9
               value: 5.
               norm_class_idx: 5
            -
               depth: 9
               value: 4.
               norm_class_idx: 4
            -
               depth: 8
               value: 5.
               norm_class_idx: 5
            -
               depth: 2
               value: 2.
               norm_class_idx: 2
               splits:
                  - { var:1325, quality:2.7217786788940430e+01,
                      le:4.2915672063827515e-02 }
            -
               depth: 3
               value: 2.
               norm_class_idx: 2
               splits:
                  - { var:1254, quality:1.6117647171020508e+01,
                      le:1.1904695630073547e-01 }
            -
               depth: 4
               value: 1.
               norm_class_idx: 1
            -
               depth: 4
               value: 2.
               norm_class_idx: 2
               splits:
                  - { var:1307, quality:1.5399999618530273e+01,
                      le:4.8938050866127014e-02 }
            -
               depth: 5
               value: 2.
               norm_class_idx: 2
            -
               depth: 5
               value: 2.
               norm_class_idx: 2
            -
               depth: 3
               value: 0.
               norm_class_idx: 0
               splits:
                  - { var:1290, quality:2.0482759475708008e+01,
                      le:7.8674629330635071e-02 }
            -
               depth: 4
               value: 5.
               norm_class_idx: 5
               splits:
                  - { var:1305, quality:1.2279999732971191e+01,
                      le:2.1899393200874329e-01 }
            -
               depth: 5
               value: 5.
               norm_class_idx: 5
               splits:
                  - { var:144, quality:1.3632352828979492e+01,
                      le:2.6871994137763977e-01 }
            -
               depth: 6
               value: 5.
               norm_class_idx: 5
               splits:
                  - { var:434, quality:1.2653845787048340e+01,
                      le:2.4092085659503937e-02 }
            -
               depth: 7
               value: 5.
               norm_class_idx: 5
               splits:
                  - { var:1281, quality:13., le:1.6351771354675293e-01 }
            -
               depth: 8
               value: 5.
               norm_class_idx: 5
            -
               depth: 8
               value: 3.
               norm_class_idx: 3
            -
               depth: 7
               value: 0.
               norm_class_idx: 0
            -
               depth: 6
               value: 2.
               norm_class_idx: 2
            -
               depth: 5
               value: 3.
               norm_class_idx: 3
            -
               depth: 4
               value: 0.
               norm_class_idx: 0
               splits:
                  - { var:510, quality:1.9083333969116211e+01,
                      le:2.6156657934188843e-01 }
            -
               depth: 5
               value: 0.
               norm_class_idx: 0
               splits:
                  - { var:1713, quality:1.8444444656372070e+01,
                      le:1.3830401003360748e-01 }
            -
               depth: 6
               value: 0.
               norm_class_idx: 0
               splits:
                  - { var:1182, quality:1.6500000000000000e+01,
                      le:2.6210856437683105e-01 }
            -
               depth: 7
               value: 0.
               norm_class_idx: 0
            -
               depth: 7
               value: 0.
               norm_class_idx: 0
            -
               depth: 6
               value: 4.
               norm_class_idx: 4
            -
               depth: 5
               value: 3.
               norm_class_idx: 3
      -
         nodes:
            -
               depth: 0
               value: 5.
               norm_class_idx: 5
               splits:
                  - { var:1695, quality:8.8011550903320313e+01,
                      le:2.8081150725483894e-02 }
            -
               depth: 1
               value: 4.
               norm_class_idx: 4
               splits:
                  - { var:237, quality:2.6433961868286133e+01,
                      le:5.3805761126568541e-05 }
            -
               depth: 2
               value: 2.
               norm_class_idx: 2
            -
               depth: 2
               value: 4.
               norm_class_idx: 4
               splits:
                  - { var:1384, quality:2.7775510787963867e+01,
                      le:2.9233908653259277e-01 }
            -
               depth: 3
               value: 4.
               norm_class_idx: 4
               splits:
                  - { var:1602, quality:2.8882759094238281e+01,
                      le:2.0412641763687134e-01 }
            -
               depth: 4
               value: 4.
               norm_class_idx: 4
               splits:
                  - { var:1547, quality:8.9010992050170898e+00,
                      le:3.4747269004583359e-02 }
            -
               depth: 5
               value: 4.
               norm_class_idx: 4
            -
               depth: 5
               value: 5.
               norm_class_idx: 5
               splits:
                  - { var:936, quality:5.9090909957885742e+00,
                      le:2.1144780516624451e-01 }
            -
               depth: 6
               value: 5.
               norm_class_idx: 5
               splits:
                  - { var:330, quality:6.2857141494750977e+00,
                      le:9.9393613636493683e-02 }
            -
               depth: 7
               value: 0.
               norm_class_idx: 0
            -
               depth: 7
               value: 5.
               norm_class_idx: 5
            -
               depth: 6
               value: 2.
               norm_class_idx: 2
            -
               depth: 4
               value: 4.
               norm_class_idx: 4
               splits:
                  - { var:1655, quality:2.5799999237060547e+01,
                      le:1.2477898597717285e-01 }
            -
               depth: 5
               value: 0.
               norm_class_idx: 0
            -
               depth: 5
               value: 4.
               norm_class_idx: 4
            -
               depth: 3
               value: 3.
               norm_class_idx: 3
            -
               depth: 1
               value: 5.
               norm_class_idx: 5
               splits:
                  - { var:967, quality:8.2664825439453125e+01,
                      le:2.8384122997522354e-02 }
            -
               depth: 2
               value: 3.
               norm_class_idx: 3
               splits:
                  - { var:1355, quality:21., le:6.8041734397411346e-02 }
            -
               depth: 3
               value: 3.
               norm_class_idx: 3
            -
               depth: 3
               value: 1.
               norm_class_idx: 1
            -
               depth: 2
               value: 5.
               norm_class_idx: 5
               splits:
                  - { var:1555, quality:8.3838668823242188e+01,
                      le:1.2174789607524872e-01 }
            -
               depth: 3
               value: 5.
               norm_class_idx: 5
               splits:
                  - { var:1742, quality:6.4414817810058594e+01,
                      le:1.3264298439025879e-01 }
            -
               depth: 4
               value: 5.
               norm_class_idx: 5
               splits:
                  - { var:825, quality:6.4281883239746094e+01,
                      le:2.3839488625526428e-01 }
            -
               depth: 5
               value: 5.
               norm_class_idx: 5
               splits:
                  - { var:280, quality:5.8658462524414063e+01,
                      le:2.7177357673645020e-01 }
            -
               depth: 6
               value: 5.
               norm_class_idx: 5
               splits:
                  - { var:541, quality:5.6916667938232422e+01,
                      le:1.0475505143404007e-02 }
            -
               depth: 7
               value: 4.
               norm_class_idx: 4
            -
               depth: 7
               value: 5.
               norm_class_idx: 5
               splits:
                  - { var:864, quality:5.8794116973876953e+01,
                      le:1.2882329523563385e-02 }
            -
               depth: 8
               value: 2.
               norm_class_idx: 2
            -
               depth: 8
               value: 5.
               norm_class_idx: 5
               splits:
                  - { var:211, quality:5.8567165374755859e+01,
                      le:2.5314688682556152e-03 }
            -
               depth: 9
               value: 3.
               norm_class_idx: 3
            -
               depth: 9
               value: 5.
               norm_class_idx: 5
               splits:
                  - { var:1005, quality:5.8890323638916016e+01,
                      le:5.7776547037065029e-03 }
            -
               depth: 10
               value: 5.
               norm_class_idx: 5
            -
               depth: 10
               value: 5.
               norm_class_idx: 5
            -
               depth: 6
               value: 4.
               norm_class_idx: 4
               splits:
                  - { var:1534, quality:1.1074999809265137e+01,
                      le:1.7178057134151459e-01 }
            -
               depth: 7
               value: 4.
               norm_class_idx: 4
            -
               depth: 7
               value: 5.
               norm_class_idx: 5
               splits:
                  - { var:805, quality:1.1750000000000000e+01,
                      le:1.3095529377460480e-01 }
            -
               depth: 8
               value: 5.
               norm_class_idx: 5
            -
               depth: 8
               value: 2.
               norm_class_idx: 2
            -
               depth: 5
               value: 1.
               norm_class_idx: 1
               splits:
                  - { var:1446, quality:2.0185714721679688e+01,
                      le:6.5119341015815735e-02 }
            -
               depth: 6
               value: 5.
               norm_class_idx: 5
               splits:
                  - { var:599, quality:14., le:1.3595622777938843e-01 }
            -
               depth: 7
               value: 1.
               norm_class_idx: 1
            -
               depth: 7
               value: 5.
               norm_class_idx: 5
            -
               depth: 6
               value: 1.
               norm_class_idx: 1
               splits:
                  - { var:1109, quality:20., le:9.4640344381332397e-02 }
            -
               depth: 7
               value: 3.
               norm_class_idx: 3
            -
               depth: 7
               value: 1.
               norm_class_idx: 1
            -
               depth: 4
               value: 1.
               norm_class_idx: 1
               splits:
                  - { var:1109, quality:1.3355262756347656e+01,
                      le:9.7039803862571716e-02 }
            -
               depth: 5
               value: 2.
               norm_class_idx: 2
            -
               depth: 5
               value: 1.
               norm_class_idx: 1
               splits:
                  - { var:752, quality:1.3933333396911621e+01,
                      le:3.3379995822906494e-01 }
            -
               depth: 6
               value: 1.
               norm_class_idx: 1
               splits:
                  - { var:1356, quality:1.1800000190734863e+01,
                      le:1.9629648327827454e-01 }
            -
               depth: 7
               value: 1.
               norm_class_idx: 1
            -
               depth: 7
               value: 1.
               norm_class_idx: 1
            -
               depth: 6
               value: 2.
               norm_class_idx: 2
            -
               depth: 3
               value: 0.
               norm_class_idx: 0
               splits:
                  - { var:715, quality:4.5077373504638672e+01,
                      le:2.2184544801712036e-01 }
            -
               depth: 4
               value: 1.
               norm_class_idx: 1
               splits:
                  - { var:679, quality:2.5949628829956055e+01,
                      le:8.4849268198013306e-02 }
            -
               depth: 5
               value: 1.
               norm_class_idx: 1
               splits:
                  - { var:1134, quality:1.6476190567016602e+01,
                      le:8.6668461561203003e-02 }
            -
               depth: 6
               value: 5.
               norm_class_idx: 5
            -
               depth: 6
               value: 1.
               norm_class_idx: 1
               splits:
                  - { var:1328, quality:1.7777778625488281e+01,
                      le:7.5567536056041718e-02 }
            -
               depth: 7
               value: 2.
               norm_class_idx: 2
            -
               depth: 7
               value: 1.
               norm_class_idx: 1
               splits:
                  - { var:27, quality:18., le:2.3563040420413017e-02 }
            -
               depth: 8
               value: 5.
               norm_class_idx: 5
            -
               depth: 8
               value: 1.
               norm_class_idx: 1
            -
               depth: 5
               value: 4.
               norm_class_idx: 4
               splits:
                  - { var:236, quality:1.7756097793579102e+01,
                      le:2.1846070885658264e-01 }
            -
               depth: 6
               value: 2.
               norm_class_idx: 2
               splits:
                  - { var:286, quality:1.3151515007019043e+01,
                      le:4.3990239500999451e-02 }
            -
               depth: 7
               value: 1.
               norm_class_idx: 1
               splits:
                  - { var:574, quality:8., le:5.0944663584232330e-02 }
            -
               depth: 8
               value: 1.
               norm_class_idx: 1
            -
               depth: 8
               value: 4.
               norm_class_idx: 4
            -
               depth: 7
               value: 2.
               norm_class_idx: 2
               splits:
                  - { var:127, quality:1.3340909004211426e+01,
                      le:1.3351896405220032e-01 }
            -
               depth: 8
               value: 2.
               norm_class_idx: 2
               splits:
                  - { var:198, quality:1.2333333015441895e+01,
                      le:5.4813474416732788e-02 }
            -
               depth: 9
               value: 2.
               norm_class_idx: 2
            -
               depth: 9
               value: 5.
               norm_class_idx: 5
               splits:
                  - { var:369, quality:13., le:1.9455391168594360e-01 }
            -
               depth: 10
               value: 5.
               norm_class_idx: 5
            -
               depth: 10
               value: 2.
               norm_class_idx: 2
            -
               depth: 8
               value: 3.
               norm_class_idx: 3
            -
               depth: 6
               value: 4.
               norm_class_idx: 4
            -
               depth: 4
               value: 0.
               norm_class_idx: 0
               splits:
                  - { var:1560, quality:3.2758171081542969e+01,
                      le:3.4167978912591934e-02 }
            -
               depth: 5
               value: 1.
               norm_class_idx: 1
               splits:
                  - { var:1466, quality:8., le:3.7468098104000092e-02 }
            -
               depth: 6
               value: 0.
               norm_class_idx: 0
            -
               depth: 6
               value: 1.
               norm_class_idx: 1
               splits:
                  - { var:1141, quality:8., le:1.8402308225631714e-02 }
            -
               depth: 7
               value: 3.
               norm_class_idx: 3
            -
               depth: 7
               value: 1.
               norm_class_idx: 1
               splits:
                  - { var:1534, quality:7.9166665077209473e+00,
                      le:1.4212933182716370e-01 }
            -
               depth: 8
               value: 1.
               norm_class_idx: 1
            -
               depth: 8
               value: 5.
               norm_class_idx: 5
            -
               depth: 5
               value: 0.
               norm_class_idx: 0
               splits:
                  - { var:455, quality:3.2434066772460938e+01,
                      le:2.1549853682518005e-01 }
            -
               depth: 6
               value: 0.
               norm_class_idx: 0
               splits:
                  - { var:1542, quality:1.2088889122009277e+01,
                      le:2.9863795265555382e-02 }
            -
               depth: 7
               value: 0.
               norm_class_idx: 0
            -
               depth: 7
               value: 4.
               norm_class_idx: 4
               splits:
                  - { var:241, quality:6.8333334922790527e+00,
                      le:2.6515170931816101e-01 }
            -
               depth: 8
               value: 4.
               norm_class_idx: 4
            -
               depth: 8
               value: 0.
               norm_class_idx: 0
               splits:
                  - { var:126, quality:7.2500000000000000e+00,
                      le:2.3703792691230774e-01 }
            -
